{"learner":{"attributes":{"scikit_learn":"{\"_estimator_type\": \"regressor\"}"},"feature_names":["weather_madrid_sensors_temperature_2m_mean","weather_madrid_sensors_precipitation_sum","weather_madrid_sensors_wind_speed_10m_max","weather_madrid_sensors_wind_direction_10m_dominant","weather_madrid_sensors_cloud_cover_max","weather_madrid_sensors_relative_humidity_2m_mean","weather_madrid_sensors_dew_point_2m_max"],"feature_types":["float","float","float","float","float","float","float"],"gradient_booster":{"model":{"gbtree_model_param":{"num_parallel_tree":"1","num_trees":"300"},"iteration_indptr":[0,1,2,3,4,5,6,7,8,9,10,11,12,13,14,15,16,17,18,19,20,21,22,23,24,25,26,27,28,29,30,31,32,33,34,35,36,37,38,39,40,41,42,43,44,45,46,47,48,49,50,51,52,53,54,55,56,57,58,59,60,61,62,63,64,65,66,67,68,69,70,71,72,73,74,75,76,77,78,79,80,81,82,83,84,85,86,87,88,89,90,91,92,93,94,95,96,97,98,99,100,101,102,103,104,105,106,107,108,109,110,111,112,113,114,115,116,117,118,119,120,121,122,123,124,125,126,127,128,129,130,131,132,133,134,135,136,137,138,139,140,141,142,143,144,145,146,147,148,149,150,151,152,153,154,155,156,157,158,159,160,161,162,163,164,165,166,167,168,169,170,171,172,173,174,175,176,177,178,179,180,181,182,183,184,185,186,187,188,189,190,191,192,193,194,195,196,197,198,199,200,201,202,203,204,205,206,207,208,209,210,211,212,213,214,215,216,217,218,219,220,221,222,223,224,225,226,227,228,229,230,231,232,233,234,235,236,237,238,239,240,241,242,243,244,245,246,247,248,249,250,251,252,253,254,255,256,257,258,259,260,261,262,263,264,265,266,267,268,269,270,271,272,273,274,275,276,277,278,279,280,281,282,283,284,285,286,287,288,289,290,291,292,293,294,295,296,297,298,299,300],"tree_info":[0,0,0,0,0,0,0,0,0,0,0,0,0,0,0,0,0,0,0,0,0,0,0,0,0,0,0,0,0,0,0,0,0,0,0,0,0,0,0,0,0,0,0,0,0,0,0,0,0,0,0,0,0,0,0,0,0,0,0,0,0,0,0,0,0,0,0,0,0,0,0,0,0,0,0,0,0,0,0,0,0,0,0,0,0,0,0,0,0,0,0,0,0,0,0,0,0,0,0,0,0,0,0,0,0,0,0,0,0,0,0,0,0,0,0,0,0,0,0,0,0,0,0,0,0,0,0,0,0,0,0,0,0,0,0,0,0,0,0,0,0,0,0,0,0,0,0,0,0,0,0,0,0,0,0,0,0,0,0,0,0,0,0,0,0,0,0,0,0,0,0,0,0,0,0,0,0,0,0,0,0,0,0,0,0,0,0,0,0,0,0,0,0,0,0,0,0,0,0,0,0,0,0,0,0,0,0,0,0,0,0,0,0,0,0,0,0,0,0,0,0,0,0,0,0,0,0,0,0,0,0,0,0,0,0,0,0,0,0,0,0,0,0,0,0,0,0,0,0,0,0,0,0,0,0,0,0,0,0,0,0,0,0,0,0,0,0,0,0,0,0,0,0,0,0,0,0,0,0,0,0,0,0,0,0,0,0,0,0,0,0,0,0,0,0,0,0,0,0,0],"trees":[{"base_weights":[1.1136926E-2,6.923279E0,-4.149857E0,1.635931E1,4.3646035E0,-8.340471E0,8.96031E0,-1.1863584E-2,5.688411E-1,1.130076E0,1.2416249E-1,-3.2692656E-1,-1.0178373E-1,1.4698154E-1,4.6118626E-1],"categories":[],"categories_nodes":[],"categories_segments":[],"categories_sizes":[],"default_left":[0,0,0,0,0,0,0,0,0,0,0,0,0,0,0],"id":0,"left_children":[1,3,5,7,9,11,13,-1,-1,-1,-1,-1,-1,-1,-1],"loss_changes":[5.428142E5,1.7086425E5,6.476176E5,6.591797E4,4.1225703E4,1.1278981E5,7.399028E4,0E0,0E0,0E0,0E0,0E0,0E0,0E0,0E0],"parents":[2147483647,0,0,1,1,2,2,3,3,4,4,5,5,6,6],"right_children":[2,4,6,8,10,12,14,-1,-1,-1,-1,-1,-1,-1,-1],"split_conditions":[1.3910169E1,8.287822E0,2.3387499E1,5.684326E1,2.5283328E-1,1.5370415E1,2.7849167E1,-1.1863584E-2,5.688411E-1,1.130076E0,1.2416249E-1,-3.2692656E-1,-1.0178373E-1,1.4698154E-1,4.6118626E-1],"split_indices":[2,2,0,5,0,0,0,0,0,0,0,0,0,0,0],"split_type":[0,0,0,0,0,0,0,0,0,0,0,0,0,0,0],"sum_hessian":[1.8863E4,7.087E3,1.1776E4,1.506E3,5.581E3,8.925E3,2.851E3,2.03E2,1.303E3,3.2E1,5.549E3,5.88E3,3.045E3,1.751E3,1.1E3],"tree_param":{"num_deleted":"0","num_feature":"7","num_nodes":"15","size_leaf_vector":"1"}},{"base_weights":[-1.9655989E-1,6.5199018E0,-4.194153E0,1.5183518E1,4.265322E0,-8.40953E0,8.859965E0,-3.1267363E-3,5.274603E-1,5.1301587E-1,1.0704923E-1,-3.2763252E-1,-1.04799666E-1,1.4182949E-1,4.535033E-1],"categories":[],"categories_nodes":[],"categories_segments":[],"categories_sizes":[],"default_left":[0,0,0,0,0,0,0,0,0,0,0,0,0,0,0],"id":1,"left_children":[1,3,5,7,9,11,13,-1,-1,-1,-1,-1,-1,-1,-1],"loss_changes":[5.0703116E5,1.3729853E5,6.517942E5,5.3292344E4,4.977025E4,1.1032581E5,7.440972E4,0E0,0E0,0E0,0E0,0E0,0E0,0E0,0E0],"parents":[2147483647,0,0,1,1,2,2,3,3,4,4,5,5,6,6],"right_children":[2,4,6,8,10,12,14,-1,-1,-1,-1,-1,-1,-1,-1],"split_conditions":[1.3910169E1,8.287822E0,2.3387499E1,5.684326E1,3.0741663E0,1.5370415E1,2.7687082E1,-3.1267363E-3,5.274603E-1,5.1301587E-1,1.0704923E-1,-3.2763252E-1,-1.04799666E-1,1.4182949E-1,4.535033E-1],"split_indices":[2,2,0,5,0,0,0,0,0,0,0,0,0,0,0],"split_type":[0,0,0,0,0,0,0,0,0,0,0,0,0,0,0],"sum_hessian":[1.8874E4,7.041E3,1.1833E4,1.448E3,5.593E3,8.946E3,2.887E3,1.97E2,1.251E3,2.82E2,5.311E3,5.917E3,3.029E3,1.744E3,1.143E3],"tree_param":{"num_deleted":"0","num_feature":"7","num_nodes":"15","size_leaf_vector":"1"}},{"base_weights":[-6.135068E-2,6.6713524E0,-3.8241696E0,1.4776974E1,4.4778166E0,-7.8846984E0,8.764758E0,1.6218019E-1,5.709114E-1,1.28289E0,1.2419347E-1,-3.0864275E-1,-1.0051099E-1,1.4544314E-1,4.2522863E-1],"categories":[],"categories_nodes":[],"categories_segments":[],"categories_sizes":[],"default_left":[0,0,0,0,0,0,0,0,0,0,0,0,0,0,0],"id":2,"left_children":[1,3,5,7,9,11,13,-1,-1,-1,-1,-1,-1,-1,-1],"loss_changes":[4.7683553E5,1.19642625E5,6.175404E5,5.667528E4,6.79248E4,9.934206E4,6.208953E4,0E0,0E0,0E0,0E0,0E0,0E0,0E0,0E0],"parents":[2147483647,0,0,1,1,2,2,3,3,4,4,5,5,6,6],"right_children":[2,4,6,8,10,12,14,-1,-1,-1,-1,-1,-1,-1,-1],"split_conditions":[1.3608762E1,8.287822E0,2.3387499E1,7.142454E1,2.5283328E-1,1.5370415E1,2.7549997E1,1.6218019E-1,5.709114E-1,1.28289E0,1.2419347E-1,-3.0864275E-1,-1.0051099E-1,1.4544314E-1,4.2522863E-1],"split_indices":[2,2,0,5,0,0,0,0,0,0,0,0,0,0,0],"split_type":[0,0,0,0,0,0,0,0,0,0,0,0,0,0,0],"sum_hessian":[1.8812E4,6.743E3,1.2069E4,1.43E3,5.313E3,9.127E3,2.942E3,4.5E2,9.8E2,4.1E1,5.272E3,5.961E3,3.166E3,1.712E3,1.23E3],"tree_param":{"num_deleted":"0","num_feature":"7","num_nodes":"15","size_leaf_vector":"1"}},{"base_weights":[5.8179416E-2,-1.689331E0,1.0162039E1,7.6086134E-1,-4.4111614E0,7.243864E0,1.6141516E1,-1.063631E-1,1.4590824E-1,-2.2627959E-2,-2.795523E-1,1.8244334E-1,4.324423E-1,3.9849105E-1,6.672067E-1],"categories":[],"categories_nodes":[],"categories_segments":[],"categories_sizes":[],"default_left":[0,0,0,0,0,0,0,0,0,0,0,0,0,0,0],"id":3,"left_children":[1,3,5,7,9,11,13,-1,-1,-1,-1,-1,-1,-1,-1],"loss_changes":[3.3265047E5,1.0713549E5,4.7882094E4,1.4950192E5,1.3652555E5,1.51930625E4,1.4324047E4,0E0,0E0,0E0,0E0,0E0,0E0,0E0,0E0],"parents":[2147483647,0,0,1,1,2,2,3,3,4,4,5,5,6,6],"right_children":[2,4,6,8,10,12,14,-1,-1,-1,-1,-1,-1,-1,-1],"split_conditions":[2.5397667E1,2.1567609E2,2.8954916E1,6.3644512E1,1E-1,1.46875E1,9.3E1,-1.063631E-1,1.4590824E-1,-2.2627959E-2,-2.795523E-1,1.8244334E-1,4.324423E-1,3.9849105E-1,6.672067E-1],"split_indices":[0,3,0,5,1,6,4,0,0,0,0,0,0,0,0],"split_type":[0,0,0,0,0,0,0,0,0,0,0,0,0,0,0],"sum_hessian":[1.883E4,1.6057E4,2.773E3,8.452E3,7.605E3,1.871E3,9.02E2,4.124E3,4.328E3,4.361E3,3.244E3,1.618E3,2.53E2,6.25E2,2.77E2],"tree_param":{"num_deleted":"0","num_feature":"7","num_nodes":"15","size_leaf_vector":"1"}},{"base_weights":[2.1707438E-2,6.978151E0,-3.4883432E0,1.2224193E1,3.458184E0,-7.0449185E0,9.380161E0,4.7501135E-1,2.0082156E-1,8.497377E-2,4.7667977E-1,-2.6355E-1,1.6749043E-2,1.7152603E-1,4.202529E-1],"categories":[],"categories_nodes":[],"categories_segments":[],"categories_sizes":[],"default_left":[0,0,0,0,0,0,0,0,0,0,0,0,0,0,0],"id":4,"left_children":[1,3,5,7,9,11,13,-1,-1,-1,-1,-1,-1,-1,-1],"loss_changes":[4.614664E5,1.1682075E5,5.752191E5,5.02245E4,2.932757E4,1.3026525E5,4.5735938E4,0E0,0E0,0E0,0E0,0E0,0E0,0E0,0E0],"parents":[2147483647,0,0,1,1,2,2,3,3,4,4,5,5,6,6],"right_children":[2,4,6,8,10,12,14,-1,-1,-1,-1,-1,-1,-1,-1],"split_conditions":[1.3246826E1,9.327833E0,2.435192E1,9.885262E0,1.5382E1,1.1445E1,2.7849167E1,4.7501135E-1,2.0082156E-1,8.497377E-2,4.7667977E-1,-2.6355E-1,1.6749043E-2,1.7152603E-1,4.202529E-1],"split_indices":[2,0,0,2,6,6,0,0,0,0,0,0,0,0,0],"split_type":[0,0,0,0,0,0,0,0,0,0,0,0,0,0,0],"sum_hessian":[1.8889E4,6.333E3,1.2556E4,2.538E3,3.795E3,9.839E3,2.717E3,1.53E3,1.008E3,3.619E3,1.76E2,8.006E3,1.833E3,1.523E3,1.194E3],"tree_param":{"num_deleted":"0","num_feature":"7","num_nodes":"15","size_leaf_vector":"1"}},{"base_weights":[-3.181897E-2,9.115216E0,-2.57377E0,1.3454792E1,3.683478E0,-5.5682063E0,8.644282E0,1.3492573E0,3.893449E-1,-1.6581157E-3,2.0223011E-1,-3.726441E-2,-2.6373807E-1,1.826375E-1,4.5327345E-1],"categories":[],"categories_nodes":[],"categories_segments":[],"categories_sizes":[],"default_left":[0,0,0,0,0,0,0,0,0,0,0,0,0,0,0],"id":5,"left_children":[1,3,5,7,9,11,13,-1,-1,-1,-1,-1,-1,-1,-1],"loss_changes":[4.3986747E5,9.671997E4,4.9753194E5,3.1392969E4,2.0968912E4,1.629101E5,5.1112844E4,0E0,0E0,0E0,0E0,0E0,0E0,0E0,0E0],"parents":[2147483647,0,0,1,1,2,2,3,3,4,4,5,5,6,6],"right_children":[2,4,6,8,10,12,14,-1,-1,-1,-1,-1,-1,-1,-1],"split_conditions":[1.1119281E1,1.0885167E1,2.435192E1,2.5283328E-1,9.9665E0,1.687398E1,2.8954916E1,1.3492573E0,3.893449E-1,-1.6581157E-3,2.0223011E-1,-3.726441E-2,-2.6373807E-1,1.826375E-1,4.5327345E-1],"split_indices":[2,0,0,0,6,2,0,0,0,0,0,0,0,0,0],"split_type":[0,0,0,0,0,0,0,0,0,0,0,0,0,0,0],"sum_hessian":[1.8908E4,4.109E3,1.4799E4,2.28E3,1.829E3,1.1683E4,3.116E3,2.7E1,2.253E3,8.25E2,1.004E3,4.991E3,6.692E3,2.24E3,8.76E2],"tree_param":{"num_deleted":"0","num_feature":"7","num_nodes":"15","size_leaf_vector":"1"}},{"base_weights":[1.3096051E-1,8.786258E0,-2.297901E0,5.2810936E0,1.6277922E1,-5.3840666E0,4.3012815E0,3.1993236E-2,2.3409817E-1,5.635733E-1,1.18626826E-1,1.2962429E-1,-2.0478958E-1,2.4954884E-1,-1.09283645E-2],"categories":[],"categories_nodes":[],"categories_segments":[],"categories_sizes":[],"default_left":[0,0,0,0,0,0,0,0,0,0,0,0,0,0,0],"id":6,"left_children":[1,3,5,7,9,11,13,-1,-1,-1,-1,-1,-1,-1,-1],"loss_changes":[3.917104E5,1.0678131E5,2.9644388E5,2.9603102E4,3.9768656E4,1.3894131E5,8.695991E4,0E0,0E0,0E0,0E0,0E0,0E0,0E0,0E0],"parents":[2147483647,0,0,1,1,2,2,3,3,4,4,5,5,6,6],"right_children":[2,4,6,8,10,12,14,-1,-1,-1,-1,-1,-1,-1,-1],"split_conditions":[1.1119281E1,7.90274E1,1.0795E1,5.684326E1,1.1E0,3.116655E1,5.083604E1,3.1993236E-2,2.3409817E-1,5.635733E-1,1.18626826E-1,1.2962429E-1,-2.0478958E-1,2.4954884E-1,-1.09283645E-2],"split_indices":[2,5,6,5,1,5,5,0,0,0,0,0,0,0,0],"split_type":[0,0,0,0,0,0,0,0,0,0,0,0,0,0,0],"sum_hessian":[1.8623E4,4.078E3,1.4545E4,2.784E3,1.294E3,9.911E3,4.634E3,1.045E3,1.739E3,1.073E3,2.21E2,1.281E3,8.63E3,2.488E3,2.146E3],"tree_param":{"num_deleted":"0","num_feature":"7","num_nodes":"15","size_leaf_vector":"1"}},{"base_weights":[-1.6562115E-2,5.758215E0,-3.4991806E0,1.2846853E1,3.6476436E0,-7.009933E0,8.25149E0,2.550511E-1,5.777777E-1,1.2205942E0,1.00349724E-1,-2.808944E-1,-7.280944E-2,1.404416E-1,3.8370216E-1],"categories":[],"categories_nodes":[],"categories_segments":[],"categories_sizes":[],"default_left":[0,0,0,0,0,0,0,0,0,0,0,0,0,0,0],"id":7,"left_children":[1,3,5,7,9,11,13,-1,-1,-1,-1,-1,-1,-1,-1],"loss_changes":[3.8004356E5,1.0611903E5,4.8658744E5,4.4561594E4,6.0792625E4,9.779684E4,4.3670875E4,0E0,0E0,0E0,0E0,0E0,0E0,0E0,0E0],"parents":[2147483647,0,0,1,1,2,2,3,3,4,4,5,5,6,6],"right_children":[2,4,6,8,10,12,14,-1,-1,-1,-1,-1,-1,-1,-1],"split_conditions":[1.4007655E1,8.427383E0,2.4020584E1,8.0970695E1,2.5283328E-1,1.5851917E1,2.7687082E1,2.550511E-1,5.777777E-1,1.2205942E0,1.00349724E-1,-2.808944E-1,-7.280944E-2,1.404416E-1,3.8370216E-1],"split_indices":[2,2,0,5,0,0,0,0,0,0,0,0,0,0,0],"split_type":[0,0,0,0,0,0,0,0,0,0,0,0,0,0,0],"sum_hessian":[1.8887E4,7.104E3,1.1783E4,1.624E3,5.48E3,9.074E3,2.709E3,9.75E2,6.49E2,3.9E1,5.441E3,5.992E3,3.082E3,1.522E3,1.187E3],"tree_param":{"num_deleted":"0","num_feature":"7","num_nodes":"15","size_leaf_vector":"1"}},{"base_weights":[-1.1980311E-1,-1.6942521E0,8.965986E0,6.0224235E-1,-4.2227974E0,6.2138853E0,1.4914449E1,-1.5584683E-1,9.7857185E-2,-2.4471523E-2,-2.607491E-1,1.17841914E-1,3.0570427E-1,4.2217055E-1,1.0849745E0],"categories":[],"categories_nodes":[],"categories_segments":[],"categories_sizes":[],"default_left":[0,0,0,0,0,0,0,0,0,0,0,0,0,0,0],"id":8,"left_children":[1,3,5,7,9,11,13,-1,-1,-1,-1,-1,-1,-1,-1],"loss_changes":[2.6780828E5,9.266695E4,4.4795453E4,1.2907478E5,1.1560083E5,1.7055672E4,1.3027391E4,0E0,0E0,0E0,0E0,0E0,0E0,0E0,0E0],"parents":[2147483647,0,0,1,1,2,2,3,3,4,4,5,5,6,6],"right_children":[2,4,6,8,10,12,14,-1,-1,-1,-1,-1,-1,-1,-1],"split_conditions":[2.5397667E1,2.1567609E2,2.8954916E1,5.2251537E1,1E-1,1.2896999E1,3.5182365E1,-1.5584683E-1,9.7857185E-2,-2.4471523E-2,-2.607491E-1,1.17841914E-1,3.0570427E-1,4.2217055E-1,1.0849745E0],"split_indices":[0,3,0,5,1,6,5,0,0,0,0,0,0,0,0],"split_type":[0,0,0,0,0,0,0,0,0,0,0,0,0,0,0],"sum_hessian":[1.8711E4,1.5951E4,2.76E3,8.361E3,7.59E3,1.894E3,8.66E2,2.628E3,5.733E3,4.31E3,3.28E3,1.209E3,6.85E2,8.41E2,2.5E1],"tree_param":{"num_deleted":"0","num_feature":"7","num_nodes":"15","size_leaf_vector":"1"}},{"base_weights":[-3.8181838E-2,5.312298E0,-3.6808677E0,2.990924E0,1.1717531E1,-7.250413E0,3.7546077E0,3.6915666E-1,7.132779E-2,5.064421E-1,1.2979907E-1,1.0740419E-1,-2.6567814E-1,2.9177204E-1,8.848498E-3],"categories":[],"categories_nodes":[],"categories_segments":[],"categories_sizes":[],"default_left":[0,0,0,0,0,0,0,0,0,0,0,0,0,0,0],"id":9,"left_children":[1,3,5,7,9,11,13,-1,-1,-1,-1,-1,-1,-1,-1],"loss_changes":[3.6588775E5,1.1288381E5,2.9657656E5,3.177214E4,7.676122E4,1.3141025E5,7.4888766E4,0E0,0E0,0E0,0E0,0E0,0E0,0E0,0E0],"parents":[2147483647,0,0,1,1,2,2,3,3,4,4,5,5,6,6],"right_children":[2,4,6,8,10,12,14,-1,-1,-1,-1,-1,-1,-1,-1],"split_conditions":[1.4529915E1,7.857778E1,1.0795E1,7.289444E0,1E-1,3.116655E1,3.9199387E1,3.6915666E-1,7.132779E-2,5.064421E-1,1.2979907E-1,1.0740419E-1,-2.6567814E-1,2.9177204E-1,8.848498E-3],"split_indices":[2,5,6,2,1,5,5,0,0,0,0,0,0,0,0],"split_type":[0,0,0,0,0,0,0,0,0,0,0,0,0,0,0],"sum_hessian":[1.8763E4,7.599E3,1.1164E4,5.583E3,2.016E3,7.543E3,3.621E3,3.39E2,5.244E3,1.183E3,8.33E2,9.73E2,6.57E3,1.325E3,2.296E3],"tree_param":{"num_deleted":"0","num_feature":"7","num_nodes":"15","size_leaf_vector":"1"}},{"base_weights":[-8.320327E-2,5.940637E0,-3.115403E0,1.1170994E1,2.9244778E0,-6.4508605E0,6.972264E0,8.117572E-1,2.9916915E-1,3.0503416E-1,5.7704847E-2,-2.3838495E-1,1.35222E-2,1.1463719E-1,3.730803E-1],"categories":[],"categories_nodes":[],"categories_segments":[],"categories_sizes":[],"default_left":[0,0,0,0,0,0,0,0,0,0,0,0,0,0,0],"id":10,"left_children":[1,3,5,7,9,11,13,-1,-1,-1,-1,-1,-1,-1,-1],"loss_changes":[3.424234E5,9.885583E4,4.1980262E5,4.232725E4,2.8813363E4,9.675981E4,5.3145562E4,0E0,0E0,0E0,0E0,0E0,0E0,0E0,0E0],"parents":[2147483647,0,0,1,1,2,2,3,3,4,4,5,5,6,6],"right_children":[2,4,6,8,10,12,14,-1,-1,-1,-1,-1,-1,-1,-1],"split_conditions":[1.3246826E1,8.68825E0,2.3387499E1,1.8830832E0,7.771331E0,1.1495E1,2.7978247E1,8.117572E-1,2.9916915E-1,3.0503416E-1,5.7704847E-2,-2.3838495E-1,1.35222E-2,1.1463719E-1,3.730803E-1],"split_indices":[2,0,0,0,2,6,0,0,0,0,0,0,0,0,0],"split_type":[0,0,0,0,0,0,0,0,0,0,0,0,0,0,0],"sum_hessian":[1.8737E4,6.272E3,1.2465E4,2.289E3,3.983E3,9.369E3,3.096E3,1.53E2,2.136E3,4.78E2,3.505E3,7.7E3,1.669E3,1.969E3,1.127E3],"tree_param":{"num_deleted":"0","num_feature":"7","num_nodes":"15","size_leaf_vector":"1"}},{"base_weights":[7.3202424E-2,7.4362626E0,-2.2620606E0,1.1615952E1,3.2658365E0,-5.044163E0,7.5993032E0,1.3563267E0,3.3368933E-1,-7.4401826E-2,1.4976807E-1,-2.818831E-2,-2.3615365E-1,1.5619482E-1,4.1920727E-1],"categories":[],"categories_nodes":[],"categories_segments":[],"categories_sizes":[],"default_left":[0,0,0,0,0,0,0,0,0,0,0,0,0,0,0],"id":11,"left_children":[1,3,5,7,9,11,13,-1,-1,-1,-1,-1,-1,-1,-1],"loss_changes":[3.2298462E5,7.864666E4,3.914461E5,3.484775E4,2.2590764E4,1.2909025E5,4.7523062E4,0E0,0E0,0E0,0E0,0E0,0E0,0E0,0E0],"parents":[2147483647,0,0,1,1,2,2,3,3,4,4,5,5,6,6],"right_children":[2,4,6,8,10,12,14,-1,-1,-1,-1,-1,-1,-1,-1],"split_conditions":[1.1588701E1,1.0253251E1,2.4020584E1,2.5283328E-1,8.006E0,1.692383E1,2.8954916E1,1.3563267E0,3.3368933E-1,-7.4401826E-2,1.4976807E-1,-2.818831E-2,-2.3615365E-1,1.5619482E-1,4.1920727E-1],"split_indices":[2,0,0,0,6,2,0,0,0,0,0,0,0,0,0],"split_type":[0,0,0,0,0,0,0,0,0,0,0,0,0,0,0],"sum_hessian":[1.8774E4,4.518E3,1.4256E4,2.252E3,2.266E3,1.1121E4,3.135E3,2.6E1,2.226E3,5.23E2,1.743E3,4.539E3,6.582E3,2.286E3,8.49E2],"tree_param":{"num_deleted":"0","num_feature":"7","num_nodes":"15","size_leaf_vector":"1"}},{"base_weights":[-3.8571586E-3,-1.2819741E0,9.581315E0,-1.7987416E0,9.105133E0,8.413938E0,1.9085665E1,2.183263E-3,-1.6718926E-1,3.6061195E-1,1.09218866E-1,1.75827E-1,3.625503E-1,1.944955E-1,6.462734E-1],"categories":[],"categories_nodes":[],"categories_segments":[],"categories_sizes":[],"default_left":[0,0,0,0,0,0,0,0,0,0,0,0,0,0,0],"id":12,"left_children":[1,3,5,7,9,11,13,-1,-1,-1,-1,-1,-1,-1,-1],"loss_changes":[2.3032819E5,8.912479E4,2.3731344E4,1.1165709E5,1.2313781E4,1.8188406E4,6.662117E3,0E0,0E0,0E0,0E0,0E0,0E0,0E0,0E0],"parents":[2147483647,0,0,1,1,2,2,3,3,4,4,5,5,6,6],"right_children":[2,4,6,8,10,12,14,-1,-1,-1,-1,-1,-1,-1,-1],"split_conditions":[2.632575E1,1.46875E1,1.4806E1,2E-1,2.022445E2,2.8954916E1,3.1E1,2.183263E-3,-1.6718926E-1,3.6061195E-1,1.09218866E-1,1.75827E-1,3.625503E-1,1.944955E-1,6.462734E-1],"split_indices":[0,6,6,1,3,0,4,0,0,0,0,0,0,0,0],"split_type":[0,0,0,0,0,0,0,0,0,0,0,0,0,0,0],"sum_hessian":[1.8791E4,1.6584E4,2.207E3,1.5802E4,7.82E2,1.974E3,2.33E2,1.0567E4,5.235E3,5.06E2,2.76E2,1.172E3,8.02E2,4.1E1,1.92E2],"tree_param":{"num_deleted":"0","num_feature":"7","num_nodes":"15","size_leaf_vector":"1"}},{"base_weights":[1.6719526E-1,7.2810736E0,-2.1012092E0,1.1596421E1,2.9742362E0,-4.8399734E0,6.519102E0,2.790651E-1,5.38392E-1,-3.4370702E-3,1.7025355E-1,-2.746084E-2,-2.2679813E-1,1.3104576E-1,3.87709E-1],"categories":[],"categories_nodes":[],"categories_segments":[],"categories_sizes":[],"default_left":[0,0,0,0,0,0,0,0,0,0,0,0,0,0,0],"id":13,"left_children":[1,3,5,7,9,11,13,-1,-1,-1,-1,-1,-1,-1,-1],"loss_changes":[3.0302084E5,8.420136E4,3.3630222E5,3.2169219E4,1.9017479E4,1.1533614E5,4.703164E4,0E0,0E0,0E0,0E0,0E0,0E0,0E0,0E0],"parents":[2147483647,0,0,1,1,2,2,3,3,4,4,5,5,6,6],"right_children":[2,4,6,8,10,12,14,-1,-1,-1,-1,-1,-1,-1,-1],"split_conditions":[1.1588701E1,1.0253251E1,2.3387499E1,8.556606E1,9.9665E0,1.687398E1,2.8954916E1,2.790651E-1,5.38392E-1,-3.4370702E-3,1.7025355E-1,-2.746084E-2,-2.2679813E-1,1.3104576E-1,3.87709E-1],"split_indices":[2,0,0,5,6,2,0,0,0,0,0,0,0,0,0],"split_type":[0,0,0,0,0,0,0,0,0,0,0,0,0,0,0],"sum_hessian":[1.8768E4,4.535E3,1.4233E4,2.261E3,2.274E3,1.0803E4,3.43E3,1.67E3,5.91E2,1.063E3,1.211E3,4.425E3,6.378E3,2.574E3,8.56E2],"tree_param":{"num_deleted":"0","num_feature":"7","num_nodes":"15","size_leaf_vector":"1"}},{"base_weights":[-5.614669E-2,7.59059E0,-2.0475605E0,1.1790521E1,2.7453365E0,-4.7412667E0,5.98947E0,4.5589417E-1,2.6587853E-1,-7.0153065E-2,1.3072526E-1,-2.3625802E-2,-2.3503724E-1,9.87671E-2,3.2242727E-1],"categories":[],"categories_nodes":[],"categories_segments":[],"categories_sizes":[],"default_left":[0,0,0,0,0,0,0,0,0,0,0,0,0,0,0],"id":14,"left_children":[1,3,5,7,9,11,13,-1,-1,-1,-1,-1,-1,-1,-1],"loss_changes":[2.8625244E5,7.887214E4,3.2302072E5,2.0051812E4,1.4886168E4,1.366139E5,4.7894E4,0E0,0E0,0E0,0E0,0E0,0E0,0E0,0E0],"parents":[2147483647,0,0,1,1,2,2,3,3,4,4,5,5,6,6],"right_children":[2,4,6,8,10,12,14,-1,-1,-1,-1,-1,-1,-1,-1],"split_conditions":[1.0853866E1,1.0169917E1,2.2872E1,8.287822E0,8.195E0,1.6981165E1,2.7849167E1,4.5589417E-1,2.6587853E-1,-7.0153065E-2,1.3072526E-1,-2.3625802E-2,-2.3503724E-1,9.87671E-2,3.2242727E-1],"split_indices":[2,0,0,2,6,2,0,0,0,0,0,0,0,0,0],"split_type":[0,0,0,0,0,0,0,0,0,0,0,0,0,0,0],"sum_hessian":[1.8788E4,3.879E3,1.4909E4,2.074E3,1.805E3,1.1168E4,3.741E3,9.49E2,1.125E3,4.34E2,1.371E3,4.905E3,6.263E3,2.393E3,1.348E3],"tree_param":{"num_deleted":"0","num_feature":"7","num_nodes":"15","size_leaf_vector":"1"}},{"base_weights":[5.6101825E-2,4.6755457E0,-3.156087E0,1.1637723E1,3.037529E0,-7.926009E0,3.110563E0,4.196023E-1,1.22299604E-1,7.115135E-1,8.018772E-2,-1.6269131E-1,-3.577262E-1,1.5895093E-3,2.7226207E-1],"categories":[],"categories_nodes":[],"categories_segments":[],"categories_sizes":[],"default_left":[0,0,0,0,0,0,0,0,0,0,0,0,0,0,0],"id":15,"left_children":[1,3,5,7,9,11,13,-1,-1,-1,-1,-1,-1,-1,-1],"loss_changes":[2.799437E5,8.806425E4,3.3275656E5,2.5853844E4,4.6957695E4,6.2917938E4,8.777422E4,0E0,0E0,0E0,0E0,0E0,0E0,0E0,0E0],"parents":[2147483647,0,0,1,1,2,2,3,3,4,4,5,5,6,6],"right_children":[2,4,6,8,10,12,14,-1,-1,-1,-1,-1,-1,-1,-1],"split_conditions":[1.4529915E1,8.287822E0,1.7265333E1,1.3199582E1,1.51575E0,2.1794127E1,2.632575E1,4.196023E-1,1.22299604E-1,7.115135E-1,8.018772E-2,-1.6269131E-1,-3.577262E-1,1.5895093E-3,2.7226207E-1],"split_indices":[2,2,0,0,0,2,0,0,0,0,0,0,0,0,0],"split_type":[0,0,0,0,0,0,0,0,0,0,0,0,0,0,0],"sum_hessian":[1.8856E4,7.733E3,1.1123E4,1.467E3,6.266E3,6.315E3,4.808E3,1.116E3,3.51E2,1.03E2,6.163E3,3.891E3,2.424E3,3.182E3,1.626E3],"tree_param":{"num_deleted":"0","num_feature":"7","num_nodes":"15","size_leaf_vector":"1"}},{"base_weights":[1.04664184E-1,4.5844884E0,-3.0511885E0,1.7311178E0,8.815032E0,-6.7022886E0,4.85473E0,3.6162373E-2,4.7005364E-1,3.8762873E-1,7.127997E-2,-1.3906404E-1,-3.145175E-1,4.3902926E-2,2.6686615E-1],"categories":[],"categories_nodes":[],"categories_segments":[],"categories_sizes":[],"default_left":[0,0,0,0,0,0,0,0,0,0,0,0,0,0,0],"id":16,"left_children":[1,3,5,7,9,11,13,-1,-1,-1,-1,-1,-1,-1,-1],"loss_changes":[2.6506678E5,9.346111E4,3.1768153E5,3.3853504E4,8.232909E4,5.8583094E4,4.7592883E4,0E0,0E0,0E0,0E0,0E0,0E0,0E0,0E0],"parents":[2147483647,0,0,1,1,2,2,3,3,4,4,5,5,6,6],"right_children":[2,4,6,8,10,12,14,-1,-1,-1,-1,-1,-1,-1,-1],"split_conditions":[1.4529915E1,7.221342E1,2.0940332E1,1.5559999E1,1E-1,2.1794127E1,2.632575E1,3.6162373E-2,4.7005364E-1,3.8762873E-1,7.127997E-2,-1.3906404E-1,-3.145175E-1,4.3902926E-2,2.6686615E-1],"split_indices":[2,5,0,6,1,2,0,0,0,0,0,0,0,0,0],"split_type":[0,0,0,0,0,0,0,0,0,0,0,0,0,0,0],"sum_hessian":[1.8739E4,7.744E3,1.0995E4,4.629E3,3.115E3,7.522E3,3.473E3,4.466E3,1.63E2,1.899E3,1.216E3,4.871E3,2.651E3,1.892E3,1.581E3],"tree_param":{"num_deleted":"0","num_feature":"7","num_nodes":"15","size_leaf_vector":"1"}},{"base_weights":[5.9458643E-2,4.4666457E0,-2.9951653E0,2.4513454E0,1.0021096E1,-7.460017E0,2.9188523E0,6.047967E-2,5.299241E-1,4.462785E-1,9.5502585E-2,-1.5817927E-1,-3.3317325E-1,9.27659E-3,2.6211137E-1],"categories":[],"categories_nodes":[],"categories_segments":[],"categories_sizes":[],"default_left":[0,0,0,0,0,0,0,0,0,0,0,0,0,0,0],"id":17,"left_children":[1,3,5,7,9,11,13,-1,-1,-1,-1,-1,-1,-1,-1],"loss_changes":[2.5206814E5,8.567456E4,2.921255E5,3.7110066E4,6.74443E4,4.9966438E4,7.22717E4,0E0,0E0,0E0,0E0,0E0,0E0,0E0,0E0],"parents":[2147483647,0,0,1,1,2,2,3,3,4,4,5,5,6,6],"right_children":[2,4,6,8,10,12,14,-1,-1,-1,-1,-1,-1,-1,-1],"split_conditions":[1.4529915E1,7.857778E1,1.7265333E1,1.57165E1,1E-1,2.1794127E1,2.6703331E1,6.047967E-2,5.299241E-1,4.462785E-1,9.5502585E-2,-1.5817927E-1,-3.3317325E-1,9.27659E-3,2.6211137E-1],"split_indices":[2,5,0,6,1,2,0,0,0,0,0,0,0,0,0],"split_type":[0,0,0,0,0,0,0,0,0,0,0,0,0,0,0],"sum_hessian":[1.8714E4,7.66E3,1.1054E4,5.626E3,2.034E3,6.298E3,4.756E3,5.475E3,1.51E2,1.186E3,8.48E2,3.944E3,2.354E3,3.287E3,1.469E3],"tree_param":{"num_deleted":"0","num_feature":"7","num_nodes":"15","size_leaf_vector":"1"}},{"base_weights":[-7.315004E-3,6.8955283E0,-1.9246855E0,4.551611E0,1.3039833E1,-4.105871E0,6.5107226E0,1.9454626E-2,1.9825488E-1,4.5447484E-1,7.6076806E-2,-6.880692E-2,-2.6438448E-1,1.3023502E-1,3.613887E-1],"categories":[],"categories_nodes":[],"categories_segments":[],"categories_sizes":[],"default_left":[0,0,0,0,0,0,0,0,0,0,0,0,0,0,0],"id":18,"left_children":[1,3,5,7,9,11,13,-1,-1,-1,-1,-1,-1,-1,-1],"loss_changes":[2.4974895E5,5.8773906E4,2.7185222E5,2.3876574E4,2.4839172E4,1.0001728E5,3.6195133E4,0E0,0E0,0E0,0E0,0E0,0E0,0E0,0E0],"parents":[2147483647,0,0,1,1,2,2,3,3,4,4,5,5,6,6],"right_children":[2,4,6,8,10,12,14,-1,-1,-1,-1,-1,-1,-1,-1],"split_conditions":[1.1119281E1,8.074214E1,2.435192E1,5.684326E1,1E0,2.1316135E1,2.8954916E1,1.9454626E-2,1.9825488E-1,4.5447484E-1,7.6076806E-2,-6.880692E-2,-2.6438448E-1,1.3023502E-1,3.613887E-1],"split_indices":[2,5,0,5,1,2,0,0,0,0,0,0,0,0,0],"split_type":[0,0,0,0,0,0,0,0,0,0,0,0,0,0,0],"sum_hessian":[1.886E4,4.097E3,1.4763E4,2.972E3,1.125E3,1.1732E4,3.031E3,1.028E3,1.944E3,9.35E2,1.9E2,8.476E3,3.256E3,2.184E3,8.47E2],"tree_param":{"num_deleted":"0","num_feature":"7","num_nodes":"15","size_leaf_vector":"1"}},{"base_weights":[4.2109046E-2,4.103947E0,-2.802717E0,2.1970341E0,9.608616E0,-7.1419134E0,2.8582351E0,5.4859165E-2,5.726084E-1,4.2859608E-1,9.559235E-2,-1.5621324E-1,-3.1696093E-1,1.147036E-2,2.5446162E-1],"categories":[],"categories_nodes":[],"categories_segments":[],"categories_sizes":[],"default_left":[0,0,0,0,0,0,0,0,0,0,0,0,0,0,0],"id":19,"left_children":[1,3,5,7,9,11,13,-1,-1,-1,-1,-1,-1,-1,-1],"loss_changes":[2.1660277E5,8.0937664E4,2.7089672E5,3.554064E4,5.940161E4,4.1065375E4,6.663509E4,0E0,0E0,0E0,0E0,0E0,0E0,0E0,0E0],"parents":[2147483647,0,0,1,1,2,2,3,3,4,4,5,5,6,6],"right_children":[2,4,6,8,10,12,14,-1,-1,-1,-1,-1,-1,-1,-1],"split_conditions":[1.4529915E1,7.90274E1,1.7265333E1,1.6106E1,1E-1,2.42256E2,2.6703331E1,5.4859165E-2,5.726084E-1,4.2859608E-1,9.559235E-2,-1.5621324E-1,-3.1696093E-1,1.147036E-2,2.5446162E-1],"split_indices":[2,5,0,6,1,3,0,0,0,0,0,0,0,0,0],"split_type":[0,0,0,0,0,0,0,0,0,0,0,0,0,0,0],"sum_hessian":[1.8735E4,7.716E3,1.1019E4,5.736E3,1.98E3,6.237E3,4.782E3,5.619E3,1.17E2,1.142E3,8.38E2,3.993E3,2.244E3,3.324E3,1.458E3],"tree_param":{"num_deleted":"0","num_feature":"7","num_nodes":"15","size_leaf_vector":"1"}},{"base_weights":[-4.9477E-2,6.259189E0,-1.8217672E0,1.0455703E0,8.912896E0,-4.0346737E0,4.169358E0,7.5428667E-3,1.3919687E-1,3.0898342E-1,1.0619676E-2,-3.0852212E-2,-1.8896954E-1,7.794135E-2,3.0759493E-1],"categories":[],"categories_nodes":[],"categories_segments":[],"categories_sizes":[],"default_left":[0,0,0,0,0,0,0,0,0,0,0,0,0,0,0],"id":20,"left_children":[1,3,5,7,9,11,13,-1,-1,-1,-1,-1,-1,-1,-1],"loss_changes":[2.0906933E5,5.668947E4,1.9362144E5,3.9574646E3,3.2222188E4,7.254975E4,3.7527625E4,0E0,0E0,0E0,0E0,0E0,0E0,0E0,0E0],"parents":[2147483647,0,0,1,1,2,2,3,3,4,4,5,5,6,6],"right_children":[2,4,6,8,10,12,14,-1,-1,-1,-1,-1,-1,-1,-1],"split_conditions":[1.1119281E1,6.3644512E1,1.1295E1,1.2056E1,1E0,1.687398E1,1.4806E1,7.5428667E-3,1.3919687E-1,3.0898342E-1,1.0619676E-2,-3.0852212E-2,-1.8896954E-1,7.794135E-2,3.0759493E-1],"split_indices":[2,5,6,6,1,2,6,0,0,0,0,0,0,0,0],"split_type":[0,0,0,0,0,0,0,0,0,0,0,0,0,0,0],"sum_hessian":[1.8689E4,4.096E3,1.4593E4,1.384E3,2.712E3,1.0658E4,3.935E3,1.138E3,2.46E2,2.333E3,3.79E2,4.582E3,6.076E3,3.133E3,8.02E2],"tree_param":{"num_deleted":"0","num_feature":"7","num_nodes":"15","size_leaf_vector":"1"}},{"base_weights":[6.40684E-2,7.060164E0,-1.4980705E0,2.7031794E0,1.0562355E1,-3.2936058E0,5.8254824E0,-5.266196E-4,1.6565952E-1,4.0677267E-1,2.088518E-1,-4.652872E-2,-2.3035567E-1,1.1244408E-1,3.1520975E-1],"categories":[],"categories_nodes":[],"categories_segments":[],"categories_sizes":[],"default_left":[0,0,0,0,0,0,0,0,0,0,0,0,0,0,0],"id":21,"left_children":[1,3,5,7,9,11,13,-1,-1,-1,-1,-1,-1,-1,-1],"loss_changes":[2.0506928E5,5.2115312E4,2.0179838E5,1.1759045E4,1.9990734E4,9.409464E4,2.918811E4,0E0,0E0,0E0,0E0,0E0,0E0,0E0,0E0],"parents":[2147483647,0,0,1,1,2,2,3,3,4,4,5,5,6,6],"right_children":[2,4,6,8,10,12,14,-1,-1,-1,-1,-1,-1,-1,-1],"split_conditions":[1.0383987E1,7.163055E1,2.4499998E1,5.684326E1,8.287822E0,2.0991426E1,2.8749084E1,-5.266196E-4,1.6565952E-1,4.0677267E-1,2.088518E-1,-4.652872E-2,-2.3035567E-1,1.1244408E-1,3.1520975E-1],"split_indices":[2,5,0,5,2,2,0,0,0,0,0,0,0,0,0],"split_type":[0,0,0,0,0,0,0,0,0,0,0,0,0,0,0],"sum_hessian":[1.8754E4,3.42E3,1.5334E4,1.528E3,1.892E3,1.2317E4,3.017E3,7.8E2,7.48E2,1.025E3,8.67E2,8.819E3,3.498E3,2.096E3,9.21E2],"tree_param":{"num_deleted":"0","num_feature":"7","num_nodes":"15","size_leaf_vector":"1"}},{"base_weights":[-2.3046356E-2,-1.0447701E0,7.2429066E0,-1.5978858E0,6.299677E0,2.0559402E0,8.6168995E0,-6.874604E-3,-1.3287657E-1,2.8838712E-1,5.440431E-2,-4.122188E-2,1.3135992E-1,1.881761E-1,3.5065338E-1],"categories":[],"categories_nodes":[],"categories_segments":[],"categories_sizes":[],"default_left":[0,0,0,0,0,0,0,0,0,0,0,0,0,0,0],"id":22,"left_children":[1,3,5,7,9,11,13,-1,-1,-1,-1,-1,-1,-1,-1],"loss_changes":[1.3928411E5,6.687017E4,1.6392656E4,5.929006E4,1.7047375E4,3.9427568E3,1.2783922E4,0E0,0E0,0E0,0E0,0E0,0E0,0E0,0E0],"parents":[2147483647,0,0,1,1,2,2,3,3,4,4,5,5,6,6],"right_children":[2,4,6,8,10,12,14,-1,-1,-1,-1,-1,-1,-1,-1],"split_conditions":[2.6211166E1,1.3987499E1,1.2E1,2E-1,1.9721431E2,1.4845256E2,2.8749084E1,-6.874604E-3,-1.3287657E-1,2.8838712E-1,5.440431E-2,-4.122188E-2,1.3135992E-1,1.881761E-1,3.5065338E-1],"split_indices":[0,6,4,1,3,3,0,0,0,0,0,0,0,0,0],"split_type":[0,0,0,0,0,0,0,0,0,0,0,0,0,0,0],"sum_hessian":[1.8752E4,1.6444E4,2.308E3,1.5296E4,1.148E3,4.86E2,1.822E3,1.0315E4,4.981E3,6.57E2,4.91E2,1.97E2,2.89E2,1.042E3,7.8E2],"tree_param":{"num_deleted":"0","num_feature":"7","num_nodes":"15","size_leaf_vector":"1"}},{"base_weights":[-3.619521E-2,6.2537346E0,-1.6736192E0,4.5928216E0,1.4992263E1,-3.642763E0,5.1360755E0,1.2685079E-2,1.8926823E-1,7.5148773E-1,3.7657076E-1,-6.033506E-2,-2.3824656E-1,9.874518E-2,3.1760535E-1],"categories":[],"categories_nodes":[],"categories_segments":[],"categories_sizes":[],"default_left":[0,0,0,0,0,0,0,0,0,0,0,0,0,0,0],"id":23,"left_children":[1,3,5,7,9,11,13,-1,-1,-1,-1,-1,-1,-1,-1],"loss_changes":[1.9426453E5,5.619611E4,2.007762E5,2.3464117E4,1.3630703E4,8.136233E4,3.359408E4,0E0,0E0,0E0,0E0,0E0,0E0,0E0,0E0],"parents":[2147483647,0,0,1,1,2,2,3,3,4,4,5,5,6,6],"right_children":[2,4,6,8,10,12,14,-1,-1,-1,-1,-1,-1,-1,-1],"split_conditions":[1.0853866E1,8.556606E1,2.3721169E1,5.684326E1,4.2257504E0,2.1316135E1,2.8954916E1,1.2685079E-2,1.8926823E-1,7.5148773E-1,3.7657076E-1,-6.033506E-2,-2.3824656E-1,9.874518E-2,3.1760535E-1],"split_indices":[2,5,0,5,0,2,0,0,0,0,0,0,0,0,0],"split_type":[0,0,0,0,0,0,0,0,0,0,0,0,0,0,0],"sum_hessian":[1.8852E4,3.891E3,1.4961E4,3.276E3,6.15E2,1.1607E4,3.354E3,9.57E2,2.319E3,1.11E2,5.04E2,8.419E3,3.188E3,2.512E3,8.42E2],"tree_param":{"num_deleted":"0","num_feature":"7","num_nodes":"15","size_leaf_vector":"1"}},{"base_weights":[-1.4358249E-2,5.7761054E0,-1.6522003E0,4.0486197E0,1.480406E1,-3.7118714E0,3.7305815E0,2.8249193E-2,1.9425376E-1,5.123569E-1,1.230975E-1,-2.9421858E-2,-1.7302825E-1,6.834545E-2,3.1180474E-1],"categories":[],"categories_nodes":[],"categories_segments":[],"categories_sizes":[],"default_left":[0,0,0,0,0,0,0,0,0,0,0,0,0,0,0],"id":24,"left_children":[1,3,5,7,9,11,13,-1,-1,-1,-1,-1,-1,-1,-1],"loss_changes":[1.7833366E5,6.435428E4,1.6257897E5,2.6256148E4,1.5804391E4,5.9505953E4,3.9157605E4,0E0,0E0,0E0,0E0,0E0,0E0,0E0,0E0],"parents":[2147483647,0,0,1,1,2,2,3,3,4,4,5,5,6,6],"right_children":[2,4,6,8,10,12,14,-1,-1,-1,-1,-1,-1,-1,-1],"split_conditions":[1.1119281E1,8.556606E1,1.1245E1,6.612007E1,1.1E0,1.687398E1,1.50875E1,2.8249193E-2,1.9425376E-1,5.123569E-1,1.230975E-1,-2.9421858E-2,-1.7302825E-1,6.834545E-2,3.1180474E-1],"split_indices":[2,5,6,5,1,2,6,0,0,0,0,0,0,0,0],"split_type":[0,0,0,0,0,0,0,0,0,0,0,0,0,0,0],"sum_hessian":[1.8794E4,4.141E3,1.4653E4,3.482E3,6.59E2,1.0599E4,4.054E3,1.53E3,1.952E3,5.41E2,1.18E2,4.555E3,6.044E3,3.334E3,7.2E2],"tree_param":{"num_deleted":"0","num_feature":"7","num_nodes":"15","size_leaf_vector":"1"}},{"base_weights":[-1.0272658E-2,4.367605E0,-2.0605776E0,8.264475E0,1.7519023E0,-4.76326E0,4.3106303E0,1.0370629E0,2.3200357E-1,2.3628676E-1,3.3478618E-2,-9.569891E-2,-2.4996015E-1,5.8531538E-2,2.4367747E-1],"categories":[],"categories_nodes":[],"categories_segments":[],"categories_sizes":[],"default_left":[0,0,0,0,0,0,0,0,0,0,0,0,0,0,0],"id":25,"left_children":[1,3,5,7,9,11,13,-1,-1,-1,-1,-1,-1,-1,-1],"loss_changes":[1.6811962E5,6.0817906E4,2.1975284E5,3.2146281E4,1.3900468E4,5.0165688E4,3.4115227E4,0E0,0E0,0E0,0E0,0E0,0E0,0E0,0E0],"parents":[2147483647,0,0,1,1,2,2,3,3,4,4,5,5,6,6],"right_children":[2,4,6,8,10,12,14,-1,-1,-1,-1,-1,-1,-1,-1],"split_conditions":[1.288981E1,9.116416E0,2.1587503E1,2.5283328E-1,7.5170207E0,2.1794127E1,2.723934E1,1.0370629E0,2.3200357E-1,2.3628676E-1,3.3478618E-2,-9.569891E-2,-2.4996015E-1,5.8531538E-2,2.4367747E-1],"split_indices":[2,0,0,0,2,2,0,0,0,0,0,0,0,0,0],"split_type":[0,0,0,0,0,0,0,0,0,0,0,0,0,0,0],"sum_hessian":[1.872E4,5.969E3,1.2751E4,2.393E3,3.576E3,8.954E3,3.797E3,4.1E1,2.352E3,3.31E2,3.245E3,6.221E3,2.733E3,2.35E3,1.447E3],"tree_param":{"num_deleted":"0","num_feature":"7","num_nodes":"15","size_leaf_vector":"1"}},{"base_weights":[2.5916288E-2,6.2622976E0,-1.3610203E0,4.5741897E0,1.4269454E1,-3.1854062E0,3.9705203E0,-6.5151695E-3,1.9451469E-1,4.753153E-1,1.3865419E-1,9.427702E-3,-1.4109209E-1,7.5578235E-2,3.3481595E-1],"categories":[],"categories_nodes":[],"categories_segments":[],"categories_sizes":[],"default_left":[0,0,0,0,0,0,0,0,0,0,0,0,0,0,0],"id":26,"left_children":[1,3,5,7,9,11,13,-1,-1,-1,-1,-1,-1,-1,-1],"loss_changes":[1.6202262E5,4.5733734E4,1.4911631E5,2.5829508E4,8.604523E3,6.066386E4,4.064367E4,0E0,0E0,0E0,0E0,0E0,0E0,0E0,0E0],"parents":[2147483647,0,0,1,1,2,2,3,3,4,4,5,5,6,6],"right_children":[2,4,6,8,10,12,14,-1,-1,-1,-1,-1,-1,-1,-1],"split_conditions":[1.0383987E1,8.556606E1,1.1495E1,5.684326E1,1.1E0,1.4707222E1,1.5237499E1,-6.5151695E-3,1.9451469E-1,4.753153E-1,1.3865419E-1,9.427702E-3,-1.4109209E-1,7.5578235E-2,3.3481595E-1],"split_indices":[2,5,6,5,1,2,6,0,0,0,0,0,0,0,0],"split_type":[0,0,0,0,0,0,0,0,0,0,0,0,0,0,0],"sum_hessian":[1.8722E4,3.403E3,1.5319E4,2.817E3,5.86E2,1.1415E4,3.904E3,8.04E2,2.013E3,5.01E2,8.5E1,3.454E3,7.961E3,3.254E3,6.5E2],"tree_param":{"num_deleted":"0","num_feature":"7","num_nodes":"15","size_leaf_vector":"1"}},{"base_weights":[-1.0208022E-2,3.3947625E0,-2.3963618E0,1.206164E1,2.4778442E0,-4.7450223E0,3.674483E0,2.5651038E-1,5.010913E-1,2.1590926E-2,1.6374058E-1,7.589597E-2,-1.7522417E-1,6.9104426E-2,3.122765E-1],"categories":[],"categories_nodes":[],"categories_segments":[],"categories_sizes":[],"default_left":[0,0,0,0,0,0,0,0,0,0,0,0,0,0,0],"id":27,"left_children":[1,3,5,7,9,11,13,-1,-1,-1,-1,-1,-1,-1,-1],"loss_changes":[1.5258319E5,6.1338688E4,1.5752825E5,1.13220625E4,3.6676562E4,6.35615E4,2.8342668E4,0E0,0E0,0E0,0E0,0E0,0E0,0E0,0E0],"parents":[2147483647,0,0,1,1,2,2,3,3,4,4,5,5,6,6],"right_children":[2,4,6,8,10,12,14,-1,-1,-1,-1,-1,-1,-1,-1],"split_conditions":[1.4529915E1,7.289444E0,1.1245E1,8.3154015E1,7.221342E1,3.1700012E1,1.50875E1,2.5651038E-1,5.010913E-1,2.1590926E-2,1.6374058E-1,7.589597E-2,-1.7522417E-1,6.9104426E-2,3.122765E-1],"split_indices":[2,2,6,5,5,5,6,0,0,0,0,0,0,0,0],"split_type":[0,0,0,0,0,0,0,0,0,0,0,0,0,0,0],"sum_hessian":[1.877E4,7.733E3,1.1037E4,7.34E2,6.999E3,7.959E3,3.078E3,4.26E2,3.08E2,4.406E3,2.593E3,1.041E3,6.918E3,2.563E3,5.15E2],"tree_param":{"num_deleted":"0","num_feature":"7","num_nodes":"15","size_leaf_vector":"1"}},{"base_weights":[-4.366109E-2,4.0752673E0,-1.9551288E0,4.0601482E1,3.792598E0,-4.634926E0,3.6853561E0,3.981939E-1,1.4244676E0,2.2159003E-1,4.698417E-2,-9.212922E-2,-2.3862463E-1,6.1969463E-2,3.0231985E-1],"categories":[],"categories_nodes":[],"categories_segments":[],"categories_sizes":[],"default_left":[0,0,0,0,0,0,0,0,0,0,0,0,0,0,0],"id":28,"left_children":[1,3,5,7,9,11,13,-1,-1,-1,-1,-1,-1,-1,-1],"loss_changes":[1.4724439E5,6.0422383E4,1.931692E5,5.292375E3,4.705117E4,4.4839984E4,4.2516086E4,0E0,0E0,0E0,0E0,0E0,0E0,0E0,0E0],"parents":[2147483647,0,0,1,1,2,2,3,3,4,4,5,5,6,6],"right_children":[2,4,6,8,10,12,14,-1,-1,-1,-1,-1,-1,-1,-1],"split_conditions":[1.288981E1,2.5283328E-1,2.080125E1,9.360001E0,8.749167E0,2.1603E1,2.8749084E1,3.981939E-1,1.4244676E0,2.2159003E-1,4.698417E-2,-9.212922E-2,-2.3862463E-1,6.1969463E-2,3.0231985E-1],"split_indices":[2,0,0,2,0,2,0,0,0,0,0,0,0,0,0],"split_type":[0,0,0,0,0,0,0,0,0,0,0,0,0,0,0],"sum_hessian":[1.8692E4,5.923E3,1.2769E4,4E1,5.883E3,8.657E3,4.112E3,1.1E1,2.9E1,2.246E3,3.637E3,5.891E3,2.766E3,3.286E3,8.26E2],"tree_param":{"num_deleted":"0","num_feature":"7","num_nodes":"15","size_leaf_vector":"1"}},{"base_weights":[1.2015199E-2,4.4210715E0,-1.6545776E0,7.7023625E0,1.354334E0,-3.5050461E0,5.3336263E0,1.1008503E0,2.1466695E-1,3.5032732E-3,1.4046751E-1,-1.4124079E-1,5.492196E-2,9.4374254E-2,2.5297755E-1],"categories":[],"categories_nodes":[],"categories_segments":[],"categories_sizes":[],"default_left":[0,0,0,0,0,0,0,0,0,0,0,0,0,0,0],"id":29,"left_children":[1,3,5,7,9,11,13,-1,-1,-1,-1,-1,-1,-1,-1],"loss_changes":[1.3851972E5,5.198017E4,1.7699517E5,3.825917E4,1.1029262E4,6.948934E4,1.929525E4,0E0,0E0,0E0,0E0,0E0,0E0,0E0,0E0],"parents":[2147483647,0,0,1,1,2,2,3,3,4,4,5,5,6,6],"right_children":[2,4,6,8,10,12,14,-1,-1,-1,-1,-1,-1,-1,-1],"split_conditions":[1.2218805E1,1.0087249E1,2.4499998E1,2.5283328E-1,1.1945E1,1.1495E1,2.7978247E1,1.1008503E0,2.1466695E-1,3.5032732E-3,1.4046751E-1,-1.4124079E-1,5.492196E-2,9.4374254E-2,2.5297755E-1],"split_indices":[2,0,0,0,6,6,0,0,0,0,0,0,0,0,0],"split_type":[0,0,0,0,0,0,0,0,0,0,0,0,0,0,0],"sum_hessian":[1.8841E4,5.166E3,1.3675E4,2.492E3,2.674E3,1.0814E4,2.861E3,4E1,2.452E3,1.953E3,7.21E2,8.825E3,1.989E3,1.683E3,1.178E3],"tree_param":{"num_deleted":"0","num_feature":"7","num_nodes":"15","size_leaf_vector":"1"}},{"base_weights":[-7.945395E-2,2.5868587E0,-2.5733085E0,8.670771E0,1.4459351E0,-6.163889E0,2.3031294E0,3.189749E-1,6.996959E-2,1.0618975E0,3.6476295E-2,-1.3344274E-1,-2.7112526E-1,9.381283E-3,1.9195573E-1],"categories":[],"categories_nodes":[],"categories_segments":[],"categories_sizes":[],"default_left":[0,0,0,0,0,0,0,0,0,0,0,0,0,0,0],"id":30,"left_children":[1,3,5,7,9,11,13,-1,-1,-1,-1,-1,-1,-1,-1],"loss_changes":[1.2415756E5,6.2572383E4,1.6900131E5,1.757857E4,5.9173727E4,2.7198953E4,3.3368605E4,0E0,0E0,0E0,0E0,0E0,0E0,0E0,0E0],"parents":[2147483647,0,0,1,1,2,2,3,3,4,4,5,5,6,6],"right_children":[2,4,6,8,10,12,14,-1,-1,-1,-1,-1,-1,-1,-1],"split_conditions":[1.5782622E1,8.287822E0,1.7265333E1,1.3199582E1,2.5283328E-1,2.4179929E2,2.6588747E1,3.189749E-1,6.996959E-2,1.0618975E0,3.6476295E-2,-1.3344274E-1,-2.7112526E-1,9.381283E-3,1.9195573E-1],"split_indices":[2,2,0,0,0,3,0,0,0,0,0,0,0,0,0],"split_type":[0,0,0,0,0,0,0,0,0,0,0,0,0,0,0],"sum_hessian":[1.8662E4,9.019E3,9.643E3,1.419E3,7.6E3,5.553E3,4.09E3,1.081E3,3.38E2,4.6E1,7.554E3,3.485E3,2.068E3,2.756E3,1.334E3],"tree_param":{"num_deleted":"0","num_feature":"7","num_nodes":"15","size_leaf_vector":"1"}},{"base_weights":[5.952893E-2,3.15283E0,-2.112447E0,1.0731783E1,2.3537693E0,-5.552491E0,2.2957237E0,3.490925E-1,-9.176969E-2,8.722683E-1,6.500015E-2,-1.13423176E-1,-2.6208684E-1,-3.365441E-2,1.4903477E-1],"categories":[],"categories_nodes":[],"categories_segments":[],"categories_sizes":[],"default_left":[0,0,0,0,0,0,0,0,0,0,0,0,0,0,0],"id":31,"left_children":[1,3,5,7,9,11,13,-1,-1,-1,-1,-1,-1,-1,-1],"loss_changes":[1.252477E5,4.644072E4,1.6614414E5,9.312703E3,3.4487855E4,3.4538234E4,4.3899195E4,0E0,0E0,0E0,0E0,0E0,0E0,0E0,0E0],"parents":[2147483647,0,0,1,1,2,2,3,3,4,4,5,5,6,6],"right_children":[2,4,6,8,10,12,14,-1,-1,-1,-1,-1,-1,-1,-1],"split_conditions":[1.4529915E1,7.289444E0,1.7265333E1,1.7471584E1,2.5283328E-1,2.42256E2,1.0795E1,3.490925E-1,-9.176969E-2,8.722683E-1,6.500015E-2,-1.13423176E-1,-2.6208684E-1,-3.365441E-2,1.4903477E-1],"split_indices":[2,2,0,0,0,3,6,0,0,0,0,0,0,0,0],"split_type":[0,0,0,0,0,0,0,0,0,0,0,0,0,0,0],"sum_hessian":[1.8632E4,7.685E3,1.0947E4,7.27E2,6.958E3,6.148E3,4.799E3,6.83E2,4.4E1,4.3E1,6.915E3,3.957E3,2.191E3,2.107E3,2.692E3],"tree_param":{"num_deleted":"0","num_feature":"7","num_nodes":"15","size_leaf_vector":"1"}},{"base_weights":[-1.6170694E-2,3.393275E0,-1.7118036E0,6.4928966E0,9.425658E-1,-4.788086E0,2.4180553E0,5.8639646E-1,1.769108E-1,1.5950665E-2,2.776442E-1,-9.5885254E-2,-2.3939256E-1,3.840653E-2,3.36872E-1],"categories":[],"categories_nodes":[],"categories_segments":[],"categories_sizes":[],"default_left":[0,0,0,0,0,0,0,0,0,0,0,0,0,0,0],"id":32,"left_children":[1,3,5,7,9,11,13,-1,-1,-1,-1,-1,-1,-1,-1],"loss_changes":[1.0855841E5,4.7345117E4,1.5938714E5,2.0829617E4,1.188847E4,3.6395344E4,5.3630984E4,0E0,0E0,0E0,0E0,0E0,0E0,0E0,0E0],"parents":[2147483647,0,0,1,1,2,2,3,3,4,4,5,5,6,6],"right_children":[2,4,6,8,10,12,14,-1,-1,-1,-1,-1,-1,-1,-1],"split_conditions":[1.3202726E1,1.0087249E1,1.761075E1,1.51575E0,2.828317E1,2.1794127E1,1.4947E1,5.8639646E-1,1.769108E-1,1.5950665E-2,2.776442E-1,-9.5885254E-2,-2.3939256E-1,3.840653E-2,3.36872E-1],"split_indices":[2,0,0,0,0,2,6,0,0,0,0,0,0,0,0],"split_type":[0,0,0,0,0,0,0,0,0,0,0,0,0,0,0],"sum_hessian":[1.8768E4,6.232E3,1.2536E4,2.748E3,3.484E3,7.184E3,5.352E3,1.13E2,2.635E3,3.325E3,1.59E2,4.8E3,2.384E3,4.745E3,6.07E2],"tree_param":{"num_deleted":"0","num_feature":"7","num_nodes":"15","size_leaf_vector":"1"}},{"base_weights":[-6.581404E-2,4.6394806E0,-1.3952956E0,3.0986035E0,1.171651E1,-2.854403E0,5.6128144E0,1.8833704E-1,4.2547975E-2,5.070551E-1,2.4960855E-1,-1.0187942E-1,1.3739903E-1,1.4197677E-1,3.7577173E-1],"categories":[],"categories_nodes":[],"categories_segments":[],"categories_sizes":[],"default_left":[0,0,0,0,0,0,0,0,0,0,0,0,0,0,0],"id":33,"left_children":[1,3,5,7,9,11,13,-1,-1,-1,-1,-1,-1,-1,-1],"loss_changes":[1.1701742E5,4.4752844E4,1.4921942E5,1.8068893E4,1.2233039E4,4.869485E4,1.5002523E4,0E0,0E0,0E0,0E0,0E0,0E0,0E0,0E0],"parents":[2147483647,0,0,1,1,2,2,3,3,4,4,5,5,6,6],"right_children":[2,4,6,8,10,12,14,-1,-1,-1,-1,-1,-1,-1,-1],"split_conditions":[1.1119281E1,8.481573E1,2.5535254E1,8.4278345E0,5.9033337E0,1.3987499E1,1.4806E1,1.8833704E-1,4.2547975E-2,5.070551E-1,2.4960855E-1,-1.0187942E-1,1.3739903E-1,1.4197677E-1,3.7577173E-1],"split_indices":[2,5,0,0,0,6,6,0,0,0,0,0,0,0,0],"split_type":[0,0,0,0,0,0,0,0,0,0,0,0,0,0,0],"sum_hessian":[1.8696E4,4.116E3,1.458E4,3.386E3,7.3E2,1.207E4,2.51E3,1.166E3,2.22E3,2.81E2,4.49E2,1.1253E4,8.17E2,2.234E3,2.76E2],"tree_param":{"num_deleted":"0","num_feature":"7","num_nodes":"15","size_leaf_vector":"1"}},{"base_weights":[1.3302415E-2,2.532705E0,-2.3469667E0,6.3284487E-1,5.552241E0,-5.771889E0,2.233402E0,-3.353208E-2,1.2842664E-1,2.5928184E-1,3.6964502E-2,-1.1094753E-1,-2.4320036E-1,3.8753476E-2,2.777562E-1],"categories":[],"categories_nodes":[],"categories_segments":[],"categories_sizes":[],"default_left":[0,0,0,0,0,0,0,0,0,0,0,0,0,0,0],"id":34,"left_children":[1,3,5,7,9,11,13,-1,-1,-1,-1,-1,-1,-1,-1],"loss_changes":[1.1124658E5,5.189194E4,1.5159019E5,3.5532113E4,4.6592836E4,2.6610406E4,2.7296703E4,0E0,0E0,0E0,0E0,0E0,0E0,0E0,0E0],"parents":[2147483647,0,0,1,1,2,2,3,3,4,4,5,5,6,6],"right_children":[2,4,6,8,10,12,14,-1,-1,-1,-1,-1,-1,-1,-1],"split_conditions":[1.5782622E1,7.163055E1,1.715183E1,1.0606E1,1E-1,2.342699E2,1.4806E1,-3.353208E-2,1.2842664E-1,2.5928184E-1,3.6964502E-2,-1.1094753E-1,-2.4320036E-1,3.8753476E-2,2.777562E-1],"split_indices":[2,5,0,6,1,3,6,0,0,0,0,0,0,0,0],"split_type":[0,0,0,0,0,0,0,0,0,0,0,0,0,0,0],"sum_hessian":[1.8698E4,9.044E3,9.654E3,5.555E3,3.489E3,5.523E3,4.131E3,3.756E3,1.799E3,2.031E3,1.458E3,2.932E3,2.591E3,3.648E3,4.83E2],"tree_param":{"num_deleted":"0","num_feature":"7","num_nodes":"15","size_leaf_vector":"1"}},{"base_weights":[-1.12323295E-2,5.0718017E0,-1.1653094E0,1.0728166E1,3.5721662E0,-2.627636E0,4.67581E0,2.8591824E-1,5.433772E-1,4.579525E-1,8.572083E-2,-9.1453485E-2,2.3802513E-1,8.541623E-2,2.61839E-1],"categories":[],"categories_nodes":[],"categories_segments":[],"categories_sizes":[],"default_left":[0,0,0,0,0,0,0,0,0,0,0,0,0,0,0],"id":35,"left_children":[1,3,5,7,9,11,13,-1,-1,-1,-1,-1,-1,-1,-1],"loss_changes":[1.1051851E5,2.9374023E4,1.312089E5,5.5664766E3,2.2870059E4,5.471192E4,2.2664773E4,0E0,0E0,0E0,0E0,0E0,0E0,0E0,0E0],"parents":[2147483647,0,0,1,1,2,2,3,3,4,4,5,5,6,6],"right_children":[2,4,6,8,10,12,14,-1,-1,-1,-1,-1,-1,-1,-1],"split_conditions":[1.0464797E1,7.289444E0,2.4499998E1,3.4578043E2,3.0741663E0,1.50875E1,2.8749084E1,2.8591824E-1,5.433772E-1,4.579525E-1,8.572083E-2,-9.1453485E-2,2.3802513E-1,8.541623E-2,2.61839E-1],"split_indices":[2,2,0,3,0,6,0,0,0,0,0,0,0,0,0],"split_type":[0,0,0,0,0,0,0,0,0,0,0,0,0,0,0],"sum_hessian":[1.883E4,3.481E3,1.5349E4,7.23E2,2.758E3,1.2278E4,3.071E3,6.32E2,9.1E1,1.53E2,2.605E3,1.1811E4,4.67E2,2.122E3,9.49E2],"tree_param":{"num_deleted":"0","num_feature":"7","num_nodes":"15","size_leaf_vector":"1"}},{"base_weights":[3.616231E-2,2.76126E0,-1.8806643E0,1.2775271E0,7.13872E0,-5.2377024E0,1.4768068E0,2.8028365E-2,5.122192E-1,2.9822603E-1,-6.008904E-3,-8.984031E-2,-2.2041924E-1,-5.0691158E-2,1.1500317E-1],"categories":[],"categories_nodes":[],"categories_segments":[],"categories_sizes":[],"default_left":[0,0,0,0,0,0,0,0,0,0,0,0,0,0,0],"id":36,"left_children":[1,3,5,7,9,11,13,-1,-1,-1,-1,-1,-1,-1,-1],"loss_changes":[9.809819E4,5.0320453E4,1.2430432E5,3.1352191E4,4.0361414E4,2.5978578E4,4.1195105E4,0E0,0E0,0E0,0E0,0E0,0E0,0E0,0E0],"parents":[2147483647,0,0,1,1,2,2,3,3,4,4,5,5,6,6],"right_children":[2,4,6,8,10,12,14,-1,-1,-1,-1,-1,-1,-1,-1],"split_conditions":[1.4529915E1,7.90274E1,1.5268584E1,1.6106E1,1.1000001E0,2.3041078E2,1.05665E1,2.8028365E-2,5.122192E-1,2.9822603E-1,-6.008904E-3,-8.984031E-2,-2.2041924E-1,-5.0691158E-2,1.1500317E-1],"split_indices":[2,5,0,6,1,3,6,0,0,0,0,0,0,0,0],"split_type":[0,0,0,0,0,0,0,0,0,0,0,0,0,0,0],"sum_hessian":[1.877E4,7.75E3,1.102E4,5.793E3,1.957E3,5.509E3,5.511E3,5.675E3,1.18E2,1.415E3,5.42E2,2.676E3,2.833E3,2.352E3,3.159E3],"tree_param":{"num_deleted":"0","num_feature":"7","num_nodes":"15","size_leaf_vector":"1"}},{"base_weights":[2.968151E-2,7.0397415E0,-6.4004E-1,8.0074415E0,-2.1000311E0,-1.6630541E0,5.2566333E0,4.0189376E-1,1.8899672E-1,-1.0996353E-1,7.112E-2,-6.498354E-2,1.975399E-1,1.02751195E-1,2.5822213E-1],"categories":[],"categories_nodes":[],"categories_segments":[],"categories_sizes":[],"default_left":[0,0,0,0,0,0,0,0,0,0,0,0,0,0,0],"id":37,"left_children":[1,3,5,7,9,11,13,-1,-1,-1,-1,-1,-1,-1,-1],"loss_changes":[8.8882695E4,1.4688219E4,1.04288195E5,1.33199375E4,1.1775964E3,6.118666E4,1.5535797E4,0E0,0E0,0E0,0E0,0E0,0E0,0E0,0E0],"parents":[2147483647,0,0,1,1,2,2,3,3,4,4,5,5,6,6],"right_children":[2,4,6,8,10,12,14,-1,-1,-1,-1,-1,-1,-1,-1],"split_conditions":[8.427383E0,1.7471584E1,2.5728333E1,6.6087217E0,2.4020584E1,1.43665E1,2.8954916E1,4.0189376E-1,1.8899672E-1,-1.0996353E-1,7.112E-2,-6.498354E-2,1.975399E-1,1.02751195E-1,2.5822213E-1],"split_indices":[2,0,0,2,0,6,0,0,0,0,0,0,0,0,0],"split_type":[0,0,0,0,0,0,0,0,0,0,0,0,0,0,0],"sum_hessian":[1.8922E4,1.646E3,1.7276E4,1.489E3,1.57E2,1.4725E4,2.551E3,3.5E2,1.139E3,1.17E2,4E1,1.3882E4,8.43E2,1.656E3,8.95E2],"tree_param":{"num_deleted":"0","num_feature":"7","num_nodes":"15","size_leaf_vector":"1"}},{"base_weights":[-3.7829924E-2,2.8507824E0,-1.6623548E0,7.311788E-1,5.5305753E0,-3.4145944E0,3.7143464E0,8.924757E-3,3.101424E-1,2.4928808E-1,1.2739362E-2,-1.3386112E-1,2.1790856E-2,5.1235035E-2,2.0449026E-1],"categories":[],"categories_nodes":[],"categories_segments":[],"categories_sizes":[],"default_left":[0,0,0,0,0,0,0,0,0,0,0,0,0,0,0],"id":38,"left_children":[1,3,5,7,9,11,13,-1,-1,-1,-1,-1,-1,-1,-1],"loss_changes":[8.861067E4,3.858553E4,1.1392878E5,1.5817869E4,4.2562484E4,3.9565883E4,1.8443762E4,0E0,0E0,0E0,0E0,0E0,0E0,0E0,0E0],"parents":[2147483647,0,0,1,1,2,2,3,3,4,4,5,5,6,6],"right_children":[2,4,6,8,10,12,14,-1,-1,-1,-1,-1,-1,-1,-1],"split_conditions":[1.3608762E1,7.142454E1,2.3387499E1,2.8749084E1,1E-1,1.1082E1,2.7849167E1,8.924757E-3,3.101424E-1,2.4928808E-1,1.2739362E-2,-1.3386112E-1,2.1790856E-2,5.1235035E-2,2.0449026E-1],"split_indices":[2,5,0,0,1,6,0,0,0,0,0,0,0,0,0],"split_type":[0,0,0,0,0,0,0,0,0,0,0,0,0,0,0],"sum_hessian":[1.8873E4,6.792E3,1.2081E4,3.796E3,2.996E3,9.113E3,2.968E3,3.637E3,1.59E2,1.938E3,1.058E3,7.273E3,1.84E3,1.807E3,1.161E3],"tree_param":{"num_deleted":"0","num_feature":"7","num_nodes":"15","size_leaf_vector":"1"}},{"base_weights":[3.7752174E-2,2.3068612E0,-2.0859406E0,6.6313845E-1,5.0302496E0,-5.5401626E0,1.5293174E0,2.2472078E-3,3.4671882E-1,2.3822509E-1,2.8837312E-2,-1.0735421E-1,-2.4600992E-1,-3.5026588E-2,1.1313802E-1],"categories":[],"categories_nodes":[],"categories_segments":[],"categories_sizes":[],"default_left":[0,0,0,0,0,0,0,0,0,0,0,0,0,0,0],"id":39,"left_children":[1,3,5,7,9,11,13,-1,-1,-1,-1,-1,-1,-1,-1],"loss_changes":[9.0407234E4,4.0583434E4,1.2106383E5,3.6275895E4,4.0379984E4,2.5717453E4,2.8675969E4,0E0,0E0,0E0,0E0,0E0,0E0,0E0,0E0],"parents":[2147483647,0,0,1,1,2,2,3,3,4,4,5,5,6,6],"right_children":[2,4,6,8,10,12,14,-1,-1,-1,-1,-1,-1,-1,-1],"split_conditions":[1.5716793E1,7.221342E1,1.5370415E1,1.50875E1,1E-1,2.1794127E1,1.0795E1,2.2472078E-3,3.4671882E-1,2.3822509E-1,2.8837312E-2,-1.0735421E-1,-2.4600992E-1,-3.5026588E-2,1.1313802E-1],"split_indices":[2,5,0,6,1,2,6,0,0,0,0,0,0,0,0],"split_type":[0,0,0,0,0,0,0,0,0,0,0,0,0,0,0],"sum_hessian":[1.8751E4,9.065E3,9.686E3,5.657E3,3.408E3,4.952E3,4.734E3,5.372E3,2.85E2,1.984E3,1.424E3,2.857E3,2.095E3,2.15E3,2.584E3],"tree_param":{"num_deleted":"0","num_feature":"7","num_nodes":"15","size_leaf_vector":"1"}},{"base_weights":[-3.3297114E-2,2.2217326E0,-2.1439722E0,9.851999E-1,6.187451E0,-5.0866885E0,1.8510195E0,1.59732E-2,2.607627E-1,2.8284183E-1,6.563697E-2,-1.07541926E-1,-2.3201983E-1,1.1668082E-2,1.9628817E-1],"categories":[],"categories_nodes":[],"categories_segments":[],"categories_sizes":[],"default_left":[0,0,0,0,0,0,0,0,0,0,0,0,0,0,0],"id":40,"left_children":[1,3,5,7,9,11,13,-1,-1,-1,-1,-1,-1,-1,-1],"loss_changes":[8.938119E4,4.4488426E4,1.14082484E5,2.4144967E4,2.7850234E4,2.2072688E4,2.8234588E4,0E0,0E0,0E0,0E0,0E0,0E0,0E0,0E0],"parents":[2147483647,0,0,1,1,2,2,3,3,4,4,5,5,6,6],"right_children":[2,4,6,8,10,12,14,-1,-1,-1,-1,-1,-1,-1,-1],"split_conditions":[1.5782622E1,7.90274E1,1.7265333E1,2.828317E1,1E-1,2.42256E2,2.7687082E1,1.59732E-2,2.607627E-1,2.8284183E-1,6.563697E-2,-1.07541926E-1,-2.3201983E-1,1.1668082E-2,1.9628817E-1],"split_indices":[2,5,0,0,1,3,0,0,0,0,0,0,0,0,0],"split_type":[0,0,0,0,0,0,0,0,0,0,0,0,0,0,0],"sum_hessian":[1.8769E4,9.074E3,9.695E3,6.922E3,2.152E3,5.582E3,4.113E3,6.543E3,3.79E2,1.185E3,9.67E2,3.569E3,2.013E3,3.14E3,9.73E2],"tree_param":{"num_deleted":"0","num_feature":"7","num_nodes":"15","size_leaf_vector":"1"}},{"base_weights":[2.7027806E-2,-7.102275E-1,5.3219323E0,2.1630747E1,-8.155338E-1,3.920623E-1,6.6342444E0,9.9389315E-1,-1.9874857E-3,-4.1280344E-2,9.89415E-2,-1.5803374E-1,6.7016564E-2,1.7710486E-1,4.688367E-1],"categories":[],"categories_nodes":[],"categories_segments":[],"categories_sizes":[],"default_left":[0,0,0,0,0,0,0,0,0,0,0,0,0,0,0],"id":41,"left_children":[1,3,5,7,9,11,13,-1,-1,-1,-1,-1,-1,-1,-1],"loss_changes":[7.3780625E4,3.9112363E4,1.4929496E4,1.9481445E4,3.8103242E4,5.1763335E3,1.1519758E4,0E0,0E0,0E0,0E0,0E0,0E0,0E0,0E0],"parents":[2147483647,0,0,1,1,2,2,3,3,4,4,5,5,6,6],"right_children":[2,4,6,8,10,12,14,-1,-1,-1,-1,-1,-1,-1,-1],"split_conditions":[2.6211166E1,2.5283328E-1,1.2E1,1E2,1.2695E1,7.4619354E1,1.5559999E1,9.9389315E-1,-1.9874857E-3,-4.1280344E-2,9.89415E-2,-1.5803374E-1,6.7016564E-2,1.7710486E-1,4.688367E-1],"split_indices":[0,0,4,4,6,3,6,0,0,0,0,0,0,0,0],"split_type":[0,0,0,0,0,0,0,0,0,0,0,0,0,0,0],"sum_hessian":[1.889E4,1.6585E4,2.305E3,7.3E1,1.6512E4,4.86E2,1.819E3,4.6E1,2.7E1,1.4535E4,1.977E3,1.17E2,3.69E2,1.69E3,1.29E2],"tree_param":{"num_deleted":"0","num_feature":"7","num_nodes":"15","size_leaf_vector":"1"}},{"base_weights":[-4.0894985E-2,-7.073321E-1,4.941947E0,-9.967696E-1,6.6438174E0,-7.579588E-2,6.216001E0,-6.405193E-2,2.8006425E-2,2.7403623E-1,4.4726793E-2,-1.2406332E-1,4.2086367E-2,1.6320573E-1,3.8147208E-1],"categories":[],"categories_nodes":[],"categories_segments":[],"categories_sizes":[],"default_left":[0,0,0,0,0,0,0,0,0,0,0,0,0,0,0],"id":42,"left_children":[1,3,5,7,9,11,13,-1,-1,-1,-1,-1,-1,-1,-1],"loss_changes":[6.2154094E4,3.515759E4,1.4119664E4,3.4920555E4,7.963127E3,2.743138E3,8.528625E3,0E0,0E0,0E0,0E0,0E0,0E0,0E0,0E0],"parents":[2147483647,0,0,1,1,2,2,3,3,4,4,5,5,6,6],"right_children":[2,4,6,8,10,12,14,-1,-1,-1,-1,-1,-1,-1,-1],"split_conditions":[2.632575E1,1.50875E1,1.2E1,7.221342E1,2.022445E2,9.124781E1,1.4947E1,-6.405193E-2,2.8006425E-2,2.7403623E-1,4.4726793E-2,-1.2406332E-1,4.2086367E-2,1.6320573E-1,3.8147208E-1],"split_indices":[0,6,4,5,3,3,6,0,0,0,0,0,0,0,0],"split_type":[0,0,0,0,0,0,0,0,0,0,0,0,0,0,0],"sum_hessian":[1.8707E4,1.6504E4,2.203E3,1.5883E4,6.21E2,4.47E2,1.756E3,9.991E3,5.892E3,4.16E2,2.05E2,1.17E2,3.3E2,1.577E3,1.79E2],"tree_param":{"num_deleted":"0","num_feature":"7","num_nodes":"15","size_leaf_vector":"1"}},{"base_weights":[-3.0445838E-2,1.9988147E0,-1.9332983E0,8.251979E-1,5.701707E0,-4.8966055E0,1.3896747E0,1.5179411E-2,3.3440313E-1,5.7710654E-1,1.3972925E-1,-9.630474E-2,-2.1428622E-1,-8.401217E-2,8.8260844E-2],"categories":[],"categories_nodes":[],"categories_segments":[],"categories_sizes":[],"default_left":[0,0,0,0,0,0,0,0,0,0,0,0,0,0,0],"id":43,"left_children":[1,3,5,7,9,11,13,-1,-1,-1,-1,-1,-1,-1,-1],"loss_changes":[7.253995E4,3.9481973E4,9.550165E4,2.2732262E4,3.0450672E4,1.930064E4,2.9792758E4,0E0,0E0,0E0,0E0,0E0,0E0,0E0,0E0],"parents":[2147483647,0,0,1,1,2,2,3,3,4,4,5,5,6,6],"right_children":[2,4,6,8,10,12,14,-1,-1,-1,-1,-1,-1,-1,-1],"split_conditions":[1.5782622E1,7.90274E1,1.5851917E1,2.9483084E1,3.0741663E0,2.1794127E1,5.408462E1,1.5179411E-2,3.3440313E-1,5.7710654E-1,1.3972925E-1,-9.630474E-2,-2.1428622E-1,-8.401217E-2,8.8260844E-2],"split_indices":[2,5,0,0,0,2,3,0,0,0,0,0,0,0,0],"split_type":[0,0,0,0,0,0,0,0,0,0,0,0,0,0,0],"sum_hessian":[1.8776E4,9.086E3,9.69E3,6.904E3,2.182E3,5.121E3,4.569E3,6.702E3,2.02E2,1.5E2,2.032E3,2.932E3,2.189E3,1.234E3,3.335E3],"tree_param":{"num_deleted":"0","num_feature":"7","num_nodes":"15","size_leaf_vector":"1"}},{"base_weights":[1.5153158E-2,2.887656E0,-1.4555355E0,7.138259E-1,5.4505258E0,-3.266099E0,2.3789601E0,1.4015932E-2,3.3997414E-1,2.3862359E-1,2.6732512E-2,-7.1542874E-2,-1.9093604E-1,1.4313701E-1,-6.652296E-3],"categories":[],"categories_nodes":[],"categories_segments":[],"categories_sizes":[],"default_left":[0,0,0,0,0,0,0,0,0,0,0,0,0,0,0],"id":44,"left_children":[1,3,5,7,9,11,13,-1,-1,-1,-1,-1,-1,-1,-1],"loss_changes":[7.934596E4,3.5411805E4,8.628006E4,8.9971875E3,3.3270844E4,2.2969133E4,2.4812145E4,0E0,0E0,0E0,0E0,0E0,0E0,0E0,0E0],"parents":[2147483647,0,0,1,1,2,2,3,3,4,4,5,5,6,6],"right_children":[2,4,6,8,10,12,14,-1,-1,-1,-1,-1,-1,-1,-1],"split_conditions":[1.332E1,7.142454E1,1.0795E1,1.6106E1,1E-1,2.624348E2,2.1088297E2,1.4015932E-2,3.3997414E-1,2.3862359E-1,2.6732512E-2,-7.1542874E-2,-1.9093604E-1,1.4313701E-1,-6.652296E-3],"split_indices":[2,5,6,6,1,3,3,0,0,0,0,0,0,0,0],"split_type":[0,0,0,0,0,0,0,0,0,0,0,0,0,0,0],"sum_hessian":[1.8772E4,6.355E3,1.2417E4,3.442E3,2.913E3,8.435E3,3.982E3,3.369E3,7.3E1,1.878E3,1.035E3,6.574E3,1.861E3,2.072E3,1.91E3],"tree_param":{"num_deleted":"0","num_feature":"7","num_nodes":"15","size_leaf_vector":"1"}},{"base_weights":[5.2412655E-2,4.027991E0,-8.6225075E-1,2.6807392E0,1.0454156E1,-1.8529232E0,4.9893904E0,-1.4992176E-2,1.178457E-1,7.117899E-1,2.6685214E-1,-7.094659E-2,1.3206784E-1,3.7862297E-2,1.8830463E-1],"categories":[],"categories_nodes":[],"categories_segments":[],"categories_sizes":[],"default_left":[0,0,0,0,0,0,0,0,0,0,0,0,0,0,0],"id":45,"left_children":[1,3,5,7,9,11,13,-1,-1,-1,-1,-1,-1,-1,-1],"loss_changes":[6.851195E4,3.0365535E4,8.883884E4,1.1595918E4,1.1536672E4,4.201281E4,1.0606355E4,0E0,0E0,0E0,0E0,0E0,0E0,0E0,0E0],"parents":[2147483647,0,0,1,1,2,2,3,3,4,4,5,5,6,6],"right_children":[2,4,6,8,10,12,14,-1,-1,-1,-1,-1,-1,-1,-1],"split_conditions":[1.0464797E1,8.556606E1,2.6211166E1,5.684326E1,3.0741663E0,1.3987499E1,1.9E1,-1.4992176E-2,1.178457E-1,7.117899E-1,2.6685214E-1,-7.094659E-2,1.3206784E-1,3.7862297E-2,1.8830463E-1],"split_indices":[2,5,0,5,0,6,4,0,0,0,0,0,0,0,0],"split_type":[0,0,0,0,0,0,0,0,0,0,0,0,0,0,0],"sum_hessian":[1.8831E4,3.519E3,1.5312E4,2.915E3,6.04E2,1.3098E4,2.214E3,8.22E2,2.093E3,5.6E1,5.48E2,1.211E4,9.88E2,5.71E2,1.643E3],"tree_param":{"num_deleted":"0","num_feature":"7","num_nodes":"15","size_leaf_vector":"1"}},{"base_weights":[1.1794447E-2,1.9152528E0,-1.738617E0,2.6638245E1,1.7457978E0,-4.6314387E0,1.2930491E0,1.145209E0,2.1952608E-1,2.432531E-1,3.5894778E-2,-8.447462E-2,-2.0052621E-1,-7.4014276E-2,8.136464E-2],"categories":[],"categories_nodes":[],"categories_segments":[],"categories_sizes":[],"default_left":[0,0,0,0,0,0,0,0,0,0,0,0,0,0,0],"id":46,"left_children":[1,3,5,7,9,11,13,-1,-1,-1,-1,-1,-1,-1,-1],"loss_changes":[6.2691855E4,3.7522547E4,8.599517E4,1.2184852E4,3.1257174E4,1.860161E4,2.5593492E4,0E0,0E0,0E0,0E0,0E0,0E0,0E0,0E0],"parents":[2147483647,0,0,1,1,2,2,3,3,4,4,5,5,6,6],"right_children":[2,4,6,8,10,12,14,-1,-1,-1,-1,-1,-1,-1,-1],"split_conditions":[1.5716793E1,2.5283328E-1,1.5370415E1,9.4E1,7.289444E0,2.12522E1,5.3392765E1,1.145209E0,2.1952608E-1,2.432531E-1,3.5894778E-2,-8.447462E-2,-2.0052621E-1,-7.4014276E-2,8.136464E-2],"split_indices":[2,0,0,4,2,2,3,0,0,0,0,0,0,0,0],"split_type":[0,0,0,0,0,0,0,0,0,0,0,0,0,0,0],"sum_hessian":[1.8806E4,9.009E3,9.797E3,5.6E1,8.953E3,5.012E3,4.785E3,3.2E1,2.4E1,7.06E2,8.247E3,2.666E3,2.346E3,1.31E3,3.475E3],"tree_param":{"num_deleted":"0","num_feature":"7","num_nodes":"15","size_leaf_vector":"1"}},{"base_weights":[-8.525176E-2,-5.3906906E-1,7.6515193E0,2.4730606E0,-1.8841044E0,9.93783E0,2.8809857E0,4.6410948E-2,2.4472302E-1,-9.2408754E-2,3.7150316E-2,2.3681082E-1,4.92407E-1,2.5799072E-1,-3.988884E-2],"categories":[],"categories_nodes":[],"categories_segments":[],"categories_sizes":[],"default_left":[0,0,0,0,0,0,0,0,0,0,0,0,0,0,0],"id":47,"left_children":[1,3,5,7,9,11,13,-1,-1,-1,-1,-1,-1,-1,-1],"loss_changes":[6.609352E4,7.206142E4,1.122891E4,2.883804E4,4.594187E4,8.650695E3,8.366696E3,0E0,0E0,0E0,0E0,0E0,0E0,0E0,0E0],"parents":[2147483647,0,0,1,1,2,2,3,3,4,4,5,5,6,6],"right_children":[2,4,6,8,10,12,14,-1,-1,-1,-1,-1,-1,-1,-1],"split_conditions":[1.46875E1,1.2682018E1,2.022445E2,8.556606E1,1.0795E1,1.66165E1,1E-1,4.6410948E-2,2.4472302E-1,-9.2408754E-2,3.7150316E-2,2.3681082E-1,4.92407E-1,2.5799072E-1,-3.988884E-2],"split_indices":[6,2,3,5,6,6,1,0,0,0,0,0,0,0,0],"split_type":[0,0,0,0,0,0,0,0,0,0,0,0,0,0,0],"sum_hessian":[1.8814E4,1.7776E4,1.038E3,5.486E3,1.229E4,6.98E2,3.4E2,4.723E3,7.63E2,8.886E3,3.404E3,5.39E2,1.59E2,1.42E2,1.98E2],"tree_param":{"num_deleted":"0","num_feature":"7","num_nodes":"15","size_leaf_vector":"1"}},{"base_weights":[-8.181624E-2,1.8780626E0,-1.8680441E0,8.291897E0,1.30578E0,-4.676091E0,1.1307586E0,2.7719575E-1,-1.5854278E-1,2.7235296E-1,2.8087333E-2,-9.2628375E-2,-2.0336506E-1,-4.1400013E-3,1.5963243E-1],"categories":[],"categories_nodes":[],"categories_segments":[],"categories_sizes":[],"default_left":[0,0,0,0,0,0,0,0,0,0,0,0,0,0,0],"id":48,"left_children":[1,3,5,7,9,11,13,-1,-1,-1,-1,-1,-1,-1,-1],"loss_changes":[6.578338E4,3.283089E4,8.281219E4,9.679164E3,2.359904E4,1.6853734E4,2.5301174E4,0E0,0E0,0E0,0E0,0E0,0E0,0E0,0E0],"parents":[2147483647,0,0,1,1,2,2,3,3,4,4,5,5,6,6],"right_children":[2,4,6,8,10,12,14,-1,-1,-1,-1,-1,-1,-1,-1],"split_conditions":[1.5716793E1,7.289444E0,1.5370415E1,1.715183E1,3.0741663E0,2.1794127E1,2.723934E1,2.7719575E-1,-1.5854278E-1,2.7235296E-1,2.8087333E-2,-9.2628375E-2,-2.0336506E-1,-4.1400013E-3,1.5963243E-1],"split_indices":[2,2,0,0,0,2,0,0,0,0,0,0,0,0,0],"split_type":[0,0,0,0,0,0,0,0,0,0,0,0,0,0,0],"sum_hessian":[1.8781E4,8.955E3,9.826E3,7.28E2,8.227E3,5.073E3,4.753E3,6.82E2,4.6E1,3.68E2,7.859E3,2.897E3,2.176E3,3.652E3,1.101E3],"tree_param":{"num_deleted":"0","num_feature":"7","num_nodes":"15","size_leaf_vector":"1"}},{"base_weights":[-1.1780288E-1,5.56026E0,-6.5216845E-1,3.8253107E0,1.1163517E1,-1.0640969E0,6.1390505E0,-5.8335736E-2,1.53541E-1,3.506862E-1,-7.762098E-2,-2.072653E-2,-1.7306285E-1,2.5067446E-1,5.885722E-2],"categories":[],"categories_nodes":[],"categories_segments":[],"categories_sizes":[],"default_left":[0,0,0,0,0,0,0,0,0,0,0,0,0,0,0],"id":49,"left_children":[1,3,5,7,9,11,13,-1,-1,-1,-1,-1,-1,-1,-1],"loss_changes":[5.679189E4,1.5433379E4,4.7887914E4,9.277246E3,2.8881367E3,2.8305105E4,8.980227E3,0E0,0E0,0E0,0E0,0E0,0E0,0E0,0E0],"parents":[2147483647,0,0,1,1,2,2,3,3,4,4,5,5,6,6],"right_children":[2,4,6,8,10,12,14,-1,-1,-1,-1,-1,-1,-1,-1],"split_conditions":[8.427383E0,8.556606E1,1.46875E1,5.684326E1,1.2896999E1,2.6693459E1,2.022445E2,-5.8335736E-2,1.53541E-1,3.506862E-1,-7.762098E-2,-2.072653E-2,-1.7306285E-1,2.5067446E-1,5.885722E-2],"split_indices":[2,5,6,5,6,2,3,0,0,0,0,0,0,0,0],"split_type":[0,0,0,0,0,0,0,0,0,0,0,0,0,0,0],"sum_hessian":[1.8707E4,1.605E3,1.7102E4,1.232E3,3.73E2,1.6128E4,9.74E2,2.25E2,1.007E3,3.6E2,1.3E1,1.4948E4,1.18E3,6.33E2,3.41E2],"tree_param":{"num_deleted":"0","num_feature":"7","num_nodes":"15","size_leaf_vector":"1"}},{"base_weights":[6.292346E-2,3.4007328E0,-7.8998375E-1,2.282431E0,8.947592E0,-1.9062896E0,3.570788E0,-2.0847665E-2,1.04384914E-1,4.1811863E-1,1.6976652E-1,-2.5708651E-2,-1.338866E-1,8.557328E-2,2.7275965E-1],"categories":[],"categories_nodes":[],"categories_segments":[],"categories_sizes":[],"default_left":[0,0,0,0,0,0,0,0,0,0,0,0,0,0,0],"id":50,"left_children":[1,3,5,7,9,11,13,-1,-1,-1,-1,-1,-1,-1,-1],"loss_changes":[5.3335562E4,2.3546793E4,7.267316E4,1.1346729E4,1.0069133E4,3.1860797E4,1.1935672E4,0E0,0E0,0E0,0E0,0E0,0E0,0E0,0E0],"parents":[2147483647,0,0,1,1,2,2,3,3,4,4,5,5,6,6],"right_children":[2,4,6,8,10,12,14,-1,-1,-1,-1,-1,-1,-1,-1],"split_conditions":[1.0787993E1,8.556606E1,2.4499998E1,5.684326E1,5.9033337E0,2.0991426E1,1.4806E1,-2.0847665E-2,1.04384914E-1,4.1811863E-1,1.6976652E-1,-2.5708651E-2,-1.338866E-1,8.557328E-2,2.7275965E-1],"split_indices":[2,5,0,5,0,2,6,0,0,0,0,0,0,0,0],"split_type":[0,0,0,0,0,0,0,0,0,0,0,0,0,0,0],"sum_hessian":[1.8725E4,3.808E3,1.4917E4,3.175E3,6.33E2,1.1879E4,3.038E3,9.11E2,2.264E3,2.45E2,3.88E2,8.427E3,3.452E3,2.695E3,3.43E2],"tree_param":{"num_deleted":"0","num_feature":"7","num_nodes":"15","size_leaf_vector":"1"}},{"base_weights":[1.1845198E-1,3.6285052E0,-6.965292E-1,2.4210932E0,9.474157E0,-1.873801E0,2.775443E0,9.1843344E-2,-6.952723E-2,3.0527705E-1,-2.1953125E-1,-1.1233089E-2,-9.3301214E-2,1.5633647E-1,-4.9929563E-3],"categories":[],"categories_nodes":[],"categories_segments":[],"categories_sizes":[],"default_left":[0,0,0,0,0,0,0,0,0,0,0,0,0,0,0],"id":51,"left_children":[1,3,5,7,9,11,13,-1,-1,-1,-1,-1,-1,-1,-1],"loss_changes":[5.3452895E4,2.4733355E4,6.2011984E4,8.911359E3,7.4551094E3,2.0990418E4,2.7536615E4,0E0,0E0,0E0,0E0,0E0,0E0,0E0,0E0],"parents":[2147483647,0,0,1,1,2,2,3,3,4,4,5,5,6,6],"right_children":[2,4,6,8,10,12,14,-1,-1,-1,-1,-1,-1,-1,-1],"split_conditions":[1.0464797E1,8.556606E1,1.1495E1,2E-1,8.5E0,1.687398E1,2.0869814E2,9.1843344E-2,-6.952723E-2,3.0527705E-1,-2.1953125E-1,-1.1233089E-2,-9.3301214E-2,1.5633647E-1,-4.9929563E-3],"split_indices":[2,5,6,1,1,2,3,0,0,0,0,0,0,0,0],"split_type":[0,0,0,0,0,0,0,0,0,0,0,0,0,0,0],"sum_hessian":[1.8676E4,3.516E3,1.516E4,2.92E3,5.96E2,1.1323E4,3.837E3,2.574E3,3.46E2,5.74E2,2.2E1,5.12E3,6.203E3,2.097E3,1.74E3],"tree_param":{"num_deleted":"0","num_feature":"7","num_nodes":"15","size_leaf_vector":"1"}},{"base_weights":[1.0492309E-2,-3.589174E-1,8.042559E0,2.0887594E0,-1.4392705E0,7.2015424E0,2.4615648E1,5.8451383E-3,1.2466833E-1,-7.869692E-2,4.3539893E-2,2.5215724E-1,6.550974E-2,1.0900068E0,9.961454E-2],"categories":[],"categories_nodes":[],"categories_segments":[],"categories_sizes":[],"default_left":[0,0,0,0,0,0,0,0,0,0,0,0,0,0,0],"id":52,"left_children":[1,3,5,7,9,11,13,-1,-1,-1,-1,-1,-1,-1,-1],"loss_changes":[5.600932E4,4.773487E4,1.0672844E4,2.1633752E4,4.2877555E4,4.718957E3,8.867201E3,0E0,0E0,0E0,0E0,0E0,0E0,0E0,0E0],"parents":[2147483647,0,0,1,1,2,2,3,3,4,4,5,5,6,6],"right_children":[2,4,6,8,10,12,14,-1,-1,-1,-1,-1,-1,-1,-1],"split_conditions":[1.50875E1,1.2682018E1,2.7699999E1,7.142454E1,1.0795E1,7.32141E1,1.7252997E2,5.8451383E-3,1.2466833E-1,-7.869692E-2,4.3539893E-2,2.5215724E-1,6.550974E-2,1.0900068E0,9.961454E-2],"split_indices":[6,2,1,5,6,5,3,0,0,0,0,0,0,0,0],"split_type":[0,0,0,0,0,0,0,0,0,0,0,0,0,0,0],"sum_hessian":[1.8866E4,1.8041E4,8.25E2,5.523E3,1.2518E4,7.92E2,3.3E1,2.885E3,2.638E3,8.881E3,3.637E3,6.36E2,1.56E2,1.9E1,1.4E1],"tree_param":{"num_deleted":"0","num_feature":"7","num_nodes":"15","size_leaf_vector":"1"}},{"base_weights":[-2.2568421E-2,-4.0077856E-1,7.1536517E0,3.2779083E0,-1.2658488E0,9.335378E0,2.7866068E0,5.61868E-2,2.2878261E-1,7.312637E-2,-5.462953E-2,1.8286249E-1,4.1572717E-1,1.6104387E-1,-1.078225E-1],"categories":[],"categories_nodes":[],"categories_segments":[],"categories_sizes":[],"default_left":[0,0,0,0,0,0,0,0,0,0,0,0,0,0,0],"id":53,"left_children":[1,3,5,7,9,11,13,-1,-1,-1,-1,-1,-1,-1,-1],"loss_changes":[5.1393297E4,5.726376E4,8.898551E3,2.085605E4,2.9970105E4,8.80227E3,5.417422E3,0E0,0E0,0E0,0E0,0E0,0E0,0E0,0E0],"parents":[2147483647,0,0,1,1,2,2,3,3,4,4,5,5,6,6],"right_children":[2,4,6,8,10,12,14,-1,-1,-1,-1,-1,-1,-1,-1],"split_conditions":[1.4806E1,1.0464797E1,2.022445E2,8.3154015E1,3.116655E1,9.959985E1,7.278567E1,5.61868E-2,2.2878261E-1,7.312637E-2,-5.462953E-2,1.8286249E-1,4.1572717E-1,1.6104387E-1,-1.078225E-1],"split_indices":[6,2,3,5,5,3,5,0,0,0,0,0,0,0,0],"split_type":[0,0,0,0,0,0,0,0,0,0,0,0,0,0,0],"sum_hessian":[1.8926E4,1.7983E4,9.43E2,3.421E3,1.4562E4,6.25E2,3.18E2,2.591E3,8.3E2,1.896E3,1.2666E4,3.71E2,2.54E2,2.27E2,9.1E1],"tree_param":{"num_deleted":"0","num_feature":"7","num_nodes":"15","size_leaf_vector":"1"}},{"base_weights":[-6.629508E-2,5.513426E0,-5.44195E-1,6.4172926E0,-3.428787E0,-1.593603E0,2.8959575E0,1.5887477E-1,3.241083E-1,-2.365116E-1,-4.8238944E-2,2.1361574E-3,-1.1428367E-1,-3.256075E-2,1.2267361E-1],"categories":[],"categories_nodes":[],"categories_segments":[],"categories_sizes":[],"default_left":[0,0,0,0,0,0,0,0,0,0,0,0,0,0,0],"id":54,"left_children":[1,3,5,7,9,11,13,-1,-1,-1,-1,-1,-1,-1,-1],"loss_changes":[4.998996E4,1.2065031E4,6.23623E4,6.3253047E3,1.061287E3,4.8826004E4,1.9205043E4,0E0,0E0,0E0,0E0,0E0,0E0,0E0,0E0],"parents":[2147483647,0,0,1,1,2,2,3,3,4,4,5,5,6,6],"right_children":[2,4,6,8,10,12,14,-1,-1,-1,-1,-1,-1,-1,-1],"split_conditions":[8.287822E0,1.761075E1,2.254033E1,3.2117676E2,5.093894E1,1.7610588E1,2.2E1,1.5887477E-1,3.241083E-1,-2.365116E-1,-4.8238944E-2,2.1361574E-3,-1.1428367E-1,-3.256075E-2,1.2267361E-1],"split_indices":[2,0,0,3,3,2,4,0,0,0,0,0,0,0,0],"split_type":[0,0,0,0,0,0,0,0,0,0,0,0,0,0,0],"sum_hessian":[1.8737E4,1.474E3,1.7263E4,1.34E3,1.34E2,1.323E4,4.033E3,1.076E3,2.64E2,3.4E1,1E2,7.557E3,5.673E3,9.3E2,3.103E3],"tree_param":{"num_deleted":"0","num_feature":"7","num_nodes":"15","size_leaf_vector":"1"}},{"base_weights":[-2.5271576E-2,1.8841082E0,-1.4150294E0,2.4542318E1,1.7272444E0,-3.5485446E0,1.4777974E0,9.2031586E-1,1.0998292E-2,2.1257045E-2,1.426674E-1,-7.557671E-2,-2.185174E-1,-6.2556945E-2,9.176709E-2],"categories":[],"categories_nodes":[],"categories_segments":[],"categories_sizes":[],"default_left":[0,0,0,0,0,0,0,0,0,0,0,0,0,0,0],"id":55,"left_children":[1,3,5,7,9,11,13,-1,-1,-1,-1,-1,-1,-1,-1],"loss_changes":[4.983407E4,2.7897879E4,6.710912E4,7.943467E3,2.4234943E4,2.3962812E4,2.6042172E4,0E0,0E0,0E0,0E0,0E0,0E0,0E0,0E0],"parents":[2147483647,0,0,1,1,2,2,3,3,4,4,5,5,6,6],"right_children":[2,4,6,8,10,12,14,-1,-1,-1,-1,-1,-1,-1,-1],"split_conditions":[1.4707222E1,2.5283328E-1,1.761075E1,1E2,7.90274E1,2.635303E2,6.2004772E1,9.2031586E-1,1.0998292E-2,2.1257045E-2,1.426674E-1,-7.557671E-2,-2.185174E-1,-6.2556945E-2,9.176709E-2],"split_indices":[2,0,0,4,5,3,3,0,0,0,0,0,0,0,0],"split_type":[0,0,0,0,0,0,0,0,0,0,0,0,0,0,0],"sum_hessian":[1.877E4,7.906E3,1.0864E4,4.9E1,7.857E3,6.252E3,4.612E3,3.8E1,1.1E1,5.884E3,1.973E3,4.908E3,1.344E3,1.417E3,3.195E3],"tree_param":{"num_deleted":"0","num_feature":"7","num_nodes":"15","size_leaf_vector":"1"}},{"base_weights":[-7.084133E-2,-5.724667E-1,5.0727315E0,1.2373997E0,-2.3576431E0,4.7160053E0,2.9532642E1,-2.1520147E-2,9.329013E-2,-1.3835572E-1,-1.990827E-2,4.792312E-3,1.7578268E-1,-8.160978E-2,9.489173E-1],"categories":[],"categories_nodes":[],"categories_segments":[],"categories_sizes":[],"default_left":[0,0,0,0,0,0,0,0,0,0,0,0,0,0,0],"id":56,"left_children":[1,3,5,7,9,11,13,-1,-1,-1,-1,-1,-1,-1,-1],"loss_changes":[4.8403816E4,5.524122E4,1.3838742E4,3.1087234E4,3.2850805E4,8.584324E3,1.9951875E3,0E0,0E0,0E0,0E0,0E0,0E0,0E0,0E0],"parents":[2147483647,0,0,1,1,2,2,3,3,4,4,5,5,6,6],"right_children":[2,4,6,8,10,12,14,-1,-1,-1,-1,-1,-1,-1,-1],"split_conditions":[2.723934E1,1.5782622E1,4.1251015E1,6.612007E1,1.1737083E1,1.2E1,1.1200571E1,-2.1520147E-2,9.329013E-2,-1.3835572E-1,-1.990827E-2,4.792312E-3,1.7578268E-1,-8.160978E-2,9.489173E-1],"split_indices":[0,2,5,5,0,4,2,0,0,0,0,0,0,0,0],"split_type":[0,0,0,0,0,0,0,0,0,0,0,0,0,0,0],"sum_hessian":[1.875E4,1.7088E4,1.662E3,8.486E3,8.602E3,1.644E3,1.8E1,4.153E3,4.333E3,3.687E3,4.915E3,3.31E2,1.313E3,1E0,1.7E1],"tree_param":{"num_deleted":"0","num_feature":"7","num_nodes":"15","size_leaf_vector":"1"}},{"base_weights":[2.4287913E-2,-3.2816732E-1,7.1264424E0,5.3396025E0,-8.2947195E-1,6.192926E0,2.2792183E1,1.2106094E-1,4.5382676E-1,-1.6122976E-3,-1.0647464E-1,1.1546015E-1,3.698767E-1,9.1968006E-1,-1.412066E-1],"categories":[],"categories_nodes":[],"categories_segments":[],"categories_sizes":[],"default_left":[0,0,0,0,0,0,0,0,0,0,0,0,0,0,0],"id":57,"left_children":[1,3,5,7,9,11,13,-1,-1,-1,-1,-1,-1,-1,-1],"loss_changes":[4.696109E4,5.0802973E4,1.2257238E4,1.823777E4,3.465038E4,1.1898865E4,1.1109145E4,0E0,0E0,0E0,0E0,0E0,0E0,0E0,0E0],"parents":[2147483647,0,0,1,1,2,2,3,3,4,4,5,5,6,6],"right_children":[2,4,6,8,10,12,14,-1,-1,-1,-1,-1,-1,-1,-1],"split_conditions":[2.8954916E1,8.287822E0,3.4139263E1,9.011807E1,2.1316135E1,2.1096123E1,1.2536891E2,1.2106094E-1,4.5382676E-1,-1.6122976E-3,-1.0647464E-1,1.1546015E-1,3.698767E-1,9.1968006E-1,-1.412066E-1],"split_indices":[0,2,5,5,2,2,3,0,0,0,0,0,0,0,0],"split_type":[0,0,0,0,0,0,0,0,0,0,0,0,0,0,0],"sum_hessian":[1.875E4,1.7868E4,8.82E2,1.448E3,1.642E4,8.39E2,4.3E1,1.284E3,1.64E2,1.278E4,3.64E3,6.13E2,2.26E2,3.3E1,1E1],"tree_param":{"num_deleted":"0","num_feature":"7","num_nodes":"15","size_leaf_vector":"1"}},{"base_weights":[-5.0547983E-2,-5.774888E-1,3.866515E0,1.7009779E0,-1.8671131E0,2.402872E0,7.220071E0,8.3978164E-1,4.382046E-2,-3.2498863E-2,-1.4579593E-1,6.347623E-2,5.003132E-1,1.2579904E-1,4.400689E-1],"categories":[],"categories_nodes":[],"categories_segments":[],"categories_sizes":[],"default_left":[0,0,0,0,0,0,0,0,0,0,0,0,0,0,0],"id":58,"left_children":[1,3,5,7,9,11,13,-1,-1,-1,-1,-1,-1,-1,-1],"loss_changes":[3.8818637E4,4.8725223E4,1.0856117E4,3.76556E4,2.4808914E4,6.2087373E3,1.4905391E4,0E0,0E0,0E0,0E0,0E0,0E0,0E0,0E0],"parents":[2147483647,0,0,1,1,2,2,3,3,4,4,5,5,6,6],"right_children":[2,4,6,8,10,12,14,-1,-1,-1,-1,-1,-1,-1,-1],"split_conditions":[2.632575E1,1.332E1,2.9483084E1,2.5283328E-1,2.6039996E2,4.3901302E1,9.4E1,8.3978164E-1,4.382046E-2,-3.2498863E-2,-1.4579593E-1,6.347623E-2,5.003132E-1,1.2579904E-1,4.400689E-1],"split_indices":[0,2,0,0,3,5,4,0,0,0,0,0,0,0,0],"split_type":[0,0,0,0,0,0,0,0,0,0,0,0,0,0,0],"sum_hessian":[1.8797E4,1.6572E4,2.225E3,5.989E3,1.0583E4,1.555E3,6.7E2,4.9E1,5.94E3,8.392E3,2.191E3,1.53E3,2.5E1,4.82E2,1.88E2],"tree_param":{"num_deleted":"0","num_feature":"7","num_nodes":"15","size_leaf_vector":"1"}},{"base_weights":[1.3538201E-1,5.3227944E0,-3.0880168E-1,-2.8490112E0,6.481738E0,-9.986277E-1,4.2328424E0,3.044339E-1,-1.3774724E-1,1.6167617E-1,3.8693452E-1,1.1585748E-2,-7.601502E-2,1.06161304E-1,2.866418E-1],"categories":[],"categories_nodes":[],"categories_segments":[],"categories_sizes":[],"default_left":[0,0,0,0,0,0,0,0,0,0,0,0,0,0,0],"id":59,"left_children":[1,3,5,7,9,11,13,-1,-1,-1,-1,-1,-1,-1,-1],"loss_changes":[4.38787E4,1.4318359E4,5.4978277E4,4.5343804E3,8.878836E3,3.2390639E4,8.375141E3,0E0,0E0,0E0,0E0,0E0,0E0,0E0,0E0],"parents":[2147483647,0,0,1,1,2,2,3,3,4,4,5,5,6,6],"right_children":[2,4,6,8,10,12,14,-1,-1,-1,-1,-1,-1,-1,-1],"split_conditions":[8.287822E0,5.684326E1,2.6211166E1,8.0599993E-1,8.972354E1,1.687398E1,1.4806E1,3.044339E-1,-1.3774724E-1,1.6167617E-1,3.8693452E-1,1.1585748E-2,-7.601502E-2,1.06161304E-1,2.866418E-1],"split_indices":[2,5,0,6,5,2,6,0,0,0,0,0,0,0,0],"split_type":[0,0,0,0,0,0,0,0,0,0,0,0,0,0,0],"sum_hessian":[1.9034E4,1.497E3,1.7537E4,1.85E2,1.312E3,1.5228E4,2.309E3,1.9E1,1.66E2,1.129E3,1.83E2,8.008E3,7.22E3,2.05E3,2.59E2],"tree_param":{"num_deleted":"0","num_feature":"7","num_nodes":"15","size_leaf_vector":"1"}},{"base_weights":[-5.392924E-2,-8.906795E-1,2.4031165E0,-1.6019292E0,1.5096703E0,4.2148485E0,6.026639E-2,-5.803577E-2,1.485743E-1,1.9469473E-1,-5.1234946E-2,9.643012E-2,2.8784966E-1,-3.957624E-2,9.852392E-2],"categories":[],"categories_nodes":[],"categories_segments":[],"categories_sizes":[],"default_left":[0,0,0,0,0,0,0,0,0,0,0,0,0,0,0],"id":60,"left_children":[1,3,5,7,9,11,13,-1,-1,-1,-1,-1,-1,-1,-1],"loss_changes":[3.8951688E4,2.4140654E4,2.0426785E4,2.3819598E4,5.1861324E4,1.4451117E4,9.379241E3,0E0,0E0,0E0,0E0,0E0,0E0,0E0,0E0],"parents":[2147483647,0,0,1,1,2,2,3,3,4,4,5,5,6,6],"right_children":[2,4,6,8,10,12,14,-1,-1,-1,-1,-1,-1,-1,-1],"split_conditions":[1.1245E1,7.90274E1,2.0869814E2,2.828317E1,1E-1,1.5559999E1,2.5535254E1,-5.803577E-2,1.485743E-1,1.9469473E-1,-5.1234946E-2,9.643012E-2,2.8784966E-1,-3.957624E-2,9.852392E-2],"split_indices":[6,5,3,0,1,6,0,0,0,0,0,0,0,0,0],"split_type":[0,0,0,0,0,0,0,0,0,0,0,0,0,0,0],"sum_hessian":[1.8936E4,1.4128E4,4.808E3,1.09E4,3.228E3,2.709E3,2.099E3,1.0377E4,5.23E2,1.265E3,1.963E3,2.291E3,4.18E2,1.472E3,6.27E2],"tree_param":{"num_deleted":"0","num_feature":"7","num_nodes":"15","size_leaf_vector":"1"}},{"base_weights":[-6.945116E-2,-4.6367487E-1,4.821658E0,-8.6562014E-1,2.460089E0,-3.3694583E-1,5.922092E0,-1.8520612E-2,-1.9849047E-1,1.2552658E-1,-2.2433225E-2,1.2896931E-1,-1.4249898E-1,1.648798E-1,4.5510727E-1],"categories":[],"categories_nodes":[],"categories_segments":[],"categories_sizes":[],"default_left":[0,0,0,0,0,0,0,0,0,0,0,0,0,0,0],"id":61,"left_children":[1,3,5,7,9,11,13,-1,-1,-1,-1,-1,-1,-1,-1],"loss_changes":[3.621745E4,2.0437373E4,7.964713E3,2.1799996E4,1.1642362E4,5.2372993E3,4.1283438E3,0E0,0E0,0E0,0E0,0E0,0E0,0E0,0E0],"parents":[2147483647,0,0,1,1,2,2,3,3,4,4,5,5,6,6],"right_children":[2,4,6,8,10,12,14,-1,-1,-1,-1,-1,-1,-1,-1],"split_conditions":[2.7849167E1,1.2896999E1,9E0,9.299999E0,2.2554906E2,2.5302507E1,5E-1,-1.8520612E-2,-1.9849047E-1,1.2552658E-1,-2.2433225E-2,1.2896931E-1,-1.4249898E-1,1.648798E-1,4.5510727E-1],"split_indices":[0,6,4,1,3,5,1,0,0,0,0,0,0,0,0],"split_type":[0,0,0,0,0,0,0,0,0,0,0,0,0,0,0],"sum_hessian":[1.8773E4,1.7377E4,1.396E3,1.528E4,2.097E3,2.46E2,1.15E3,1.4653E4,6.27E2,1.363E3,7.34E2,1.2E2,1.26E2,1.107E3,4.3E1],"tree_param":{"num_deleted":"0","num_feature":"7","num_nodes":"15","size_leaf_vector":"1"}},{"base_weights":[7.007346E-2,-2.4714838E-1,6.772822E0,3.057788E0,-1.0309426E0,5.9341793E0,2.5969406E1,5.141225E-2,2.15249E-1,-5.151744E-2,9.0433955E-2,2.3825628E-1,5.041472E-2,-1.1980327E-1,8.5426307E-1],"categories":[],"categories_nodes":[],"categories_segments":[],"categories_sizes":[],"default_left":[0,0,0,0,0,0,0,0,0,0,0,0,0,0,0],"id":62,"left_children":[1,3,5,7,9,11,13,-1,-1,-1,-1,-1,-1,-1,-1],"loss_changes":[3.990106E4,4.6429758E4,1.2871902E4,1.894957E4,4.0246984E4,6.9247383E3,3.1289023E3,0E0,0E0,0E0,0E0,0E0,0E0,0E0,0E0],"parents":[2147483647,0,0,1,1,2,2,3,3,4,4,5,5,6,6],"right_children":[2,4,6,8,10,12,14,-1,-1,-1,-1,-1,-1,-1,-1],"split_conditions":[1.50875E1,1.0464797E1,2.7699999E1,8.3154015E1,2.5983671E1,2.022445E2,1.935497E1,5.141225E-2,2.15249E-1,-5.151744E-2,9.0433955E-2,2.3825628E-1,5.041472E-2,-1.1980327E-1,8.5426307E-1],"split_indices":[6,2,1,5,0,3,3,0,0,0,0,0,0,0,0],"split_type":[0,0,0,0,0,0,0,0,0,0,0,0,0,0,0],"sum_hessian":[1.8756E4,1.7913E4,8.43E2,3.431E3,1.4482E4,8.14E2,2.9E1,2.592E3,8.39E2,1.2384E4,2.098E3,5.5E2,2.64E2,2E0,2.7E1],"tree_param":{"num_deleted":"0","num_feature":"7","num_nodes":"15","size_leaf_vector":"1"}},{"base_weights":[-1.3818291E-2,-3.222989E-1,5.530152E0,6.51206E-1,-2.5861368E0,3.5161908E0,1.207221E1,-1.495102E-2,8.370774E-2,-1.6561578E-1,-9.661583E-3,8.15313E-2,6.05433E-1,4.1307053E-1,-4.0302444E-3],"categories":[],"categories_nodes":[],"categories_segments":[],"categories_sizes":[],"default_left":[0,0,0,0,0,0,0,0,0,0,0,0,0,0,0],"id":63,"left_children":[1,3,5,7,9,11,13,-1,-1,-1,-1,-1,-1,-1,-1],"loss_changes":[3.1991648E4,3.9063555E4,1.2774078E4,3.0489375E4,3.540031E4,9.845228E3,4.7771367E3,0E0,0E0,0E0,0E0,0E0,0E0,0E0,0E0],"parents":[2147483647,0,0,1,1,2,2,3,3,4,4,5,5,6,6],"right_children":[2,4,6,8,10,12,14,-1,-1,-1,-1,-1,-1,-1,-1],"split_conditions":[2.8749084E1,1.9373219E1,2.1316135E1,7.221342E1,1.1737083E1,3.589955E1,2.6823633E2,-1.495102E-2,8.370774E-2,-1.6561578E-1,-9.661583E-3,8.15313E-2,6.05433E-1,4.1307053E-1,-4.0302444E-3],"split_indices":[0,2,2,5,0,5,3,0,0,0,0,0,0,0,0],"split_type":[0,0,0,0,0,0,0,0,0,0,0,0,0,0,0],"sum_hessian":[1.8697E4,1.7716E4,9.81E2,1.2391E4,5.325E3,7.56E2,2.25E2,8.062E3,4.329E3,2.316E3,3.009E3,7.27E2,2.9E1,1.97E2,2.8E1],"tree_param":{"num_deleted":"0","num_feature":"7","num_nodes":"15","size_leaf_vector":"1"}},{"base_weights":[4.309058E-2,-3.9976025E-1,4.3475375E0,1.7432935E0,-1.4768087E0,3.9356723E0,2.7322662E1,8.8874376E-1,4.470341E-2,-7.374676E-2,4.1031647E-2,-5.25275E-3,1.505731E-1,1.0020822E0,4.8311125E-2],"categories":[],"categories_nodes":[],"categories_segments":[],"categories_sizes":[],"default_left":[0,0,0,0,0,0,0,0,0,0,0,0,0,0,0],"id":64,"left_children":[1,3,5,7,9,11,13,-1,-1,-1,-1,-1,-1,-1,-1],"loss_changes":[3.580121E4,3.9318664E4,1.6031531E4,3.999233E4,3.1663508E4,7.6974453E3,4.4105234E3,0E0,0E0,0E0,0E0,0E0,0E0,0E0,0E0],"parents":[2147483647,0,0,1,1,2,2,3,3,4,4,5,5,6,6],"right_children":[2,4,6,8,10,12,14,-1,-1,-1,-1,-1,-1,-1,-1],"split_conditions":[2.7109499E1,1.288981E1,4.1251015E1,2.5283328E-1,1.1082E1,1.2E1,1.4529915E1,8.8874376E-1,4.470341E-2,-7.374676E-2,4.1031647E-2,-5.25275E-3,1.505731E-1,1.0020822E0,4.8311125E-2],"split_indices":[0,2,5,0,6,4,2,0,0,0,0,0,0,0,0],"split_type":[0,0,0,0,0,0,0,0,0,0,0,0,0,0,0],"sum_hessian":[1.8771E4,1.7024E4,1.747E3,5.693E3,1.1331E4,1.722E3,2.5E1,4.6E1,5.647E3,8.425E3,2.906E3,3.6E2,1.362E3,1.9E1,6E0],"tree_param":{"num_deleted":"0","num_feature":"7","num_nodes":"15","size_leaf_vector":"1"}},{"base_weights":[-1.7668506E-2,-3.306692E-1,6.6826816E0,4.8185954E0,-7.7927065E-1,8.657284E0,2.6492345E0,-7.612856E-2,1.7499858E-1,-3.2595124E-2,1.5634438E-1,1.4809167E-1,4.1138187E-1,1.6595952E-1,-1.3163273E-1],"categories":[],"categories_nodes":[],"categories_segments":[],"categories_sizes":[],"default_left":[0,0,0,0,0,0,0,0,0,0,0,0,0,0,0],"id":65,"left_children":[1,3,5,7,9,11,13,-1,-1,-1,-1,-1,-1,-1,-1],"loss_changes":[3.9426285E4,4.1506895E4,6.5641055E3,1.082357E4,3.0444152E4,1.0208797E4,5.862615E3,0E0,0E0,0E0,0E0,0E0,0E0,0E0,0E0],"parents":[2147483647,0,0,1,1,2,2,3,3,4,4,5,5,6,6],"right_children":[2,4,6,8,10,12,14,-1,-1,-1,-1,-1,-1,-1,-1],"split_conditions":[1.50875E1,8.287822E0,2.022445E2,5.684326E1,2.8954916E1,9.959985E1,7.256895E1,-7.612856E-2,1.7499858E-1,-3.2595124E-2,1.5634438E-1,1.4809167E-1,4.1138187E-1,1.6595952E-1,-1.3163273E-1],"split_indices":[6,2,3,5,0,3,5,0,0,0,0,0,0,0,0],"split_type":[0,0,0,0,0,0,0,0,0,0,0,0,0,0,0],"sum_hessian":[1.879E4,1.7956E4,8.34E2,1.435E3,1.6521E4,5.56E2,2.78E2,1.73E2,1.262E3,1.5719E4,8.02E2,3.26E2,2.3E2,1.98E2,8E1],"tree_param":{"num_deleted":"0","num_feature":"7","num_nodes":"15","size_leaf_vector":"1"}},{"base_weights":[6.896366E-2,2.6795483E0,-6.6555554E-1,1.0866111E1,2.0717828E0,-1.6360915E0,1.9337585E0,2.1470891E-1,5.359657E-1,1.9292887E-1,3.462515E-2,-2.6463594E-2,-1.1877974E-1,1.1721508E-1,-1.2820264E-2],"categories":[],"categories_nodes":[],"categories_segments":[],"categories_sizes":[],"default_left":[0,0,0,0,0,0,0,0,0,0,0,0,0,0,0],"id":66,"left_children":[1,3,5,7,9,11,13,-1,-1,-1,-1,-1,-1,-1,-1],"loss_changes":[3.603981E4,2.0417488E4,3.70191E4,6.72634E3,1.5352734E4,1.8693984E4,1.8600486E4,0E0,0E0,0E0,0E0,0E0,0E0,0E0,0E0],"parents":[2147483647,0,0,1,1,2,2,3,3,4,4,5,5,6,6],"right_children":[2,4,6,8,10,12,14,-1,-1,-1,-1,-1,-1,-1,-1],"split_conditions":[1.1119281E1,3.0741663E0,1.1245E1,8.198752E1,7.289444E0,2.575351E2,2.0869814E2,2.1470891E-1,5.359657E-1,1.9292887E-1,3.462515E-2,-2.6463594E-2,-1.1877974E-1,1.1721508E-1,-1.2820264E-2],"split_indices":[2,0,6,5,2,3,3,0,0,0,0,0,0,0,0],"split_type":[0,0,0,0,0,0,0,0,0,0,0,0,0,0,0],"sum_hessian":[1.8785E4,4.122E3,1.4663E4,2.79E2,3.843E3,1.0678E4,3.985E3,1.89E2,9E1,6.63E2,3.18E3,8.067E3,2.611E3,2.169E3,1.816E3],"tree_param":{"num_deleted":"0","num_feature":"7","num_nodes":"15","size_leaf_vector":"1"}},{"base_weights":[-1.2938315E-1,7.949853E-1,-1.7845416E0,-3.0675423E-1,2.4385211E0,-4.936474E0,4.454029E-1,-5.2100867E-2,4.560843E-2,1.3750765E-1,-4.1586743E-3,-1.1856184E-1,-2.2558273E-1,-1.3579786E-1,4.5349736E-2],"categories":[],"categories_nodes":[],"categories_segments":[],"categories_sizes":[],"default_left":[0,0,0,0,0,0,0,0,0,0,0,0,0,0,0],"id":67,"left_children":[1,3,5,7,9,11,13,-1,-1,-1,-1,-1,-1,-1,-1],"loss_changes":[2.8734225E4,2.1825707E4,4.7315047E4,1.887329E4,2.6744152E4,6.9395312E3,2.0952705E4,0E0,0E0,0E0,0E0,0E0,0E0,0E0,0E0],"parents":[2147483647,0,0,1,1,2,2,3,3,4,4,5,5,6,6],"right_children":[2,4,6,8,10,12,14,-1,-1,-1,-1,-1,-1,-1,-1],"split_conditions":[1.8374111E1,6.835789E1,1.2192914E1,2.0562334E1,1E-1,2.636616E1,4.1561375E1,-5.2100867E-2,4.560843E-2,1.3750765E-1,-4.1586743E-3,-1.1856184E-1,-2.2558273E-1,-1.3579786E-1,4.5349736E-2],"split_indices":[2,5,0,0,1,2,3,0,0,0,0,0,0,0,0],"split_type":[0,0,0,0,0,0,0,0,0,0,0,0,0,0,0],"sum_hessian":[1.8771E4,1.2046E4,6.725E3,7.214E3,4.832E3,2.784E3,3.941E3,4.047E3,3.167E3,2.635E3,2.197E3,2.025E3,7.59E2,6.93E2,3.248E3],"tree_param":{"num_deleted":"0","num_feature":"7","num_nodes":"15","size_leaf_vector":"1"}},{"base_weights":[-1.4140123E-2,-2.549179E-1,7.086096E0,6.094835E0,-5.3033787E-1,8.398986E0,-6.7613226E-1,2.027065E-1,-1.318669E-1,-3.0054996E-2,8.8715546E-2,2.2056007E-1,7.742682E-1,-2.3309913E-1,1.5877348E-1],"categories":[],"categories_nodes":[],"categories_segments":[],"categories_sizes":[],"default_left":[0,0,0,0,0,0,0,0,0,0,0,0,0,0,0],"id":68,"left_children":[1,3,5,7,9,11,13,-1,-1,-1,-1,-1,-1,-1,-1],"loss_changes":[3.2212035E4,3.188726E4,6.3287207E3,5.4136387E3,2.8744324E4,8.683895E3,4.186329E3,0E0,0E0,0E0,0E0,0E0,0E0,0E0,0E0],"parents":[2147483647,0,0,1,1,2,2,3,3,4,4,5,5,6,6],"right_children":[2,4,6,8,10,12,14,-1,-1,-1,-1,-1,-1,-1,-1],"split_conditions":[1.5559999E1,7.289444E0,2.2077717E1,1.715183E1,2.632575E1,2.7699999E1,2.6000001E0,2.027065E-1,-1.318669E-1,-3.0054996E-2,8.8715546E-2,2.2056007E-1,7.742682E-1,-2.3309913E-1,1.5877348E-1],"split_indices":[6,2,2,0,0,1,1,0,0,0,0,0,0,0,0],"split_type":[0,0,0,0,0,0,0,0,0,0,0,0,0,0,0],"sum_hessian":[1.8833E4,1.822E4,6.13E2,7.53E2,1.7467E4,5.24E2,8.9E1,7.1E2,4.3E1,1.539E4,2.077E3,5.01E2,2.3E1,4E1,4.9E1],"tree_param":{"num_deleted":"0","num_feature":"7","num_nodes":"15","size_leaf_vector":"1"}},{"base_weights":[-4.384752E-2,1.2413567E0,-1.2361951E0,2.3754656E1,1.0902765E0,-3.3185313E0,9.96983E-1,9.4644165E-1,9.329038E-2,8.889683E-2,3.800394E-5,-6.0181975E-2,-1.6769443E-1,-7.04828E-2,7.645756E-2],"categories":[],"categories_nodes":[],"categories_segments":[],"categories_sizes":[],"default_left":[0,0,0,0,0,0,0,0,0,0,0,0,0,0,0],"id":69,"left_children":[1,3,5,7,9,11,13,-1,-1,-1,-1,-1,-1,-1,-1],"loss_changes":[2.8781736E4,3.0607531E4,4.532441E4,9.152758E3,1.8323418E4,1.4974742E4,2.4459762E4,0E0,0E0,0E0,0E0,0E0,0E0,0E0,0E0],"parents":[2147483647,0,0,1,1,2,2,3,3,4,4,5,5,6,6],"right_children":[2,4,6,8,10,12,14,-1,-1,-1,-1,-1,-1,-1,-1],"split_conditions":[1.5716793E1,2.5283328E-1,1.5370415E1,1E2,9.637084E0,2.42256E2,6.2004772E1,9.4644165E-1,9.329038E-2,8.889683E-2,3.800394E-5,-6.0181975E-2,-1.6769443E-1,-7.04828E-2,7.645756E-2],"split_indices":[2,0,0,4,0,3,3,0,0,0,0,0,0,0,0],"split_type":[0,0,0,0,0,0,0,0,0,0,0,0,0,0,0],"sum_hessian":[1.8772E4,9.034E3,9.738E3,5.5E1,8.979E3,5.038E3,4.7E3,3.8E1,1.7E1,3.298E3,5.681E3,3.199E3,1.839E3,1.488E3,3.212E3],"tree_param":{"num_deleted":"0","num_feature":"7","num_nodes":"15","size_leaf_vector":"1"}},{"base_weights":[-9.017692E-2,-3.2623512E-1,7.1804314E0,-5.775681E-1,5.2044525E0,6.466002E0,2.0922007E1,-9.43904E-3,-1.3482648E-1,7.798915E-2,3.5042092E-1,9.964054E-3,2.6944497E-1,-1.6214027E-1,8.444195E-1],"categories":[],"categories_nodes":[],"categories_segments":[],"categories_sizes":[],"default_left":[0,0,0,0,0,0,0,0,0,0,0,0,0,0,0],"id":70,"left_children":[1,3,5,7,9,11,13,-1,-1,-1,-1,-1,-1,-1,-1],"loss_changes":[3.2310174E4,2.5358318E4,5.1272637E3,1.7956658E4,1.3221334E4,8.777236E3,5.9033564E3,0E0,0E0,0E0,0E0,0E0,0E0,0E0,0E0],"parents":[2147483647,0,0,1,1,2,2,3,3,4,4,5,5,6,6],"right_children":[2,4,6,8,10,12,14,-1,-1,-1,-1,-1,-1,-1,-1],"split_conditions":[1.5559999E1,2.9126917E1,2.7699999E1,6.7000003E0,9.4E1,2.068525E1,3.3895226E1,-9.43904E-3,-1.3482648E-1,7.798915E-2,3.5042092E-1,9.964054E-3,2.6944497E-1,-1.6214027E-1,8.444195E-1],"split_indices":[6,0,1,1,4,0,3,0,0,0,0,0,0,0,0],"split_type":[0,0,0,0,0,0,0,0,0,0,0,0,0,0,0],"sum_hessian":[1.8815E4,1.8228E4,5.87E2,1.744E4,7.88E2,5.65E2,2.2E1,1.6348E4,1.092E3,5.67E2,2.21E2,1.66E2,3.99E2,5E0,1.7E1],"tree_param":{"num_deleted":"0","num_feature":"7","num_nodes":"15","size_leaf_vector":"1"}},{"base_weights":[-5.5735307E-3,1.4582145E0,-1.0636759E0,4.05696E0,1.2793182E-1,-3.0745718E0,7.6908034E-1,7.0430464E-1,1.1034184E-1,-3.6191144E-3,3.0227536E-1,-6.2633485E-2,-1.7632909E-1,-7.967472E-2,6.0644545E-2],"categories":[],"categories_nodes":[],"categories_segments":[],"categories_sizes":[],"default_left":[0,0,0,0,0,0,0,0,0,0,0,0,0,0,0],"id":71,"left_children":[1,3,5,7,9,11,13,-1,-1,-1,-1,-1,-1,-1,-1],"loss_changes":[2.9026658E4,2.7179062E4,4.0103188E4,1.9147527E4,1.2882163E4,1.42864375E4,2.4454594E4,0E0,0E0,0E0,0E0,0E0,0E0,0E0,0E0],"parents":[2147483647,0,0,1,1,2,2,3,3,4,4,5,5,6,6],"right_children":[2,4,6,8,10,12,14,-1,-1,-1,-1,-1,-1,-1,-1],"split_conditions":[1.4707222E1,8.68825E0,1.4689166E1,2.5283328E-1,1.6106E1,2.4344624E1,5.3392765E1,7.0430464E-1,1.1034184E-1,-3.6191144E-3,3.0227536E-1,-6.2633485E-2,-1.7632909E-1,-7.967472E-2,6.0644545E-2],"split_indices":[2,0,0,0,6,2,3,0,0,0,0,0,0,0,0],"split_type":[0,0,0,0,0,0,0,0,0,0,0,0,0,0,0],"sum_hessian":[1.8731E4,7.858E3,1.0873E4,2.657E3,5.201E3,5.183E3,5.69E3,4.5E1,2.612E3,5.079E3,1.22E2,3.84E3,1.343E3,1.522E3,4.168E3],"tree_param":{"num_deleted":"0","num_feature":"7","num_nodes":"15","size_leaf_vector":"1"}},{"base_weights":[1.4582161E-2,1.220602E0,-1.1283723E0,2.5017925E1,1.0633214E0,-3.0375898E0,9.9645895E-1,1.0413774E0,1.109246E-2,9.384528E-2,3.3875974E-3,-7.2926626E-2,-1.9974668E-1,-5.3582013E-2,6.7932375E-2],"categories":[],"categories_nodes":[],"categories_segments":[],"categories_sizes":[],"default_left":[0,0,0,0,0,0,0,0,0,0,0,0,0,0,0],"id":72,"left_children":[1,3,5,7,9,11,13,-1,-1,-1,-1,-1,-1,-1,-1],"loss_changes":[2.5988863E4,3.4196152E4,3.9285234E4,1.4262637E4,1.789276E4,1.1119242E4,1.619677E4,0E0,0E0,0E0,0E0,0E0,0E0,0E0,0E0],"parents":[2147483647,0,0,1,1,2,2,3,3,4,4,5,5,6,6],"right_children":[2,4,6,8,10,12,14,-1,-1,-1,-1,-1,-1,-1,-1],"split_conditions":[1.5782622E1,2.5283328E-1,1.5851917E1,1E2,8.68825E0,2.777838E1,6.2004772E1,1.0413774E0,1.109246E-2,9.384528E-2,3.3875974E-3,-7.2926626E-2,-1.9974668E-1,-5.3582013E-2,6.7932375E-2],"split_indices":[2,0,0,4,0,2,3,0,0,0,0,0,0,0,0],"split_type":[0,0,0,0,0,0,0,0,0,0,0,0,0,0,0],"sum_hessian":[1.8844E4,9.169E3,9.675E3,5.5E1,9.114E3,5.095E3,4.58E3,3.8E1,1.7E1,2.869E3,6.245E3,4.371E3,7.24E2,1.433E3,3.147E3],"tree_param":{"num_deleted":"0","num_feature":"7","num_nodes":"15","size_leaf_vector":"1"}},{"base_weights":[-3.933276E-2,-2.60916E-1,6.7382445E0,-6.2080182E-2,-4.9006667E0,8.503576E0,2.4931097E0,-1.8199198E-2,7.049947E-2,-1.8686931E-1,4.21343E-3,1.6890563E-1,4.655697E-1,2.5297865E-1,-6.920832E-2],"categories":[],"categories_nodes":[],"categories_segments":[],"categories_sizes":[],"default_left":[0,0,0,0,0,0,0,0,0,0,0,0,0,0,0],"id":73,"left_children":[1,3,5,7,9,11,13,-1,-1,-1,-1,-1,-1,-1,-1],"loss_changes":[2.808295E4,1.67025E4,4.3271914E3,2.2820998E4,4.9881484E3,7.9425137E3,5.2594116E3,0E0,0E0,0E0,0E0,0E0,0E0,0E0,0E0],"parents":[2147483647,0,0,1,1,2,2,3,3,4,4,5,5,6,6],"right_children":[2,4,6,8,10,12,14,-1,-1,-1,-1,-1,-1,-1,-1],"split_conditions":[1.5559999E1,9.299999E0,2.0869814E2,7.90274E1,1.22425E1,1.2145679E2,5.1520245E1,-1.8199198E-2,7.049947E-2,-1.8686931E-1,4.21343E-3,1.6890563E-1,4.655697E-1,2.5297865E-1,-6.920832E-2],"split_indices":[6,1,3,5,6,3,5,0,0,0,0,0,0,0,0],"split_type":[0,0,0,0,0,0,0,0,0,0,0,0,0,0,0],"sum_hessian":[1.869E4,1.8103E4,5.87E2,1.7364E4,7.39E2,4.11E2,1.76E2,1.4169E4,3.195E3,5.84E2,1.55E2,2.98E2,1.13E2,7.7E1,9.9E1],"tree_param":{"num_deleted":"0","num_feature":"7","num_nodes":"15","size_leaf_vector":"1"}},{"base_weights":[5.1595002E-2,-2.0470697E-1,5.739724E0,3.8911328E0,-5.973808E-1,5.033746E0,2.2196175E1,8.5151896E-2,3.3898023E-1,-3.173863E-2,8.225218E-2,2.0705137E-1,4.167794E-2,-1.920766E-1,8.230721E-1],"categories":[],"categories_nodes":[],"categories_segments":[],"categories_sizes":[],"default_left":[0,0,0,0,0,0,0,0,0,0,0,0,0,0,0],"id":74,"left_children":[1,3,5,7,9,11,13,-1,-1,-1,-1,-1,-1,-1,-1],"loss_changes":[2.752354E4,2.9065102E4,8.890152E3,1.2165443E4,2.537261E4,5.307287E3,5.679634E3,0E0,0E0,0E0,0E0,0E0,0E0,0E0,0E0],"parents":[2147483647,0,0,1,1,2,2,3,3,4,4,5,5,6,6],"right_children":[2,4,6,8,10,12,14,-1,-1,-1,-1,-1,-1,-1,-1],"split_conditions":[1.50875E1,8.427383E0,2.7699999E1,8.972354E1,2.632575E1,2.022445E2,2.3342188E1,8.5151896E-2,3.3898023E-1,-3.173863E-2,8.225218E-2,2.0705137E-1,4.167794E-2,-1.920766E-1,8.230721E-1],"split_indices":[6,2,1,5,0,3,3,0,0,0,0,0,0,0,0],"split_type":[0,0,0,0,0,0,0,0,0,0,0,0,0,0,0],"sum_hessian":[1.8869E4,1.806E4,8.09E2,1.576E3,1.6484E4,7.82E2,2.7E1,1.386E3,1.9E2,1.4489E4,1.995E3,5.14E2,2.68E2,4E0,2.3E1],"tree_param":{"num_deleted":"0","num_feature":"7","num_nodes":"15","size_leaf_vector":"1"}},{"base_weights":[1.5468506E-2,-2.4455088E-1,5.7045336E0,1.6286584E0,-1.0958111E0,4.841448E0,1.50645685E1,1.9369827E-3,1.0157212E-1,-8.894733E-2,-4.8202146E-3,1.8299252E-1,-5.376959E-2,1.8272053E-1,9.9771607E-1],"categories":[],"categories_nodes":[],"categories_segments":[],"categories_sizes":[],"default_left":[0,0,0,0,0,0,0,0,0,0,0,0,0,0,0],"id":75,"left_children":[1,3,5,7,9,11,13,-1,-1,-1,-1,-1,-1,-1,-1],"loss_changes":[2.7820314E4,2.8685848E4,6.2698945E3,1.544569E4,2.1614281E4,6.3998926E3,9.913724E3,0E0,0E0,0E0,0E0,0E0,0E0,0E0,0E0],"parents":[2147483647,0,0,1,1,2,2,3,3,4,4,5,5,6,6],"right_children":[2,4,6,8,10,12,14,-1,-1,-1,-1,-1,-1,-1,-1],"split_conditions":[1.50875E1,1.2738099E1,8.335641E1,7.142454E1,6.695E0,7.32141E1,1.6897E1,1.9369827E-3,1.0157212E-1,-8.894733E-2,-4.8202146E-3,1.8299252E-1,-5.376959E-2,1.8272053E-1,9.9771607E-1],"split_indices":[6,2,5,5,6,5,6,0,0,0,0,0,0,0,0],"split_type":[0,0,0,0,0,0,0,0,0,0,0,0,0,0,0],"sum_hessian":[1.8796E4,1.7979E4,8.17E2,5.616E3,1.2363E4,7.55E2,6.2E1,2.974E3,2.642E3,4.119E3,8.244E3,6.35E2,1.2E2,4.6E1,1.6E1],"tree_param":{"num_deleted":"0","num_feature":"7","num_nodes":"15","size_leaf_vector":"1"}},{"base_weights":[-1.1881575E-2,-6.90217E-1,1.9891217E0,1.3668774E0,-1.8332554E0,3.5671172E0,-2.624359E-2,7.526005E-1,3.466853E-2,-1.3644111E-1,-2.994782E-2,9.43163E-2,3.9506304E-1,-1.4557744E-2,1.8061328E-1],"categories":[],"categories_nodes":[],"categories_segments":[],"categories_sizes":[],"default_left":[0,0,0,0,0,0,0,0,0,0,0,0,0,0,0],"id":76,"left_children":[1,3,5,7,9,11,13,-1,-1,-1,-1,-1,-1,-1,-1],"loss_changes":[2.5493463E4,3.2994887E4,1.5123559E4,2.4967512E4,2.0420166E4,1.0626273E4,5.8221045E3,0E0,0E0,0E0,0E0,0E0,0E0,0E0,0E0],"parents":[2147483647,0,0,1,1,2,2,3,3,4,4,5,5,6,6],"right_children":[2,4,6,8,10,12,14,-1,-1,-1,-1,-1,-1,-1,-1],"split_conditions":[1.1245E1,1.3202726E1,2.0869814E2,2.5283328E-1,4.8289345E1,1.6897E1,3.3456775E2,7.526005E-1,3.466853E-2,-1.3644111E-1,-2.994782E-2,9.43163E-2,3.9506304E-1,-1.4557744E-2,1.8061328E-1],"split_indices":[6,2,3,0,3,6,3,0,0,0,0,0,0,0,0],"split_type":[0,0,0,0,0,0,0,0,0,0,0,0,0,0,0],"sum_hessian":[1.8772E4,1.4022E4,4.75E3,5.008E3,9.014E3,2.662E3,2.088E3,3.9E1,4.969E3,2.115E3,6.899E3,2.556E3,1.06E2,1.945E3,1.43E2],"tree_param":{"num_deleted":"0","num_feature":"7","num_nodes":"15","size_leaf_vector":"1"}},{"base_weights":[-5.339849E-2,-7.1866393E-1,1.8907564E0,1.3015857E0,-1.8700632E0,3.283629E0,-3.9556015E-1,8.9693256E-2,-4.375188E-2,-1.4294969E-1,-2.6957326E-2,8.3682396E-2,3.4028256E-1,-6.518017E-2,3.9827783E-2],"categories":[],"categories_nodes":[],"categories_segments":[],"categories_sizes":[],"default_left":[0,0,0,0,0,0,0,0,0,0,0,0,0,0,0],"id":77,"left_children":[1,3,5,7,9,11,13,-1,-1,-1,-1,-1,-1,-1,-1],"loss_changes":[2.424954E4,3.2505824E4,1.5229496E4,2.3663916E4,2.5007066E4,1.1670893E4,5.569572E3,0E0,0E0,0E0,0E0,0E0,0E0,0E0,0E0],"parents":[2147483647,0,0,1,1,2,2,3,3,4,4,5,5,6,6],"right_children":[2,4,6,8,10,12,14,-1,-1,-1,-1,-1,-1,-1,-1],"split_conditions":[1.1245E1,1.332E1,2.2459937E2,1.1441417E1,5.1778286E1,1.66165E1,2.0940332E1,8.9693256E-2,-4.375188E-2,-1.4294969E-1,-2.6957326E-2,8.3682396E-2,3.4028256E-1,-6.518017E-2,3.9827783E-2],"split_indices":[6,2,3,0,3,6,0,0,0,0,0,0,0,0,0],"split_type":[0,0,0,0,0,0,0,0,0,0,0,0,0,0,0],"sum_hessian":[1.8739E4,1.3964E4,4.775E3,5.069E3,8.895E3,2.966E3,1.809E3,3.145E3,1.924E3,2.23E3,6.665E3,2.801E3,1.65E2,8.9E2,9.19E2],"tree_param":{"num_deleted":"0","num_feature":"7","num_nodes":"15","size_leaf_vector":"1"}},{"base_weights":[1.305705E-1,-7.0139244E-2,6.3260303E0,5.632193E0,-3.0661598E-1,5.480078E0,2.2877098E1,1.22366905E-1,3.5202077E-1,-2.127469E-2,7.0785634E-2,5.4129433E-2,2.2206137E-1,-9.674947E-2,9.850221E-1],"categories":[],"categories_nodes":[],"categories_segments":[],"categories_sizes":[],"default_left":[0,0,0,0,0,0,0,0,0,0,0,0,0,0,0],"id":78,"left_children":[1,3,5,7,9,11,13,-1,-1,-1,-1,-1,-1,-1,-1],"loss_changes":[2.3300865E4,2.4484447E4,7.5974824E3,6.608506E3,1.8718523E4,3.9290781E3,7.5555684E3,0E0,0E0,0E0,0E0,0E0,0E0,0E0,0E0],"parents":[2147483647,0,0,1,1,2,2,3,3,4,4,5,5,6,6],"right_children":[2,4,6,8,10,12,14,-1,-1,-1,-1,-1,-1,-1,-1],"split_conditions":[1.5559999E1,7.289444E0,2.7699999E1,3.2869592E2,2.5983671E1,9.9E1,1.66165E1,1.22366905E-1,3.5202077E-1,-2.127469E-2,7.0785634E-2,5.4129433E-2,2.2206137E-1,-9.674947E-2,9.850221E-1],"split_indices":[6,2,1,3,0,4,6,0,0,0,0,0,0,0,0],"split_type":[0,0,0,0,0,0,0,0,0,0,0,0,0,0,0],"sum_hessian":[1.873E4,1.8147E4,5.83E2,7.18E2,1.7429E4,5.61E2,2.2E1,5.79E2,1.39E2,1.5146E4,2.283E3,1.96E2,3.65E2,7E0,1.5E1],"tree_param":{"num_deleted":"0","num_feature":"7","num_nodes":"15","size_leaf_vector":"1"}},{"base_weights":[2.9215777E-2,-4.1210377E-1,3.1928456E0,1.3545662E0,-1.235318E0,4.654577E0,-3.6705106E-1,6.438045E-2,-5.6398626E-2,-1.0708296E-1,-1.5459017E-2,7.551439E-2,1.8238401E-1,-4.4650696E-2,2.6702732E-1],"categories":[],"categories_nodes":[],"categories_segments":[],"categories_sizes":[],"default_left":[0,0,0,0,0,0,0,0,0,0,0,0,0,0,0],"id":79,"left_children":[1,3,5,7,9,11,13,-1,-1,-1,-1,-1,-1,-1,-1],"loss_changes":[2.6071146E4,2.3840727E4,1.1905287E4,1.3360192E4,1.8780398E4,4.857832E3,7.0268E3,0E0,0E0,0E0,0E0,0E0,0E0,0E0,0E0],"parents":[2147483647,0,0,1,1,2,2,3,3,4,4,5,5,6,6],"right_children":[2,4,6,8,10,12,14,-1,-1,-1,-1,-1,-1,-1,-1],"split_conditions":[1.31665E1,1.2738099E1,2.342699E2,1E-1,4.8976162E1,7.070985E1,3.3456775E2,6.438045E-2,-5.6398626E-2,-1.0708296E-1,-1.5459017E-2,7.551439E-2,1.8238401E-1,-4.4650696E-2,2.6702732E-1],"split_indices":[6,2,3,1,3,3,3,0,0,0,0,0,0,0,0],"split_type":[0,0,0,0,0,0,0,0,0,0,0,0,0,0,0],"sum_hessian":[1.8663E4,1.6382E4,2.281E3,5.206E3,1.1176E4,1.616E3,6.65E2,4.184E3,1.022E3,2.63E3,8.546E3,6.52E2,9.64E2,5.97E2,6.8E1],"tree_param":{"num_deleted":"0","num_feature":"7","num_nodes":"15","size_leaf_vector":"1"}},{"base_weights":[-5.6891233E-2,-3.280863E-1,4.6415286E0,4.3996277E-1,-2.0744944E0,6.552926E0,-1.6903476E0,5.8326477E-1,9.960357E-3,-1.3201192E-1,-1.0145259E-2,1.462466E-1,3.6636078E-1,-8.131284E-2,1.3629693E-1],"categories":[],"categories_nodes":[],"categories_segments":[],"categories_sizes":[],"default_left":[0,0,0,0,0,0,0,0,0,0,0,0,0,0,0],"id":80,"left_children":[1,3,5,7,9,11,13,-1,-1,-1,-1,-1,-1,-1,-1],"loss_changes":[2.4073188E4,2.396384E4,1.2534758E4,2.5418473E4,2.2029281E4,7.2276953E3,1.6061975E3,0E0,0E0,0E0,0E0,0E0,0E0,0E0,0E0],"parents":[2147483647,0,0,1,1,2,2,3,3,4,4,5,5,6,6],"right_children":[2,4,6,8,10,12,14,-1,-1,-1,-1,-1,-1,-1,-1],"split_conditions":[2.8591253E1,1.9201874E1,2.5493153E2,2.5283328E-1,1.1737083E1,2.1316135E1,2.2077717E1,5.8326477E-1,9.960357E-3,-1.3201192E-1,-1.0145259E-2,1.462466E-1,3.6636078E-1,-8.131284E-2,1.3629693E-1],"split_indices":[0,2,3,0,0,2,2,0,0,0,0,0,0,0,0],"split_type":[0,0,0,0,0,0,0,0,0,0,0,0,0,0,0],"sum_hessian":[1.8883E4,1.7857E4,1.026E3,1.2405E4,5.452E3,7.88E2,2.38E2,6.5E1,1.234E4,2.327E3,3.125E3,6.15E2,1.73E2,2.07E2,3.1E1],"tree_param":{"num_deleted":"0","num_feature":"7","num_nodes":"15","size_leaf_vector":"1"}},{"base_weights":[-8.094867E-2,3.5883949E0,-3.9136338E-1,2.7345452E0,1.0390742E1,-8.399822E-1,2.8504245E0,-7.7405125E-2,1.08583905E-1,2.5109452E-1,5.2517825E-1,4.5903066E-1,-2.7468862E-2,-1.8997075E-2,1.1079008E-1],"categories":[],"categories_nodes":[],"categories_segments":[],"categories_sizes":[],"default_left":[0,0,0,0,0,0,0,0,0,0,0,0,0,0,0],"id":81,"left_children":[1,3,5,7,9,11,13,-1,-1,-1,-1,-1,-1,-1,-1],"loss_changes":[2.132051E4,8.3339375E3,2.5110146E4,6.179835E3,1.5746934E3,1.8581148E4,6.173711E3,0E0,0E0,0E0,0E0,0E0,0E0,0E0,0E0],"parents":[2147483647,0,0,1,1,2,2,3,3,4,4,5,5,6,6],"right_children":[2,4,6,8,10,12,14,-1,-1,-1,-1,-1,-1,-1,-1],"split_conditions":[8.287822E0,9.045872E1,2.6588747E1,5.609833E1,7.9036193E0,2.5283328E-1,9E0,-7.7405125E-2,1.08583905E-1,2.5109452E-1,5.2517825E-1,4.5903066E-1,-2.7468862E-2,-1.8997075E-2,1.1079008E-1],"split_indices":[2,5,0,5,2,0,4,0,0,0,0,0,0,0,0],"split_type":[0,0,0,0,0,0,0,0,0,0,0,0,0,0,0],"sum_hessian":[1.8708E4,1.455E3,1.7253E4,1.299E3,1.56E2,1.5159E4,2.094E3,1.84E2,1.115E3,1.3E2,2.6E1,6.6E1,1.5093E4,4.08E2,1.686E3],"tree_param":{"num_deleted":"0","num_feature":"7","num_nodes":"15","size_leaf_vector":"1"}},{"base_weights":[-8.711319E-3,-2.1015492E-1,6.166177E0,3.5982618E0,-5.4604524E-1,3.2200434E0,1.2080211E1,8.123969E-2,2.914872E-1,-3.0036777E-2,5.974161E-2,1.5567073E-1,-2.72349E-1,3.96648E-1,-1.778272E-1],"categories":[],"categories_nodes":[],"categories_segments":[],"categories_sizes":[],"default_left":[0,0,0,0,0,0,0,0,0,0,0,0,0,0,0],"id":82,"left_children":[1,3,5,7,9,11,13,-1,-1,-1,-1,-1,-1,-1,-1],"loss_changes":[2.3190834E4,2.3106328E4,1.0063377E4,7.838631E3,1.9179045E4,9.920452E3,4.381504E3,0E0,0E0,0E0,0E0,0E0,0E0,0E0,0E0],"parents":[2147483647,0,0,1,1,2,2,3,3,4,4,5,5,6,6],"right_children":[2,4,6,8,10,12,14,-1,-1,-1,-1,-1,-1,-1,-1],"split_conditions":[1.5559999E1,8.287822E0,3.5E0,8.972354E1,2.5535254E1,2.1794127E1,3.801709E1,8.123969E-2,2.914872E-1,-3.0036777E-2,5.974161E-2,1.5567073E-1,-2.72349E-1,3.96648E-1,-1.778272E-1],"split_indices":[6,2,1,5,0,2,2,0,0,0,0,0,0,0,0],"split_type":[0,0,0,0,0,0,0,0,0,0,0,0,0,0,0],"sum_hessian":[1.8635E4,1.8051E4,5.84E2,1.459E3,1.6592E4,3.95E2,1.89E2,1.28E3,1.79E2,1.4071E4,2.521E3,3.43E2,5.2E1,1.79E2,1E1],"tree_param":{"num_deleted":"0","num_feature":"7","num_nodes":"15","size_leaf_vector":"1"}},{"base_weights":[8.112008E-2,-1.3826758E-1,4.861418E0,1.028316E-1,-4.5905075E0,4.1806984E0,1.2790732E1,-1.3384254E-2,8.6343E-2,-1.5807398E-1,6.030301E-2,1.6881844E-1,-8.119003E-2,1.8111025E-1,6.043241E-1],"categories":[],"categories_nodes":[],"categories_segments":[],"categories_sizes":[],"default_left":[0,0,0,0,0,0,0,0,0,0,0,0,0,0,0],"id":83,"left_children":[1,3,5,7,9,11,13,-1,-1,-1,-1,-1,-1,-1,-1],"loss_changes":[1.9789227E4,1.9370557E4,4.1967812E3,2.60903E4,4.2062793E3,7.7482754E3,2.5128535E3,0E0,0E0,0E0,0E0,0E0,0E0,0E0,0E0],"parents":[2147483647,0,0,1,1,2,2,3,3,4,4,5,5,6,6],"right_children":[2,4,6,8,10,12,14,-1,-1,-1,-1,-1,-1,-1,-1],"split_conditions":[1.50875E1,7.6999993E0,8.374355E1,7.99611E1,1.5053918E1,7.32141E1,1.7265333E1,-1.3384254E-2,8.6343E-2,-1.5807398E-1,6.030301E-2,1.6881844E-1,-8.119003E-2,1.8111025E-1,6.043241E-1],"split_indices":[6,1,5,5,0,5,0,0,0,0,0,0,0,0,0],"split_type":[0,0,0,0,0,0,0,0,0,0,0,0,0,0,0],"sum_hessian":[1.886E4,1.8037E4,8.23E2,1.7115E4,9.22E2,7.65E2,5.8E1,1.4292E4,2.823E3,8.37E2,8.5E1,6.33E2,1.32E2,3.5E1,2.3E1],