{"learner":{"attributes":{"scikit_learn":"{\"_estimator_type\": \"regressor\"}"},"feature_names":["is_weekend","pm25_lag1","pm25_lag2","pm25_lag3","pm25_roll3","weather_madrid_sensors_temperature_2m_mean","weather_madrid_sensors_precipitation_sum","weather_madrid_sensors_wind_speed_10m_max","weather_madrid_sensors_wind_direction_10m_dominant","weather_madrid_sensors_cloud_cover_max","weather_madrid_sensors_relative_humidity_2m_mean","weather_madrid_sensors_dew_point_2m_max"],"feature_types":["int","float","float","float","float","float","float","float","float","float","float","float"],"gradient_booster":{"model":{"gbtree_model_param":{"num_parallel_tree":"1","num_trees":"100"},"iteration_indptr":[0,1,2,3,4,5,6,7,8,9,10,11,12,13,14,15,16,17,18,19,20,21,22,23,24,25,26,27,28,29,30,31,32,33,34,35,36,37,38,39,40,41,42,43,44,45,46,47,48,49,50,51,52,53,54,55,56,57,58,59,60,61,62,63,64,65,66,67,68,69,70,71,72,73,74,75,76,77,78,79,80,81,82,83,84,85,86,87,88,89,90,91,92,93,94,95,96,97,98,99,100],"tree_info":[0,0,0,0,0,0,0,0,0,0,0,0,0,0,0,0,0,0,0,0,0,0,0,0,0,0,0,0,0,0,0,0,0,0,0,0,0,0,0,0,0,0,0,0,0,0,0,0,0,0,0,0,0,0,0,0,0,0,0,0,0,0,0,0,0,0,0,0,0,0,0,0,0,0,0,0,0,0,0,0,0,0,0,0,0,0,0,0,0,0,0,0,0,0,0,0,0,0,0,0],"trees":[{"base_weights":[5.773465E-7,-8.965128E0,1.7460276E1,-1.6743092E1,-2.8258758E0,1.2564482E1,3.7513653E1,-2.201774E1,-1.3649798E1,4.026129E-1,-7.858452E0,9.12291E0,1.8619505E1,3.4864082E1,7.873902E1,-2.5935406E1,-2.0236837E1,-1.0411244E1,-1.8001947E1,-4.0903735E0,5.5812607E0,-1.3529813E1,-3.5718036E0,1.3590634E1,1.798665E0,2.3690254E1,1.184063E1,2.8963379E1,4.2134468E1,1.0056217E2,6.97313E1,-8.350845E0,-2.4369871E1,-1.835286E1,-2.2998892E1,-1.3314964E1,-6.951516E0,-2.1376549E1,-1.6133522E1,1.6776121E0,-7.14577E0,2.3702629E0,9.028006E0,-1.6637177E1,-1.0911151E1,-1.061469E0,-1.1547713E1,2.4737701E1,1.1908757E1,4.4405556E0,-6.3630123E0,3.3293346E1,2.1242125E1,1.5582666E1,6.7675095E0,3.8556774E1,2.2115646E1,5.608449E1,3.6924927E1,1.9784083E0,1.03682625E2,1.3609516E1,7.473331E1,-5.027208E0,-7.461254E0,-6.040566E0,-4.81442E0,-6.447672E0,-7.416436E0,-2.892095E0,-4.5955067E0,-1.4426013E0,-3.7411249E0,-5.948717E0,-7.072084E0,-4.192395E0,-6.018459E0,2.0743685E0,-2.1057239E-1,-1.2228916E0,-3.2937233E0,2.282501E0,-2.8478581E-2,4.583637E0,2.0076718E0,-4.4918175E0,-6.219943E0,-2.518352E0,-5.0083547E0,3.736269E-1,-2.1979554E0,-2.3028164E0,-4.7663965E0,1.1067626E1,6.958419E0,2.7820427E0,5.0074244E0,-2.714533E-1,2.3563793E0,-4.7424415E-1,-3.0714548E0,1.8188976E1,9.381706E0,5.7598953E0,8.64483E0,3.647071E0,6.338443E0,2.8038352E0,-1.0850064E0,1.4844809E1,1.056365E1,7.2160134E0,9.8457E-1,2.1564798E1,1.5446462E1,1.1698486E1,3.8622205E0,1.9205845E1,3.3476963E1,2.2996223E1,3.0378778E0],"categories":[],"categories_nodes":[],"categories_segments":[],"categories_sizes":[],"default_left":[0,0,0,0,0,0,0,0,0,0,0,0,0,0,0,0,0,0,0,0,0,0,0,0,0,0,0,0,0,0,0,0,0,0,0,0,0,0,0,0,0,0,0,0,0,0,0,0,0,0,0,0,0,0,0,0,0,0,0,0,0,0,0,0,0,0,0,0,0,0,0,0,0,0,0,0,0,0,0,0,0,0,0,0,0,0,0,0,0,0,0,0,0,0,0,0,0,0,0,0,0,0,0,0,0,0,0,0,0,0,0,0,0,0,0,0,0,0,0,0,0],"id":0,"left_children":[1,3,5,7,9,11,13,15,17,19,21,23,25,27,29,31,33,35,37,39,41,43,45,47,49,51,53,55,57,59,61,-1,63,65,67,69,71,73,75,77,79,81,83,85,87,89,91,93,95,97,99,101,103,105,107,109,111,113,115,-1,117,-1,119,-1,-1,-1,-1,-1,-1,-1,-1,-1,-1,-1,-1,-1,-1,-1,-1,-1,-1,-1,-1,-1,-1,-1,-1,-1,-1,-1,-1,-1,-1,-1,-1,-1,-1,-1,-1,-1,-1,-1,-1,-1,-1,-1,-1,-1,-1,-1,-1,-1,-1,-1,-1,-1,-1,-1,-1,-1,-1],"loss_changes":[4.198232E6,8.4614575E5,8.92843E5,1.27242E5,1.6093577E5,1.5226588E5,1.922295E5,1.9624625E4,6.9299375E4,1.4044277E5,9.406006E4,1.5265972E5,9.081056E4,7.08095E4,1.40214375E4,1.9968125E3,9.933125E3,2.8327781E4,1.2908625E4,5.6971082E4,3.1011844E4,1.33749375E4,4.415672E4,5.4037062E4,3.817189E4,3.4909812E4,2.1460156E4,6.0241812E4,5.2434E4,7.8196562E3,6.2382812E3,0E0,1.493875E3,4.557125E3,1.5527188E3,1.1167344E4,1.523125E4,2.0689375E3,1.1227125E4,1.3961649E4,2.4817234E4,1.8763098E4,1.963746E4,4.8709062E3,1.3060945E4,2.4275357E4,8.750586E3,6.252E3,3.1606438E4,2.4406574E4,8.0080977E3,1.5009531E4,1.8165E4,1.21485E4,1.2993758E4,1.2363125E4,1.9810656E4,1.09666875E4,2.68305E4,0E0,1.637625E3,0E0,7.165875E3,0E0,0E0,0E0,0E0,0E0,0E0,0E0,0E0,0E0,0E0,0E0,0E0,0E0,0E0,0E0,0E0,0E0,0E0,0E0,0E0,0E0,0E0,0E0,0E0,0E0,0E0,0E0,0E0,0E0,0E0,0E0,0E0,0E0,0E0,0E0,0E0,0E0,0E0,0E0,0E0,0E0,0E0,0E0,0E0,0E0,0E0,0E0,0E0,0E0,0E0,0E0,0E0,0E0,0E0,0E0,0E0,0E0,0E0],"parents":[2147483647,0,0,1,1,2,2,3,3,4,4,5,5,6,6,7,7,8,8,9,9,10,10,11,11,12,12,13,13,14,14,15,15,16,16,17,17,18,18,19,19,20,20,21,21,22,22,23,23,24,24,25,25,26,26,27,27,28,28,29,29,30,30,32,32,33,33,34,34,35,35,36,36,37,37,38,38,39,39,40,40,41,41,42,42,43,43,44,44,45,45,46,46,47,47,48,48,49,49,50,50,51,51,52,52,53,53,54,54,55,55,56,56,57,57,58,58,60,60,62,62],"right_children":[2,4,6,8,10,12,14,16,18,20,22,24,26,28,30,32,34,36,38,40,42,44,46,48,50,52,54,56,58,60,62,-1,64,66,68,70,72,74,76,78,80,82,84,86,88,90,92,94,96,98,100,102,104,106,108,110,112,114,116,-1,118,-1,120,-1,-1,-1,-1,-1,-1,-1,-1,-1,-1,-1,-1,-1,-1,-1,-1,-1,-1,-1,-1,-1,-1,-1,-1,-1,-1,-1,-1,-1,-1,-1,-1,-1,-1,-1,-1,-1,-1,-1,-1,-1,-1,-1,-1,-1,-1,-1,-1,-1,-1,-1,-1,-1,-1,-1,-1,-1,-1],"split_conditions":[4.5E1,2.9666666E1,6.5333336E1,2.1333334E1,4E1,5.4666668E1,1.02666664E2,1.6E1,2.7E1,3.6E1,3.8666668E1,5.2E1,6E1,7.4666664E1,9.9E1,1.3666667E1,2E1,2.5333334E1,2.5666666E1,2.7E1,3.9666668E1,3.5E1,5.3E1,3.5E1,6.4E1,4.6E1,6.8E1,6.5E1,7.1E1,1.0495713E1,2.4E1,-8.350845E0,1E1,1.9E1,2.4E1,1.9E1,3.1E1,3.3E1,3.6E1,3.1E1,3.4E1,3E1,3.1E1,4.9E1,3.8E1,4.6E1,3.9E1,4.2E1,5E1,4.9333332E1,4.5E1,4.7E1,6.1E1,6.1E1,6.7E1,6.6E1,8.9E1,5.3E1,1.14E2,1.9784083E0,1.3957082E1,1.3609516E1,1.77E2,-5.027208E0,-7.461254E0,-6.040566E0,-4.81442E0,-6.447672E0,-7.416436E0,-2.892095E0,-4.5955067E0,-1.4426013E0,-3.7411249E0,-5.948717E0,-7.072084E0,-4.192395E0,-6.018459E0,2.0743685E0,-2.1057239E-1,-1.2228916E0,-3.2937233E0,2.282501E0,-2.8478581E-2,4.583637E0,2.0076718E0,-4.4918175E0,-6.219943E0,-2.518352E0,-5.0083547E0,3.736269E-1,-2.1979554E0,-2.3028164E0,-4.7663965E0,1.1067626E1,6.958419E0,2.7820427E0,5.0074244E0,-2.714533E-1,2.3563793E0,-4.7424415E-1,-3.0714548E0,1.8188976E1,9.381706E0,5.7598953E0,8.64483E0,3.647071E0,6.338443E0,2.8038352E0,-1.0850064E0,1.4844809E1,1.056365E1,7.2160134E0,9.8457E-1,2.1564798E1,1.5446462E1,1.1698486E1,3.8622205E0,1.9205845E1,3.3476963E1,2.2996223E1,3.0378778E0],"split_indices":[4,4,4,4,2,4,4,4,2,4,4,2,2,4,2,4,2,4,4,2,4,4,2,2,2,2,2,2,2,7,9,0,2,4,2,2,1,2,2,1,1,2,2,2,1,1,1,1,4,4,1,1,4,4,1,1,2,2,2,0,5,0,1,0,0,0,0,0,0,0,0,0,0,0,0,0,0,0,0,0,0,0,0,0,0,0,0,0,0,0,0,0,0,0,0,0,0,0,0,0,0,0,0,0,0,0,0,0,0,0,0,0,0,0,0,0,0,0,0,0,0],"split_type":[0,0,0,0,0,0,0,0,0,0,0,0,0,0,0,0,0,0,0,0,0,0,0,0,0,0,0,0,0,0,0,0,0,0,0,0,0,0,0,0,0,0,0,0,0,0,0,0,0,0,0,0,0,0,0,0,0,0,0,0,0,0,0,0,0,0,0,0,0,0,0,0,0,0,0,0,0,0,0,0,0,0,0,0,0,0,0,0,0,0,0,0,0,0,0,0,0,0,0,0,0,0,0,0,0,0,0,0,0,0,0,0,0,0,0,0,0,0,0,0,0],"sum_hessian":[2.6818E4,1.772E4,9.098E3,7.816E3,9.904E3,7.314E3,1.784E3,2.887E3,4.929E3,6.034E3,3.87E3,4.665E3,2.649E3,1.678E3,1.06E2,8.98E2,1.989E3,2.828E3,2.101E3,3.231E3,2.803E3,1.665E3,2.205E3,2.897E3,1.768E3,1.514E3,1.135E3,9.29E2,7.49E2,2.8E1,7.8E1,3.98E2,5E2,1.187E3,8.02E2,1.536E3,1.292E3,7.45E2,1.356E3,1.119E3,2.112E3,1.452E3,1.351E3,7.59E2,9.06E2,1.678E3,5.27E2,3.78E2,2.519E3,1.336E3,4.32E2,3.05E2,1.209E3,6.52E2,4.83E2,3.85E2,5.44E2,2.01E2,5.48E2,1E0,2.7E1,1.5E1,6.3E1,3.3E1,4.67E2,6.65E2,5.22E2,4.35E2,3.67E2,5.44E2,9.92E2,9.32E2,3.6E2,4.43E2,3.02E2,8.78E2,4.78E2,3.49E2,7.7E2,1.174E3,9.38E2,4.64E2,9.88E2,3.66E2,9.85E2,5.43E2,2.16E2,6.33E2,2.73E2,1.227E3,4.51E2,2.8E2,2.47E2,4E1,3.38E2,1.626E3,8.93E2,5.21E2,8.15E2,1.94E2,2.38E2,1.9E1,2.86E2,9.55E2,2.54E2,4.05E2,2.47E2,3.87E2,9.6E1,8.7E1,2.98E2,4.93E2,5.1E1,4.2E1,1.59E2,5.04E2,4.4E1,6E0,2.1E1,6.1E1,2E0],"tree_param":{"num_deleted":"0","num_feature":"12","num_nodes":"121","size_leaf_vector":"1"}},{"base_weights":[5.8214474E-3,-7.092413E0,1.1092194E1,-1.2800014E1,-3.50157E0,7.55361E0,2.5065609E1,-1.6181608E1,-1.086497E1,-2.244156E-1,-6.343436E0,4.626077E0,1.1249834E1,2.1798004E1,4.3259644E1,-1.925404E1,-1.5291262E1,-7.955313E0,-1.3421149E1,-3.8442779E0,4.2377048E0,-1.1191376E1,-4.059615E0,8.930268E0,-1.3685556E-1,1.5683368E1,7.3453064E0,3.4251827E1,1.9863096E1,3.671855E1,5.5998665E1,-6.5243645E0,-1.8557232E1,-1.3841192E1,-1.7146114E1,-1.0161548E1,-5.582566E0,-1.2094511E1,-1.530025E1,2.8124356E-1,-5.607614E0,7.521765E0,1.6567578E0,-9.187921E0,-1.3579694E1,-2.0794601E0,-9.548363E0,1.5925679E1,7.658363E0,1.3134905E0,-1.0042799E1,2.2815994E1,1.3932545E1,8.457558E0,-3.664165E0,5.9975655E1,3.15113E1,1.613688E1,2.4689922E1,3.8562035E1,-9.753023E-1,7.153095E1,4.9018154E1,-5.2268186E0,-6.054745E0,-4.63292E0,-3.6749613E0,-5.625107E0,-4.804985E0,-2.490939E0,-4.4145656E0,-4.4280833E-1,-2.5709646E0,-3.1584957E0,-4.4649906E0,-4.409154E0,-5.4090424E0,2.3330061E0,-2.9676354E-1,-4.7571492E-1,-2.20421E0,4.7245073E0,1.8976465E0,-4.001875E-1,1.57917E0,-2.2212503E0,-4.0207543E0,-4.7485695E0,-3.2386312E0,-5.711457E-2,-2.0720558E0,-2.3258557E0,-4.2867208E0,7.4857683E0,4.1116962E0,2.702423E0,2.8029925E-1,8.10183E-1,-3.0059345E0,-4.3881054E0,-1.9281791E0,1.0016635E1,5.9671226E0,4.422673E0,1.9962494E-1,3.0055773E0,3.0616235E-2,1.2801316E-1,-3.0471663E0,1.3234024E1,2.339589E1,8.146222E0,1.2063456E1,5.4984035E0,1.2925471E0,8.148665E0,2.423606E0,1.2147547E1,4.879242E0,2.781792E0,-3.3182082E0,6.1404147E0,2.230402E1,9.542364E0,1.5701332E1],"categories":[],"categories_nodes":[],"categories_segments":[],"categories_sizes":[],"default_left":[0,0,0,0,0,0,0,0,0,0,0,0,0,0,0,0,0,0,0,0,0,0,0,0,0,0,0,0,0,0,0,0,0,0,0,0,0,0,0,0,0,0,0,0,0,0,0,0,0,0,0,0,0,0,0,0,0,0,0,0,0,0,0,0,0,0,0,0,0,0,0,0,0,0,0,0,0,0,0,0,0,0,0,0,0,0,0,0,0,0,0,0,0,0,0,0,0,0,0,0,0,0,0,0,0,0,0,0,0,0,0,0,0,0,0,0,0,0,0,0,0,0,0,0,0],"id":1,"left_children":[1,3,5,7,9,11,13,15,17,19,21,23,25,27,29,31,33,35,37,39,41,43,45,47,49,51,53,55,57,59,61,-1,63,65,67,69,71,73,75,77,79,81,83,85,87,89,91,93,95,97,99,101,103,105,107,109,111,113,115,117,119,121,123,-1,-1,-1,-1,-1,-1,-1,-1,-1,-1,-1,-1,-1,-1,-1,-1,-1,-1,-1,-1,-1,-1,-1,-1,-1,-1,-1,-1,-1,-1,-1,-1,-1,-1,-1,-1,-1,-1,-1,-1,-1,-1,-1,-1,-1,-1,-1,-1,-1,-1,-1,-1,-1,-1,-1,-1,-1,-1,-1,-1,-1,-1],"loss_changes":[2.110564E6,3.3507056E5,5.1746188E5,4.114E4,9.3484805E4,9.035591E4,1.2479575E5,5.9863125E3,2.9784969E4,7.533429E4,5.947672E4,9.56159E4,6.37965E4,4.257375E4,2.4691812E4,4.86125E2,4.56375E3,9.795242E3,5.1447188E3,1.8733879E4,1.7693867E4,8.1100312E3,3.971564E4,2.1676922E4,3.18362E4,2.1261312E4,2.4093008E4,1.5029344E4,2.75875E4,1.4977531E4,8.095E3,0E0,3.9882812E2,2.3777656E3,1.1112188E3,8.120414E3,1.1138531E4,5.3379844E3,1.1854375E3,7.3591606E3,1.2611133E4,8.944527E3,1.2639695E4,6.9599766E3,4.7318438E3,2.4511422E4,8.137336E3,7.193008E3,1.8823273E4,3.041498E4,4.596541E3,9.821703E3,1.4922094E4,2.3281125E4,4.8121074E3,2.8449219E3,7.210125E3,2.275436E4,2.7542469E4,8.1626562E3,1.2394614E3,2.9355156E3,2.734375E3,0E0,0E0,0E0,0E0,0E0,0E0,0E0,0E0,0E0,0E0,0E0,0E0,0E0,0E0,0E0,0E0,0E0,0E0,0E0,0E0,0E0,0E0,0E0,0E0,0E0,0E0,0E0,0E0,0E0,0E0,0E0,0E0,0E0,0E0,0E0,0E0,0E0,0E0,0E0,0E0,0E0,0E0,0E0,0E0,0E0,0E0,0E0,0E0,0E0,0E0,0E0,0E0,0E0,0E0,0E0,0E0,0E0,0E0,0E0,0E0,0E0,0E0],"parents":[2147483647,0,0,1,1,2,2,3,3,4,4,5,5,6,6,7,7,8,8,9,9,10,10,11,11,12,12,13,13,14,14,15,15,16,16,17,17,18,18,19,19,20,20,21,21,22,22,23,23,24,24,25,25,26,26,27,27,28,28,29,29,30,30,32,32,33,33,34,34,35,35,36,36,37,37,38,38,39,39,40,40,41,41,42,42,43,43,44,44,45,45,46,46,47,47,48,48,49,49,50,50,51,51,52,52,53,53,54,54,55,55,56,56,57,57,58,58,59,59,60,60,61,61,62,62],"right_children":[2,4,6,8,10,12,14,16,18,20,22,24,26,28,30,32,34,36,38,40,42,44,46,48,50,52,54,56,58,60,62,-1,64,66,68,70,72,74,76,78,80,82,84,86,88,90,92,94,96,98,100,102,104,106,108,110,112,114,116,118,120,122,124,-1,-1,-1,-1,-1,-1,-1,-1,-1,-1,-1,-1,-1,-1,-1,-1,-1,-1,-1,-1,-1,-1,-1,-1,-1,-1,-1,-1,-1,-1,-1,-1,-1,-1,-1,-1,-1,-1,-1,-1,-1,-1,-1,-1,-1,-1,-1,-1,-1,-1,-1,-1,-1,-1,-1,-1,-1,-1,-1,-1,-1,-1],"split_conditions":[4.2666668E1,2.7333334E1,6.3333332E1,2E1,3.4E1,5.1333332E1,8.7E1,1.4333333E1,2.3E1,3.3333332E1,3.4333332E1,4.7E1,5.5E1,5.5E1,1.02666664E2,1.1E1,1.8E1,2.3333334E1,3E1,2.8E1,3.8E1,2.9E1,4.8E1,3.3E1,5.5E1,4.2E1,7.6E1,5.7E1,7.2E1,1.35E2,1.01E2,-6.5243645E0,1.4E1,1.7E1,1.8E1,2.4E1,2.5E1,2.5E1,2.5E1,2E1,2.3E1,2.2E1,3.8333332E1,4.6E1,3.2666668E1,4.3E1,5.7E1,4.3E1,5.4E1,6.7E1,4.8333332E1,5.3E1,7.1E1,6.6E1,5.5E1,6.7666664E1,6.9666664E1,7.7E1,9.4E1,1.17E2,7E-1,1.0495713E1,2.2E1,-5.2268186E0,-6.054745E0,-4.63292E0,-3.6749613E0,-5.625107E0,-4.804985E0,-2.490939E0,-4.4145656E0,-4.4280833E-1,-2.5709646E0,-3.1584957E0,-4.4649906E0,-4.409154E0,-5.4090424E0,2.3330061E0,-2.9676354E-1,-4.7571492E-1,-2.20421E0,4.7245073E0,1.8976465E0,-4.001875E-1,1.57917E0,-2.2212503E0,-4.0207543E0,-4.7485695E0,-3.2386312E0,-5.711457E-2,-2.0720558E0,-2.3258557E0,-4.2867208E0,7.4857683E0,4.1116962E0,2.702423E0,2.8029925E-1,8.10183E-1,-3.0059345E0,-4.3881054E0,-1.9281791E0,1.0016635E1,5.9671226E0,4.422673E0,1.9962494E-1,3.0055773E0,3.0616235E-2,1.2801316E-1,-3.0471663E0,1.3234024E1,2.339589E1,8.146222E0,1.2063456E1,5.4984035E0,1.2925471E0,8.148665E0,2.423606E0,1.2147547E1,4.879242E0,2.781792E0,-3.3182082E0,6.1404147E0,2.230402E1,9.542364E0,1.5701332E1],"split_indices":[4,4,4,4,2,4,4,4,2,4,4,2,2,2,4,4,2,4,2,1,1,1,2,2,1,2,2,1,4,2,2,0,2,4,4,1,1,1,1,2,2,2,4,2,4,1,2,1,1,2,4,1,1,1,1,4,4,1,2,1,6,7,9,0,0,0,0,0,0,0,0,0,0,0,0,0,0,0,0,0,0,0,0,0,0,0,0,0,0,0,0,0,0,0,0,0,0,0,0,0,0,0,0,0,0,0,0,0,0,0,0,0,0,0,0,0,0,0,0,0,0,0,0,0,0],"split_type":[0,0,0,0,0,0,0,0,0,0,0,0,0,0,0,0,0,0,0,0,0,0,0,0,0,0,0,0,0,0,0,0,0,0,0,0,0,0,0,0,0,0,0,0,0,0,0,0,0,0,0,0,0,0,0,0,0,0,0,0,0,0,0,0,0,0,0,0,0,0,0,0,0,0,0,0,0,0,0,0,0,0,0,0,0,0,0,0,0,0,0,0,0,0,0,0,0,0,0,0,0,0,0,0,0,0,0,0,0,0,0,0,0,0,0,0,0,0,0,0,0,0,0,0,0],"sum_hessian":[2.6818E4,1.635E4,1.0468E4,6.313E3,1.0037E4,8.354E3,2.114E3,2.295E3,4.018E3,4.662E3,5.375E3,4.663E3,3.691E3,1.794E3,3.2E2,5.11E2,1.784E3,1.881E3,2.137E3,2.574E3,2.088E3,1.72E3,3.655E3,2.449E3,2.214E3,1.727E3,1.964E3,2.39E2,1.555E3,2.14E2,1.06E2,1.05E2,4.06E2,1.006E3,7.78E2,9.73E2,9.08E2,1.257E3,8.8E2,7.71E2,1.803E3,9.18E2,1.17E3,9.38E2,7.82E2,2.687E3,9.68E2,3.75E2,2.074E3,1.932E3,2.82E2,3.38E2,1.389E3,1.784E3,1.8E2,2.1E1,2.18E2,8.8E2,6.75E2,2.04E2,1E1,3E1,7.6E1,2.46E2,1.6E2,4.97E2,5.09E2,3.15E2,4.63E2,6.93E2,2.8E2,3.83E2,5.25E2,8.08E2,4.49E2,7.26E2,1.54E2,1.11E2,6.6E2,5.45E2,1.258E3,1.15E2,8.03E2,6.4E2,5.3E2,6.61E2,2.77E2,4.3E2,3.52E2,1.932E3,7.55E2,7.04E2,2.64E2,7.2E1,3.03E2,1.727E3,3.47E2,1.722E3,2.1E2,1.23E2,1.59E2,7.1E1,2.67E2,1.309E3,8E1,1.503E3,2.81E2,1.11E2,6.9E1,1.3E1,8E0,1.48E2,7E1,7.42E2,1.38E2,5.87E2,8.8E1,1.87E2,1.7E1,5E0,5E0,2E0,2.8E1,1.4E1,6.2E1],"tree_param":{"num_deleted":"0","num_feature":"12","num_nodes":"125","size_leaf_vector":"1"}},{"base_weights":[7.4848616E-3,-4.107344E0,9.797116E0,-7.8299184E0,-4.6699405E-1,7.5027876E0,2.0532555E1,-1.0137173E1,-5.8347845E0,1.6969206E0,-3.7621953E0,5.532503E0,1.1162791E1,1.7984728E1,3.415518E1,-1.210974E1,-9.097273E0,-3.6851351E0,-8.923046E0,-2.0698218E-1,4.942855E0,-6.788554E0,-1.4451712E0,7.9297495E0,-1.829817E-1,1.3730219E1,5.0072494E0,2.4015493E1,1.2902896E1,5.1114326E1,3.1297659E1,-1.4149112E1,-1.1586316E1,-5.5946207E0,-1.0126981E1,-4.801658E-2,-4.7660313E0,-8.150551E0,-1.2715081E1,1.1018867E0,-5.5520034E0,6.628509E0,-4.0031493E-1,-4.6971602E0,-1.0525868E1,3.069615E-1,-7.622641E0,8.834477E0,-1.0575411E0,1.2281337E0,-9.805476E0,1.4578834E1,7.364078E-1,6.6865444E0,-4.172607E0,3.76554E1,2.1861128E1,9.432682E0,1.8753878E1,6.561313E1,2.9857615E1,2.5547361E1,3.643521E1,-4.5855203E0,-4.037718E0,-2.974584E0,-3.8620286E0,-7.729371E-1,-2.2808049E0,-2.8026001E0,-3.7096686E0,1.8499423E0,-3.1765598E-1,-1.9616048E0,-7.9488224E-1,-1.9910926E0,-3.210736E0,-3.4787261E0,-4.71727E0,1.1747206E0,-3.135752E-1,-3.0090252E-1,-2.283542E0,3.5575926E0,1.6451944E0,1.574537E-1,-3.9071784E0,-1.0686897E0,-3.4860847E0,-4.398205E0,-2.8099377E0,4.339842E-1,-2.1782699E0,-1.5436146E0,-3.4091609E0,4.4925165E0,2.185196E0,1.3194157E0,-1.1074977E0,7.392925E-1,-1.3743616E0,-1.9276472E0,-3.848191E0,6.1368465E0,3.726964E0,1.2763435E0,-1.9605793E0,2.3916094E0,-1.8083043E0,1.3223803E-1,-2.898061E0,1.6644728E1,9.71872E0,5.7968225E0,8.865519E0,3.137614E0,-4.380052E0,6.907175E0,2.8579824E0,7.019077E0,2.0904648E1,5.776748E0,1.22352085E1,9.340095E0,4.1776743E0,1.108812E1,-2.1762247E0],"categories":[],"categories_nodes":[],"categories_segments":[],"categories_sizes":[],"default_left":[0,0,0,0,0,0,0,0,0,0,0,0,0,0,0,0,0,0,0,0,0,0,0,0,0,0,0,0,0,0,0,0,0,0,0,0,0,0,0,0,0,0,0,0,0,0,0,0,0,0,0,0,0,0,0,0,0,0,0,0,0,0,0,0,0,0,0,0,0,0,0,0,0,0,0,0,0,0,0,0,0,0,0,0,0,0,0,0,0,0,0,0,0,0,0,0,0,0,0,0,0,0,0,0,0,0,0,0,0,0,0,0,0,0,0,0,0,0,0,0,0,0,0,0,0,0,0],"id":2,"left_children":[1,3,5,7,9,11,13,15,17,19,21,23,25,27,29,31,33,35,37,39,41,43,45,47,49,51,53,55,57,59,61,63,65,67,69,71,73,75,77,79,81,83,85,87,89,91,93,95,97,99,101,103,105,107,109,111,113,115,117,119,121,123,125,-1,-1,-1,-1,-1,-1,-1,-1,-1,-1,-1,-1,-1,-1,-1,-1,-1,-1,-1,-1,-1,-1,-1,-1,-1,-1,-1,-1,-1,-1,-1,-1,-1,-1,-1,-1,-1,-1,-1,-1,-1,-1,-1,-1,-1,-1,-1,-1,-1,-1,-1,-1,-1,-1,-1,-1,-1,-1,-1,-1,-1,-1,-1,-1],"loss_changes":[1.0803809E6,2.5588878E5,1.9533919E5,4.2917125E4,6.808873E4,4.7107E4,4.7873E4,8.76775E3,3.3220266E4,3.562222E4,2.6531164E4,5.828732E4,3.6090625E4,3.5823344E4,9.01325E3,1.4276562E3,1.0179172E4,1.1616898E4,5.916125E3,2.5429334E4,1.9196008E4,1.27769375E4,2.3219277E4,2.4378125E4,1.7093732E4,1.7786375E4,1.0433492E4,1.4986125E4,1.2858375E4,7.2868516E3,4.6822344E3,2.9433594E1,2.436125E3,3.9016582E3,3.7363594E3,4.265614E3,8.529004E3,6.533836E3,9.830781E2,1.7645914E4,6.6919395E3,9.632344E3,5.986417E3,8.239654E3,2.6815195E3,1.4431053E4,4.3345566E3,2.581636E4,3.9681719E3,7.89642E3,1.5619883E3,1.8939812E4,2.586029E3,9.380451E3,2.6624883E3,4.953633E3,8.545625E3,1.0139367E4,9.158055E3,1.2898906E3,8.364238E2,5.604246E3,2.5167344E3,0E0,0E0,0E0,0E0,0E0,0E0,0E0,0E0,0E0,0E0,0E0,0E0,0E0,0E0,0E0,0E0,0E0,0E0,0E0,0E0,0E0,0E0,0E0,0E0,0E0,0E0,0E0,0E0,0E0,0E0,0E0,0E0,0E0,0E0,0E0,0E0,0E0,0E0,0E0,0E0,0E0,0E0,0E0,0E0,0E0,0E0,0E0,0E0,0E0,0E0,0E0,0E0,0E0,0E0,0E0,0E0,0E0,0E0,0E0,0E0,0E0,0E0,0E0,0E0],"parents":[2147483647,0,0,1,1,2,2,3,3,4,4,5,5,6,6,7,7,8,8,9,9,10,10,11,11,12,12,13,13,14,14,15,15,16,16,17,17,18,18,19,19,20,20,21,21,22,22,23,23,24,24,25,25,26,26,27,27,28,28,29,29,30,30,31,31,32,32,33,33,34,34,35,35,36,36,37,37,38,38,39,39,40,40,41,41,42,42,43,43,44,44,45,45,46,46,47,47,48,48,49,49,50,50,51,51,52,52,53,53,54,54,55,55,56,56,57,57,58,58,59,59,60,60,61,61,62,62],"right_children":[2,4,6,8,10,12,14,16,18,20,22,24,26,28,30,32,34,36,38,40,42,44,46,48,50,52,54,56,58,60,62,64,66,68,70,72,74,76,78,80,82,84,86,88,90,92,94,96,98,100,102,104,106,108,110,112,114,116,118,120,122,124,126,-1,-1,-1,-1,-1,-1,-1,-1,-1,-1,-1,-1,-1,-1,-1,-1,-1,-1,-1,-1,-1,-1,-1,-1,-1,-1,-1,-1,-1,-1,-1,-1,-1,-1,-1,-1,-1,-1,-1,-1,-1,-1,-1,-1,-1,-1,-1,-1,-1,-1,-1,-1,-1,-1,-1,-1,-1,-1,-1,-1,-1,-1,-1,-1],"split_conditions":[4.7E1,3.2E1,6.8333336E1,2.4E1,4.2E1,5.7E1,9.1333336E1,1.8E1,3E1,3.9333332E1,4.0666668E1,5.6E1,6.6E1,7.3E1,7.5E1,1.3E1,1.7E1,2.4E1,3.2E1,4.2E1,4.9E1,3.7E1,4.9E1,6.3E1,6.1E1,7.7E1,8.3E1,6.7E1,8.1E1,1.2E2,1.02666664E2,1.1E1,1.5E1,2E1,2.7E1,1.7E1,2.8333334E1,3.9E1,3.8E1,3.1E1,2.8E1,3.8E1,6.2E1,5.9E1,3.6666668E1,6E1,5E1,4.1E1,4E1,7.1E1,6.2E1,5.2E1,8.6E1,7.5E1,5.8E1,5E1,7.8666664E1,9.4E1,9.5E1,4.6945834E0,1.02666664E2,1.06E2,2.61E2,-4.5855203E0,-4.037718E0,-2.974584E0,-3.8620286E0,-7.729371E-1,-2.2808049E0,-2.8026001E0,-3.7096686E0,1.8499423E0,-3.1765598E-1,-1.9616048E0,-7.9488224E-1,-1.9910926E0,-3.210736E0,-3.4787261E0,-4.71727E0,1.1747206E0,-3.135752E-1,-3.0090252E-1,-2.283542E0,3.5575926E0,1.6451944E0,1.574537E-1,-3.9071784E0,-1.0686897E0,-3.4860847E0,-4.398205E0,-2.8099377E0,4.339842E-1,-2.1782699E0,-1.5436146E0,-3.4091609E0,4.4925165E0,2.185196E0,1.3194157E0,-1.1074977E0,7.392925E-1,-1.3743616E0,-1.9276472E0,-3.848191E0,6.1368465E0,3.726964E0,1.2763435E0,-1.9605793E0,2.3916094E0,-1.8083043E0,1.3223803E-1,-2.898061E0,1.6644728E1,9.71872E0,5.7968225E0,8.865519E0,3.137614E0,-4.380052E0,6.907175E0,2.8579824E0,7.019077E0,2.0904648E1,5.776748E0,1.22352085E1,9.340095E0,4.1776743E0,1.108812E1,-2.1762247E0],"split_indices":[4,4,4,4,2,4,4,4,2,4,4,2,2,2,2,4,2,1,1,1,1,1,1,1,1,1,2,1,4,1,4,4,2,1,2,2,4,2,1,2,2,1,1,2,4,2,2,2,2,2,2,2,1,1,1,2,4,1,2,5,4,2,2,0,0,0,0,0,0,0,0,0,0,0,0,0,0,0,0,0,0,0,0,0,0,0,0,0,0,0,0,0,0,0,0,0,0,0,0,0,0,0,0,0,0,0,0,0,0,0,0,0,0,0,0,0,0,0,0,0,0,0,0,0,0,0,0],"split_type":[0,0,0,0,0,0,0,0,0,0,0,0,0,0,0,0,0,0,0,0,0,0,0,0,0,0,0,0,0,0,0,0,0,0,0,0,0,0,0,0,0,0,0,0,0,0,0,0,0,0,0,0,0,0,0,0,0,0,0,0,0,0,0,0,0,0,0,0,0,0,0,0,0,0,0,0,0,0,0,0,0,0,0,0,0,0,0,0,0,0,0,0,0,0,0,0,0,0,0,0,0,0,0,0,0,0,0,0,0,0,0,0,0,0,0,0,0,0,0,0,0,0,0,0,0,0,0],"sum_hessian":[2.6818E4,1.8882E4,7.936E3,9.335E3,9.547E3,6.54E3,1.396E3,4.327E3,5.008E3,5.763E3,3.784E3,4.253E3,2.287E3,1.178E3,2.18E2,1.49E3,2.837E3,2.954E3,2.054E3,3.633E3,2.13E3,1.64E3,2.144E3,2.996E3,1.257E3,1.613E3,6.74E2,5.37E2,6.41E2,2.9E1,1.89E2,2.99E2,1.191E3,6.46E2,2.191E3,6.77E2,2.277E3,1.709E3,3.45E2,2.919E3,7.14E2,1.619E3,5.11E2,1.053E3,5.87E2,1.671E3,4.73E2,2.722E3,2.74E2,1.097E3,1.6E2,1.514E3,9.9E1,5.7E2,1.04E2,7.1E1,4.66E2,4.04E2,2.37E2,1.6E1,1.3E1,9.2E1,9.7E1,1.05E2,1.94E2,5.22E2,6.69E2,2.59E2,3.87E2,1.626E3,5.65E2,9.4E1,5.83E2,1.238E3,1.039E3,1.075E3,6.34E2,2.55E2,9E1,1.263E3,1.656E3,2.23E2,4.91E2,2.89E2,1.33E3,4.77E2,3.4E1,9.06E2,1.47E2,1.26E2,4.61E2,1.453E3,2.18E2,2.86E2,1.87E2,5.47E2,2.175E3,8.9E1,1.85E2,9.05E2,1.92E2,7.7E1,8.3E1,4.04E2,1.11E3,6.7E1,3.2E1,5.18E2,5.2E1,5.7E1,4.7E1,1.4E1,5.7E1,3.53E2,1.13E2,3.88E2,1.6E1,1.61E2,7.6E1,2E0,1.4E1,8E0,5E0,6.1E1,3.1E1,9.6E1,1E0],"tree_param":{"num_deleted":"0","num_feature":"12","num_nodes":"127","size_leaf_vector":"1"}},{"base_weights":[7.7382913E-3,-3.0964973E0,6.4775124E0,-5.8639917E0,-7.9795116E-1,4.094756E0,1.2146196E1,-3.34888E0,-6.7775674E0,1.3489964E0,-2.7106607E0,6.9895444E0,2.1925E0,1.0429967E1,2.0747126E1,-5.525583E0,-2.3374343E0,-8.307289E0,-5.73154E0,-2.3687574E-1,4.07543E0,-5.3802857E0,-1.24113E0,1.4169723E1,6.09211E0,2.9522743E0,-3.61744E0,1.2208879E1,3.4610872E0,3.1257072E1,1.8382416E1,-4.6315923E0,-6.9412994E0,1.8831849E0,-3.3084404E0,-9.563242E0,-7.7884126E0,-2.3919384E0,-6.6336393E0,1.919376E0,-2.666372E0,6.059058E0,8.37059E-1,-2.8810875E0,-8.000303E0,1.4769304E0,-3.1530106E0,1.0836741E1,2.1135986E1,4.690331E0,1.0196984E1,7.1793026E-1,5.884541E0,-6.700434E0,6.600421E-2,1.2911858E1,-1.9052792E0,4.9370165E0,-7.353437E0,4.1088444E1,2.3352798E1,1.552701E1,2.5595585E1,-2.355833E0,-1.1646266E0,-1.5328606E0,-2.412809E0,1.568457E-2,1.0655447E0,-3.55687E-1,-1.3066167E0,-2.738688E0,-3.1973298E0,-2.1196053E0,-2.9253428E0,-5.516161E-1,-2.4644346E0,-1.881302E0,-3.454105E0,1.6046458E0,2.1010081E-1,-5.989847E-1,-2.5587564E0,3.6849198E0,1.5697359E0,-7.6332283E-1,8.621502E-1,-4.5648506E-1,-2.229162E0,-2.1214225E0,-3.356058E0,7.137668E-1,-1.9712957E0,-4.6031207E-1,-2.0059824E0,5.071362E0,2.78939E0,1.0605526E1,5.3642445E0,1.7044299E0,-2.1957557E-1,3.551685E0,1.1270524E0,9.44873E-1,-9.197969E-1,2.161384E0,6.502657E-1,-3.305203E0,-1.5212432E0,6.3465995E-1,-1.7407707E0,6.8375254E0,3.5483139E0,-4.5448975E-3,-5.170394E0,1.7033662E0,-4.129712E0,5.521293E-1,-3.1162367E0,7.1051235E0,1.3223695E1,5.6692524E0,1.9288553E1,5.0235777E0,-1.5000259E0,4.056537E-1,7.983851E0],"categories":[],"categories_nodes":[],"categories_segments":[],"categories_sizes":[],"default_left":[0,0,0,0,0,0,0,0,0,0,0,0,0,0,0,0,0,0,0,0,0,0,0,0,0,0,0,0,0,0,0,0,0,0,0,0,0,0,0,0,0,0,0,0,0,0,0,0,0,0,0,0,0,0,0,0,0,0,0,0,0,0,0,0,0,0,0,0,0,0,0,0,0,0,0,0,0,0,0,0,0,0,0,0,0,0,0,0,0,0,0,0,0,0,0,0,0,0,0,0,0,0,0,0,0,0,0,0,0,0,0,0,0,0,0,0,0,0,0,0,0,0,0,0,0,0,0],"id":3,"left_children":[1,3,5,7,9,11,13,15,17,19,21,23,25,27,29,31,33,35,37,39,41,43,45,47,49,51,53,55,57,59,61,63,65,67,69,71,73,75,77,79,81,83,85,87,89,91,93,95,97,99,101,103,105,107,109,111,113,115,117,119,121,123,125,-1,-1,-1,-1,-1,-1,-1,-1,-1,-1,-1,-1,-1,-1,-1,-1,-1,-1,-1,-1,-1,-1,-1,-1,-1,-1,-1,-1,-1,-1,-1,-1,-1,-1,-1,-1,-1,-1,-1,-1,-1,-1,-1,-1,-1,-1,-1,-1,-1,-1,-1,-1,-1,-1,-1,-1,-1,-1,-1,-1,-1,-1,-1,-1],"loss_changes":[5.386449E5,1.1528595E5,1.1740794E5,1.8871656E4,4.0666094E4,3.3707266E4,3.7764062E4,4.8152285E3,9.602781E3,2.01757E4,2.0538578E4,1.55590625E4,1.6330135E4,2.6574156E4,1.0037625E4,8.4746875E2,6.149503E3,1.5201875E3,1.0784484E4,1.5464243E4,1.1018039E4,1.214957E4,1.7563992E4,6.016711E3,1.2381086E4,2.1419807E4,4.860826E3,1.699111E4,7.027429E3,5.024133E3,6.831961E3,1.0052451E3,4.9757812E2,8.5829755E2,2.704038E3,2.4066016E2,2.396211E3,2.4459717E3,4.921789E3,6.5347563E3,5.43317E3,5.409797E3,4.504712E3,5.882853E3,2.6055898E3,1.015279E4,1.1337447E4,1.5608242E3,3.3475117E3,8.667047E3,5.760922E3,1.7096197E4,6.922449E3,1.5832725E3,2.369726E3,1.7179031E4,2.3756472E3,5.4266904E3,1.4975183E3,6.736719E2,6.9934453E3,6.435535E3,2.3808477E3,0E0,0E0,0E0,0E0,0E0,0E0,0E0,0E0,0E0,0E0,0E0,0E0,0E0,0E0,0E0,0E0,0E0,0E0,0E0,0E0,0E0,0E0,0E0,0E0,0E0,0E0,0E0,0E0,0E0,0E0,0E0,0E0,0E0,0E0,0E0,0E0,0E0,0E0,0E0,0E0,0E0,0E0,0E0,0E0,0E0,0E0,0E0,0E0,0E0,0E0,0E0,0E0,0E0,0E0,0E0,0E0,0E0,0E0,0E0,0E0,0E0,0E0,0E0,0E0],"parents":[2147483647,0,0,1,1,2,2,3,3,4,4,5,5,6,6,7,7,8,8,9,9,10,10,11,11,12,12,13,13,14,14,15,15,16,16,17,17,18,18,19,19,20,20,21,21,22,22,23,23,24,24,25,25,26,26,27,27,28,28,29,29,30,30,31,31,32,32,33,33,34,34,35,35,36,36,37,37,38,38,39,39,40,40,41,41,42,42,43,43,44,44,45,45,46,46,47,47,48,48,49,49,50,50,51,51,52,52,53,53,54,54,55,55,56,56,57,57,58,58,59,59,60,60,61,61,62,62],"right_children":[2,4,6,8,10,12,14,16,18,20,22,24,26,28,30,32,34,36,38,40,42,44,46,48,50,52,54,56,58,60,62,64,66,68,70,72,74,76,78,80,82,84,86,88,90,92,94,96,98,100,102,104,106,108,110,112,114,116,118,120,122,124,126,-1,-1,-1,-1,-1,-1,-1,-1,-1,-1,-1,-1,-1,-1,-1,-1,-1,-1,-1,-1,-1,-1,-1,-1,-1,-1,-1,-1,-1,-1,-1,-1,-1,-1,-1,-1,-1,-1,-1,-1,-1,-1,-1,-1,-1,-1,-1,-1,-1,-1,-1,-1,-1,-1,-1,-1,-1,-1,-1,-1,-1,-1,-1,-1],"split_conditions":[4.5666668E1,3.0333334E1,6.1E1,1.405845E1,3.7E1,4.9E1,8.3666664E1,2.2333334E1,2.1666666E1,3.7333332E1,3.7666668E1,4.4E1,6.4E1,7.8E1,7.5E1,1.8E1,1.8E1,1.5666667E1,2.1E1,3.5E1,4.5E1,3.2E1,4E1,4.8666668E1,5.3E1,5.3666668E1,5.8E1,9.2E1,1.03E2,9.6E1,1.02666664E2,1.5E1,1.6E1,2.5666666E1,2.2E1,1.5E1,2.1E1,3.5E1,3.5E1,2.5E1,4.6E1,2.5E1,4.1E1,5.2E1,4.6E1,6.2E1,4.8E1,3.8E1,3.6E1,5.8E1,6.6E1,5.1E1,6.4E1,5.3333332E1,6.6E1,5E1,1.29E2,9.4E1,5.4E1,8.587338E0,4.7E0,1.37E2,4.3E1,-2.355833E0,-1.1646266E0,-1.5328606E0,-2.412809E0,1.568457E-2,1.0655447E0,-3.55687E-1,-1.3066167E0,-2.738688E0,-3.1973298E0,-2.1196053E0,-2.9253428E0,-5.516161E-1,-2.4644346E0,-1.881302E0,-3.454105E0,1.6046458E0,2.1010081E-1,-5.989847E-1,-2.5587564E0,3.6849198E0,1.5697359E0,-7.6332283E-1,8.621502E-1,-4.5648506E-1,-2.229162E0,-2.1214225E0,-3.356058E0,7.137668E-1,-1.9712957E0,-4.6031207E-1,-2.0059824E0,5.071362E0,2.78939E0,1.0605526E1,5.3642445E0,1.7044299E0,-2.1957557E-1,3.551685E0,1.1270524E0,9.44873E-1,-9.197969E-1,2.161384E0,6.502657E-1,-3.305203E0,-1.5212432E0,6.3465995E-1,-1.7407707E0,6.8375254E0,3.5483139E0,-4.5448975E-3,-5.170394E0,1.7033662E0,-4.129712E0,5.521293E-1,-3.1162367E0,7.1051235E0,1.3223695E1,5.6692524E0,1.9288553E1,5.0235777E0,-1.5000259E0,4.056537E-1,7.983851E0],"split_indices":[4,4,4,7,2,2,4,4,4,4,4,1,1,2,2,1,2,4,2,1,1,1,1,4,4,4,4,1,2,1,4,4,2,4,1,1,1,1,1,2,1,2,4,2,2,2,2,1,1,1,1,1,2,4,2,2,1,1,1,7,6,2,3,0,0,0,0,0,0,0,0,0,0,0,0,0,0,0,0,0,0,0,0,0,0,0,0,0,0,0,0,0,0,0,0,0,0,0,0,0,0,0,0,0,0,0,0,0,0,0,0,0,0,0,0,0,0,0,0,0,0,0,0,0,0,0,0],"split_type":[0,0,0,0,0,0,0,0,0,0,0,0,0,0,0,0,0,0,0,0,0,0,0,0,0,0,0,0,0,0,0,0,0,0,0,0,0,0,0,0,0,0,0,0,0,0,0,0,0,0,0,0,0,0,0,0,0,0,0,0,0,0,0,0,0,0,0,0,0,0,0,0,0,0,0,0,0,0,0,0,0,0,0,0,0,0,0,0,0,0,0,0,0,0,0,0,0,0,0,0,0,0,0,0,0,0,0,0,0,0,0,0,0,0,0,0,0,0,0,0,0,0,0,0,0,0,0],"sum_hessian":[2.6818E4,1.8123E4,8.695E3,8.222E3,9.901E3,6.123E3,2.572E3,2.192E3,6.03E3,4.665E3,5.236E3,2.427E3,3.696E3,2.146E3,4.26E2,6.94E2,1.498E3,2.446E3,3.584E3,2.95E3,1.715E3,1.858E3,3.378E3,2.68E2,2.159E3,3.269E3,4.27E2,1.709E3,4.37E2,7.6E1,3.5E2,4.28E2,2.66E2,2.8E2,1.218E3,7.1E2,1.736E3,7.63E2,2.821E3,1.563E3,1.387E3,1.063E3,6.52E2,9.52E2,9.06E2,1.395E3,1.983E3,1.83E2,8.5E1,1.611E3,5.48E2,1.856E3,1.413E3,2.32E2,1.95E2,1.628E3,8.1E1,3.85E2,5.2E1,3.2E1,4.4E1,2.53E2,9.7E1,7.9E1,3.49E2,1.02E2,1.64E2,1.34E2,1.46E2,4.03E2,8.15E2,5.15E2,1.95E2,1.272E3,4.64E2,6.98E2,6.5E1,2.628E3,1.93E2,4.09E2,1.154E3,1.246E3,1.41E2,1.23E2,9.4E2,2.45E2,4.07E2,7.34E2,2.18E2,7.04E2,2.02E2,1.255E3,1.4E2,1.361E3,6.22E2,3.5E1,1.48E2,1.4E1,7.1E1,1.362E3,2.49E2,4.36E2,1.12E2,1.13E3,7.26E2,1.042E3,3.71E2,6.2E1,1.7E2,1.45E2,5E1,1.59E2,1.469E3,7.3E1,8E0,3.71E2,1.4E1,1.3E1,3.9E1,6E0,2.6E1,4.1E1,3E0,2.39E2,1.4E1,4E0,9.3E1],"tree_param":{"num_deleted":"0","num_feature":"12","num_nodes":"127","size_leaf_vector":"1"}},{"base_weights":[7.245989E-3,-2.7497768E0,3.8019993E0,-4.8598385E0,-1.591714E0,2.8458257E0,1.1340731E1,-3.5185413E0,-5.573968E0,2.3534867E-1,-3.006162E0,1.0493424E1,2.5505996E0,1.8382843E1,9.991584E0,-5.0896487E0,-2.888217E0,-5.335682E0,-8.922646E0,-7.907301E-1,3.0625834E0,-1.6723548E0,-4.3699126E0,8.363581E0,1.8041832E1,7.955258E-1,3.9627187E0,2.4173008E1,1.3267768E1,8.304744E0,1.6967741E1,-4.3419538E0,-6.919324E0,8.501311E-1,-3.4913862E0,-6.1926994E0,-4.4362183E0,-9.915083E0,-7.5805807E0,5.76167E-1,-3.3040597E0,9.258207E0,2.2150178E0,-3.717907E0,-8.7339914E-1,-4.0188947E0,-9.387442E0,1.4689767E1,6.963891E0,3.219651E1,1.5113532E1,2.1731124E0,-2.995633E0,4.5518813E0,-1.4550252E0,2.1112204E1,1.248605E1,1.1056267E1,2.6536856E1,1.0712484E1,3.8273861E0,1.866879E1,5.426425E0,-2.0638397E0,-1.1330509E0,-1.5844486E0,-2.3180146E0,1.3776264E0,-1.2092747E-1,-7.147002E-1,-1.5203731E0,-1.7484428E0,-2.4742877E0,-8.407803E-1,-1.7636527E0,-3.0550008E0,-3.0334628E-1,-6.9753546E-1,-2.451254E0,1.306463E0,-4.7466033E-3,-6.9844294E-1,-1.7722183E0,3.6254184E0,2.351051E0,1.30585E0,-9.833468E-2,-4.5918357E-1,-1.7037704E0,4.918525E-1,-6.5689725E-1,-1.6202636E0,-6.95756E-1,-2.273597E0,-3.6925097E0,5.1079626E0,3.3009343E0,2.4313889E0,7.286616E-2,1.0900997E1,4.1391063E0,5.1875067E0,1.5964104E0,1.3725568E0,1.4644751E-1,-6.501421E-1,-2.907556E0,1.0198497E0,2.1491182E0,-1.7599444E0,6.3522324E-2,1.0589931E1,5.730417E0,3.7867365E0,-3.1979716E0,1.0462285E1,4.464697E0,2.5180235E0,4.5991316E0,1.3792868E0,-3.7202687E0,7.5159955E0,4.8672705E0,-1.4557277E0,6.525915E0],"categories":[],"categories_nodes":[],"categories_segments":[],"categories_sizes":[],"default_left":[0,0,0,0,0,0,0,0,0,0,0,0,0,0,0,0,0,0,0,0,0,0,0,0,0,0,0,0,0,0,0,0,0,0,0,0,0,0,0,0,0,0,0,0,0,0,0,0,0,0,0,0,0,0,0,0,0,0,0,0,0,0,0,0,0,0,0,0,0,0,0,0,0,0,0,0,0,0,0,0,0,0,0,0,0,0,0,0,0,0,0,0,0,0,0,0,0,0,0,0,0,0,0,0,0,0,0,0,0,0,0,0,0,0,0,0,0,0,0,0,0,0,0,0,0],"id":4,"left_children":[1,3,5,7,9,11,13,15,17,19,21,23,25,27,29,31,33,35,37,39,41,43,45,47,49,51,53,55,57,59,61,63,65,67,69,71,73,75,77,79,81,83,85,87,89,91,93,95,97,99,101,103,105,107,109,111,-1,113,115,117,119,121,123,-1,-1,-1,-1,-1,-1,-1,-1,-1,-1,-1,-1,-1,-1,-1,-1,-1,-1,-1,-1,-1,-1,-1,-1,-1,-1,-1,-1,-1,-1,-1,-1,-1,-1,-1,-1,-1,-1,-1,-1,-1,-1,-1,-1,-1,-1,-1,-1,-1,-1,-1,-1,-1,-1,-1,-1,-1,-1,-1,-1,-1,-1],"loss_changes":[2.805968E5,3.79509E4,8.1321E4,5.252453E3,2.592367E4,2.2589336E4,1.1882406E4,1.8817383E3,2.817E3,1.270285E4,1.0277207E4,5.8297188E3,2.3903234E4,5.6915547E3,1.2426953E4,7.1827344E2,3.0898662E3,2.5579766E3,2.4050195E2,1.1040046E4,6.1023896E3,4.670866E3,4.8849414E3,2.4832754E3,2.8707773E3,2.2474348E4,1.70675E4,4.141125E3,2.9345078E3,9.251625E3,3.9625977E3,5.347085E2,1.668042E2,8.975465E2,2.0493467E3,1.2367109E3,3.848504E3,3.0737402E2,3.067246E2,4.657408E3,2.862249E3,4.6774902E2,5.584237E3,3.4361787E3,6.8107036E3,6.1276797E3,8.6828516E2,2.6062793E2,1.8457568E3,4.8895605E2,1.3796758E3,1.2771323E4,6.342287E3,1.4486109E4,3.8614966E3,1.6650703E3,0E0,3.399669E3,9.385215E2,5.8685703E3,3.844397E3,2.4028516E3,4.804486E3,0E0,0E0,0E0,0E0,0E0,0E0,0E0,0E0,0E0,0E0,0E0,0E0,0E0,0E0,0E0,0E0,0E0,0E0,0E0,0E0,0E0,0E0,0E0,0E0,0E0,0E0,0E0,0E0,0E0,0E0,0E0,0E0,0E0,0E0,0E0,0E0,0E0,0E0,0E0,0E0,0E0,0E0,0E0,0E0,0E0,0E0,0E0,0E0,0E0,0E0,0E0,0E0,0E0,0E0,0E0,0E0,0E0,0E0,0E0,0E0,0E0,0E0],"parents":[2147483647,0,0,1,1,2,2,3,3,4,4,5,5,6,6,7,7,8,8,9,9,10,10,11,11,12,12,13,13,14,14,15,15,16,16,17,17,18,18,19,19,20,20,21,21,22,22,23,23,24,24,25,25,26,26,27,27,28,28,29,29,30,30,31,31,32,32,33,33,34,34,35,35,36,36,37,37,38,38,39,39,40,40,41,41,42,42,43,43,44,44,45,45,46,46,47,47,48,48,49,49,50,50,51,51,52,52,53,53,54,54,55,55,57,57,58,58,59,59,60,60,61,61,62,62],"right_children":[2,4,6,8,10,12,14,16,18,20,22,24,26,28,30,32,34,36,38,40,42,44,46,48,50,52,54,56,58,60,62,64,66,68,70,72,74,76,78,80,82,84,86,88,90,92,94,96,98,100,102,104,106,108,110,112,-1,114,116,118,120,122,124,-1,-1,-1,-1,-1,-1,-1,-1,-1,-1,-1,-1,-1,-1,-1,-1,-1,-1,-1,-1,-1,-1,-1,-1,-1,-1,-1,-1,-1,-1,-1,-1,-1,-1,-1,-1,-1,-1,-1,-1,-1,-1,-1,-1,-1,-1,-1,-1,-1,-1,-1,-1,-1,-1,-1,-1,-1,-1,-1,-1,-1,-1],"split_conditions":[4.1333332E1,2.6E1,6.9666664E1,1.629174E1,3.2E1,3E1,6.2E1,1.9333334E1,2.9E1,3.4666668E1,1.687398E1,4.9666668E1,4.9333332E1,7.8E1,9.1333336E1,1.7E1,1.5E1,2.0333334E1,2.4666666E1,3.3E1,2.1E1,3.3E1,4.8E1,2.1E1,4.7E1,5E1,7.1E1,7.8666664E1,8.7E1,8.4E1,1.35E2,1.3E1,1.4E1,1.9E1,2.2E1,2.3E1,2.4E1,3.1E1,1.8E1,1.9E1,3.9E1,1.7E1,4E1,2.5E1,3.3E1,3.5333332E1,5.2E1,5.1E1,5.6E1,2.8E1,7.3E1,4.4E1,5.7E1,5.8666668E1,5.9666668E1,4.3E1,1.248605E1,1.29E2,2.0592503E1,7.8666664E1,1.03E2,9.6E1,2.8954916E1,-2.0638397E0,-1.1330509E0,-1.5844486E0,-2.3180146E0,1.3776264E0,-1.2092747E-1,-7.147002E-1,-1.5203731E0,-1.7484428E0,-2.4742877E0,-8.407803E-1,-1.7636527E0,-3.0550008E0,-3.0334628E-1,-6.9753546E-1,-2.451254E0,1.306463E0,-4.7466033E-3,-6.9844294E-1,-1.7722183E0,3.6254184E0,2.351051E0,1.30585E0,-9.833468E-2,-4.5918357E-1,-1.7037704E0,4.918525E-1,-6.5689725E-1,-1.6202636E0,-6.95756E-1,-2.273597E0,-3.6925097E0,5.1079626E0,3.3009343E0,2.4313889E0,7.286616E-2,1.0900997E1,4.1391063E0,5.1875067E0,1.5964104E0,1.3725568E0,1.4644751E-1,-6.501421E-1,-2.907556E0,1.0198497E0,2.1491182E0,-1.7599444E0,6.3522324E-2,1.0589931E1,5.730417E0,3.7867365E0,-3.1979716E0,1.0462285E1,4.464697E0,2.5180235E0,4.5991316E0,1.3792868E0,-3.7202687E0,7.5159955E0,4.8672705E0,-1.4557277E0,6.525915E0],"split_indices":[4,4,4,7,2,2,2,4,1,4,7,4,4,1,4,1,2,4,4,1,2,4,1,2,1,1,1,4,4,2,2,4,2,1,1,2,2,2,2,2,1,2,1,1,1,4,1,1,1,2,1,2,2,4,4,2,0,1,7,4,1,1,5,0,0,0,0,0,0,0,0,0,0,0,0,0,0,0,0,0,0,0,0,0,0,0,0,0,0,0,0,0,0,0,0,0,0,0,0,0,0,0,0,0,0,0,0,0,0,0,0,0,0,0,0,0,0,0,0,0,0,0,0,0,0],"split_type":[0,0,0,0,0,0,0,0,0,0,0,0,0,0,0,0,0,0,0,0,0,0,0,0,0,0,0,0,0,0,0,0,0,0,0,0,0,0,0,0,0,0,0,0,0,0,0,0,0,0,0,0,0,0,0,0,0,0,0,0,0,0,0,0,0,0,0,0,0,0,0,0,0,0,0,0,0,0,0,0,0,0,0,0,0,0,0,0,0,0,0,0,0,0,0,0,0,0,0,0,0,0,0,0,0,0,0,0,0,0,0,0,0,0,0,0,0,0,0,0,0,0,0,0,0],"sum_hessian":[2.6818E4,1.5533E4,1.1285E4,5.503E3,1.003E4,1.0016E4,1.269E3,1.914E3,3.589E3,4.377E3,5.653E3,3.71E2,9.645E3,2.02E2,1.067E3,5.46E2,1.368E3,3.353E3,2.36E2,3.212E3,1.165E3,2.859E3,2.794E3,2.91E2,8E1,4.301E3,5.344E3,9.3E1,1.09E2,8.61E2,2.06E2,3.9E2,1.56E2,1.9E2,1.178E3,1.714E3,1.639E3,1.32E2,1.04E2,2.081E3,1.131E3,1.39E2,1.026E3,8.02E2,2.057E3,2.613E3,1.81E2,5.1E1,2.4E2,1.2E1,6.8E1,3.155E3,1.146E3,4.82E3,5.24E2,8.1E1,1.2E1,9.5E1,1.4E1,5.59E2,3.02E2,1.79E2,2.7E1,6.9E1,3.21E2,5.4E1,1.02E2,4.7E1,1.43E2,6.93E2,4.85E2,1.459E3,2.55E2,7.7E2,8.69E2,1.28E2,4E0,1.1E1,9.3E1,2.81E2,1.8E3,8.24E2,3.07E2,4.4E1,9.5E1,5.57E2,4.69E2,3.8E2,4.22E2,7.07E2,1.35E3,1.44E3,1.173E3,1.14E2,6.7E1,2.9E1,2.2E1,2.05E2,3.5E1,9E0,3E0,5.5E1,1.3E1,1.3E3,1.855E3,1.021E3,1.25E2,3.346E3,1.474E3,1.43E2,3.81E2,8E0,7.3E1,8.9E1,6E0,7E0,7E0,3.74E2,1.85E2,2.89E2,1.3E1,4.7E1,1.32E2,1.7E1,1E1],"tree_param":{"num_deleted":"0","num_feature":"12","num_nodes":"125","size_leaf_vector":"1"}},{"base_weights":[7.783921E-3,-1.7275013E0,3.080882E0,-2.9512413E0,-4.781683E-1,2.4022782E0,8.619896E0,-4.379433E-1,-3.2391028E0,3.547035E-1,-3.1994243E0,3.449745E0,-9.980806E-3,1.5887519E1,7.4364223E0,3.128402E-1,-1.8050742E0,-2.8016803E0,-4.442828E0,1.7970774E0,-8.257769E-1,-4.2551762E-1,-4.082083E0,2.780784E0,7.8369884E0,-2.9913812E0,1.7646683E0,1.9970203E1,9.459612E0,6.374394E0,1.5605851E1,-1.7036654E0,1.5096244E0,-3.6698434E0,-1.0228037E0,-3.8034499E0,-1.6180227E0,-3.935147E0,-6.696246E0,8.152335E-1,4.7959495E0,-3.731729E0,-7.444069E-2,6.9911444E-1,-6.4278216E0,-5.9121485E0,-2.599992E0,6.894572E0,1.9979111E0,1.5691832E1,6.2494607E0,2.076777E0,-4.3685045E0,2.5855591E0,-4.323183E0,1.6465834E1,7.709342E0,1.0479385E1,-7.1821184E0,7.0543885E0,-6.1791835E0,3.6628773E1,1.3228641E1,-1.08528584E-1,-8.17088E-1,1.0373464E0,9.240632E-2,2.3913126E-1,-1.1798116E0,7.10695E-1,-5.525027E-1,-1.0803255E0,-2.252213E0,-3.05623E-2,-9.175033E-1,-1.0146979E0,-1.9131907E0,-2.6630335E0,-1.7898993E0,1.254589E0,2.1973465E-2,2.9990895E0,1.2227452E0,-2.3818916E-1,-1.6348581E0,1.22188844E-1,-1.5135163E0,-1.444147E-1,2.472475E0,7.1069837E-1,-2.249274E0,-1.4686632E0,-2.5371907E0,-2.5597903E-1,-1.4673352E0,4.1943884E0,1.7697057E0,1.571739E0,3.912278E-1,6.9712267E0,4.145169E0,1.6033095E0,3.0657704E0,1.0404814E0,-2.1126316E0,-1.055568E0,-3.0608952E0,1.8708048E0,3.6867133E-1,-3.2077196E-1,-2.2798948E0,8.943879E0,4.477521E0,2.3356297E0,5.912529E0,-2.5148165E-1,-2.705193E0,2.378788E0,-4.864482E-1,-3.5737188E0,3.6385458E-2,1.279963E1,-2.6551747E0,3.6265647E0,1.0843077E1],"categories":[],"categories_nodes":[],"categories_segments":[],"categories_sizes":[],"default_left":[0,0,0,0,0,0,0,0,0,0,0,0,0,0,0,0,0,0,0,0,0,0,0,0,0,0,0,0,0,0,0,0,0,0,0,0,0,0,0,0,0,0,0,0,0,0,0,0,0,0,0,0,0,0,0,0,0,0,0,0,0,0,0,0,0,0,0,0,0,0,0,0,0,0,0,0,0,0,0,0,0,0,0,0,0,0,0,0,0,0,0,0,0,0,0,0,0,0,0,0,0,0,0,0,0,0,0,0,0,0,0,0,0,0,0,0,0,0,0,0,0,0,0,0,0],"id":5,"left_children":[1,3,5,7,9,11,13,15,17,19,21,23,25,27,29,31,33,35,37,39,41,43,45,47,49,51,53,55,57,59,61,63,65,67,69,71,73,75,77,79,81,83,85,87,89,91,93,95,97,99,101,103,105,107,109,111,-1,113,115,117,119,121,123,-1,-1,-1,-1,-1,-1,-1,-1,-1,-1,-1,-1,-1,-1,-1,-1,-1,-1,-1,-1,-1,-1,-1,-1,-1,-1,-1,-1,-1,-1,-1,-1,-1,-1,-1,-1,-1,-1,-1,-1,-1,-1,-1,-1,-1,-1,-1,-1,-1,-1,-1,-1,-1,-1,-1,-1,-1,-1,-1,-1,-1,-1],"loss_changes":[1.4302303E5,2.6204758E4,3.6360688E4,6.263211E3,1.922749E4,2.1790824E4,8.964547E3,9.1510443E2,4.0782188E3,1.1062186E4,4.865709E3,1.7625727E4,1.3825213E4,3.6688242E3,7.795836E3,1.3926454E3,4.5721265E2,6.7538164E3,2.340621E3,8.605586E3,7.8008213E3,3.2514285E3,4.0748105E3,1.6794395E4,9.815414E3,6.8140654E3,8.19702E3,1.3632383E3,1.0765415E3,6.9324336E3,4.7129473E3,2.932829E2,8.463623E2,1.1233447E2,6.265092E2,2.2868164E3,5.710171E3,2.2614043E3,5.5025586E2,5.5054517E3,2.6597031E3,3.699794E3,6.802512E3,3.618934E3,7.329568E2,1.7025137E3,3.3374746E3,5.8015625E3,9.856479E3,1.5602051E3,2.3275605E3,2.676398E3,3.7676426E3,7.143616E3,2.0708542E3,7.477949E2,0E0,1.2388677E3,3.900972E1,5.8272305E3,1.5185657E3,3.1230469E3,2.0449648E3,0E0,0E0,0E0,0E0,0E0,0E0,0E0,0E0,0E0,0E0,0E0,0E0,0E0,0E0,0E0,0E0,0E0,0E0,0E0,0E0,0E0,0E0,0E0,0E0,0E0,0E0,0E0,0E0,0E0,0E0,0E0,0E0,0E0,0E0,0E0,0E0,0E0,0E0,0E0,0E0,0E0,0E0,0E0,0E0,0E0,0E0,0E0,0E0,0E0,0E0,0E0,0E0,0E0,0E0,0E0,0E0,0E0,0E0,0E0,0E0,0E0,0E0],"parents":[2147483647,0,0,1,1,2,2,3,3,4,4,5,5,6,6,7,7,8,8,9,9,10,10,11,11,12,12,13,13,14,14,15,15,16,16,17,17,18,18,19,19,20,20,21,21,22,22,23,23,24,24,25,25,26,26,27,27,28,28,29,29,30,30,31,31,32,32,33,33,34,34,35,35,36,36,37,37,38,38,39,39,40,40,41,41,42,42,43,43,44,44,45,45,46,46,47,47,48,48,49,49,50,50,51,51,52,52,53,53,54,54,55,55,57,57,58,58,59,59,60,60,61,61,62,62],"right_children":[2,4,6,8,10,12,14,16,18,20,22,24,26,28,30,32,34,36,38,40,42,44,46,48,50,52,54,56,58,60,62,64,66,68,70,72,74,76,78,80,82,84,86,88,90,92,94,96,98,100,102,104,106,108,110,112,-1,114,116,118,120,122,124,-1,-1,-1,-1,-1,-1,-1,-1,-1,-1,-1,-1,-1,-1,-1,-1,-1,-1,-1,-1,-1,-1,-1,-1,-1,-1,-1,-1,-1,-1,-1,-1,-1,-1,-1,-1,-1,-1,-1,-1,-1,-1,-1,-1,-1,-1,-1,-1,-1,-1,-1,-1,-1,-1,-1,-1,-1,-1,-1,-1,-1,-1],"split_conditions":[4.4E1,3.1E1,7.2E1,1.0296251E1,4.5E1,5.9E1,7.1E1,2.4E1,2.9E1,3.7E1,2.9E1,5.8333332E1,5.6333332E1,8.4E1,1.02666664E2,2.2333334E1,2.6E1,2.2666666E1,3E1,3.6666668E1,3.5333332E1,6.5E1,4E1,4.4E1,5.8E1,4.1E1,8.1E1,7.6666664E1,1.58E2,1.14E2,7.5E1,1.6E1,2.3E1,4.339417E0,1.8E1,2.6E1,2.7E1,4.2E1,2.8E1,2.7E1,3E1,2.8E1,5.1E1,3.9333332E1,1.1304229E1,5.2E1,4.2E1,3.5E1,3.9E1,5E1,6.6E1,8.3E1,7.3E1,5.9E1,6.2E1,5.1E1,7.709342E0,1.4256E1,7.3E1,1.03E2,1E-1,1.65E2,3.1524536E2,-1.08528584E-1,-8.17088E-1,1.0373464E0,9.240632E-2,2.3913126E-1,-1.1798116E0,7.10695E-1,-5.525027E-1,-1.0803255E0,-2.252213E0,-3.05623E-2,-9.175033E-1,-1.0146979E0,-1.9131907E0,-2.6630335E0,-1.7898993E0,1.254589E0,2.1973465E-2,2.9990895E0,1.2227452E0,-2.3818916E-1,-1.6348581E0,1.22188844E-1,-1.5135163E0,-1.444147E-1,2.472475E0,7.1069837E-1,-2.249274E0,-1.4686632E0,-2.5371907E0,-2.5597903E-1,-1.4673352E0,4.1943884E0,1.7697057E0,1.571739E0,3.912278E-1,6.9712267E0,4.145169E0,1.6033095E0,3.0657704E0,1.0404814E0,-2.1126316E0,-1.055568E0,-3.0608952E0,1.8708048E0,3.6867133E-1,-3.2077196E-1,-2.2798948E0,8.943879E0,4.477521E0,2.3356297E0,5.912529E0,-2.5148165E-1,-2.705193E0,2.378788E0,-4.864482E-1,-3.5737188E0,3.6385458E-2,1.279963E1,-2.6551747E0,3.6265647E0,1.0843077E1],"split_indices":[4,4,4,7,2,2,1,2,2,1,1,4,4,2,4,4,4,4,1,4,4,2,4,1,1,1,2,4,2,1,2,1,1,5,1,1,1,2,4,1,1,2,1,4,7,2,1,1,2,1,4,2,2,1,1,1,0,11,3,2,6,1,8,0,0,0,0,0,0,0,0,0,0,0,0,0,0,0,0,0,0,0,0,0,0,0,0,0,0,0,0,0,0,0,0,0,0,0,0,0,0,0,0,0,0,0,0,0,0,0,0,0,0,0,0,0,0,0,0,0,0,0,0,0,0],"split_type":[0,0,0,0,0,0,0,0,0,0,0,0,0,0,0,0,0,0,0,0,0,0,0,0,0,0,0,0,0,0,0,0,0,0,0,0,0,0,0,0,0,0,0,0,0,0,0,0,0,0,0,0,0,0,0,0,0,0,0,0,0,0,0,0,0,0,0,0,0,0,0,0,0,0,0,0,0,0,0,0,0,0,0,0,0,0,0,0,0,0,0,0,0,0,0,0,0,0,0,0,0,0,0,0,0,0,0,0,0,0,0,0,0,0,0,0,0,0,0,0,0,0,0,0,0],"sum_hessian":[2.6818E4,1.714E4,9.678E3,8.658E3,8.482E3,8.623E3,1.055E3,8.9E2,7.768E3,6.495E3,1.987E3,6.012E3,2.611E3,1.46E2,9.09E2,5.75E2,3.15E2,5.7E3,2.068E3,2.923E3,3.572E3,4.8E2,1.507E3,5.218E3,7.94E2,9.74E2,1.637E3,8.8E1,5.8E1,8.06E2,1.03E2,2.14E2,3.61E2,9.2E1,2.23E2,3.086E3,2.614E3,1.69E3,3.78E2,2.203E3,7.2E2,7.33E2,2.839E3,4.05E2,7.5E1,6.73E2,8.34E2,8.33E2,4.385E3,1.32E2,6.62E2,2.08E2,7.66E2,1.443E3,1.94E2,5.7E1,3.1E1,5.5E1,3E0,7.65E2,4.1E1,9E0,9.4E1,9.3E1,1.21E2,1.37E2,2.24E2,5E0,8.7E1,4.3E1,1.8E2,2.928E3,1.58E2,1.274E3,1.34E3,1.38E3,3.1E2,9.2E1,2.86E2,3.97E2,1.806E3,8.6E1,6.34E2,2.71E2,4.62E2,2.589E3,2.5E2,3.51E2,5.4E1,8E0,6.7E1,4.83E2,1.9E2,4.74E2,3.6E2,1.01E2,7.32E2,7.72E2,3.613E3,2.4E1,1.08E2,5.41E2,1.21E2,1.81E2,2.7E1,6.7E2,9.6E1,3.9E2,1.053E3,9.8E1,9.6E1,4E0,5.3E1,4.4E1,1.1E1,1E0,2E0,6.95E2,7E1,2.1E1,2E1,8E0,1E0,9.1E1,3E0],"tree_param":{"num_deleted":"0","num_feature":"12","num_nodes":"125","size_leaf_vector":"1"}},{"base_weights":[7.4105E-3,-1.0526993E0,2.873307E0,-2.386281E0,-3.5158548E-1,2.4108324E0,7.689746E0,-1.7162133E0,-3.1957679E0,2.7429526E0,-7.583213E-1,4.8072524E0,1.4285475E0,1.2266113E1,5.3942194E0,-3.0361567E0,-7.685664E-1,-2.8329108E0,-5.169767E0,1.6518064E0,5.4491124E0,-4.5712656E-1,-4.075765E0,9.078506E0,3.976545E0,1.7500384E0,-6.3206606E0,1.8097765E1,9.486895E0,2.6378722E0,8.648456E0,-2.6984599E0,-5.022979E0,2.4812982E0,-1.3441614E0,-3.8200428E0,-1.9334241E0,-4.0749707E0,-5.9991794E0,2.137829E0,-2.6701896E0,1.0343415E1,4.9038677E0,-2.1135968E-1,-3.9753718E0,4.5641908E-1,-4.736346E0,2.2078367E1,8.254519E0,2.507476E0,6.318272E0,2.0387253E-1,3.7183506E0,-5.3046236E0,-1.5565419E1,3.993853E0,2.1617624E1,1.0732413E1,6.62276E-1,4.1419353E0,-5.9032226E0,1.5176574E1,6.688948E0,-1.1484126E0,-4.8743796E-1,-4.6672308E-1,-1.6478014E0,4.5701602E-1,1.6602886E0,2.2499955E-1,-5.392468E-1,-9.4202924E-1,-1.5531732E0,-3.0108652E-1,-1.1447235E0,-1.9105543E0,-1.0462453E0,-1.8348943E0,4.0858477E-1,1.7616645E0,4.7555214E-1,-1.2445432E0,2.0078206E-1,3.1771019E0,3.2933235E-2,1.5332575E0,-7.9081726E-1,-4.2014056E-1,2.5297704E-1,-9.312564E-1,-2.6124837E0,8.5968405E-1,-5.880773E-1,-1.2188969E0,-2.3278556E0,4.6146116E0,8.557807E0,2.2139118E0,3.7807271E0,8.673305E-1,-1.6309122E0,2.2274387E0,-5.4643786E-1,4.9257907E-1,-9.107179E-1,1.8261685E0,5.458322E-1,-4.9338773E-1,-2.2834504E0,-3.203923E0,-6.101264E0,7.9752517E0,5.231603E0,2.780212E0,6.3160663E0,-1.9895376E0,1.9709828E0,2.4036906E0,2.4348198E-1,1.6341858E0,-2.263057E0,5.8343935E0,2.1745753E0,2.3176324E0,-9.670854E-1],"categories":[],"categories_nodes":[],"categories_segments":[],"categories_sizes":[],"default_left":[0,0,0,0,0,0,0,0,0,0,0,0,0,0,0,0,0,0,0,0,0,0,0,0,0,0,0,0,0,0,0,0,0,0,0,0,0,0,0,0,0,0,0,0,0,0,0,0,0,0,0,0,0,0,0,0,0,0,0,0,0,0,0,0,0,0,0,0,0,0,0,0,0,0,0,0,0,0,0,0,0,0,0,0,0,0,0,0,0,0,0,0,0,0,0,0,0,0,0,0,0,0,0,0,0,0,0,0,0,0,0,0,0,0,0,0,0,0,0,0,0,0,0,0,0],"id":6,"left_children":[1,3,5,7,9,11,13,15,17,19,21,23,25,27,29,31,33,35,37,39,41,43,45,47,49,51,53,55,57,59,61,63,65,67,69,71,73,75,77,79,81,83,85,87,89,91,93,95,97,99,101,103,105,107,109,-1,111,113,115,117,119,121,123,-1,-1,-1,-1,-1,-1,-1,-1,-1,-1,-1,-1,-1,-1,-1,-1,-1,-1,-1,-1,-1,-1,-1,-1,-1,-1,-1,-1,-1,-1,-1,-1,-1,-1,-1,-1,-1,-1,-1,-1,-1,-1,-1,-1,-1,-1,-1,-1,-1,-1,-1,-1,-1,-1,-1,-1,-1,-1,-1,-1,-1,-1],"loss_changes":[8.148357E4,1.8304445E4,1.6112883E4,3.653621E3,1.6154456E4,1.5550496E4,6.5941133E3,4.6170186E3,2.172871E3,4.3936475E3,1.1332024E4,6.779918E3,1.1692765E4,3.2480742E3,3.7803838E3,1.0217119E3,4.0270083E3,2.2852031E3,4.0505566E2,2.2407344E3,1.0914365E3,8.991709E3,2.828378E3,3.1598066E3,5.5228125E3,1.3703388E4,1.6739258E3,8.406406E2,1.5866201E3,2.9919568E3,2.3801133E3,1.5958818E3,3.5461768E2,9.391074E2,1.7367434E3,1.1188145E3,2.3641733E3,2.5670703E2,2.3854883E2,1.9657759E3,5.3593866E2,1.0496777E2,6.17459E2,1.2193092E4,2.7726426E3,7.101089E2,1.6458691E3,3.3837305E2,1.0290625E3,3.035752E3,5.59774E3,1.175896E4,8.900029E3,1.4228198E3,2.0247168E2,0E0,3.043379E2,1.7252412E3,8.622979E2,2.5327463E3,6.927302E2,1.3490293E3,1.5763237E3,0E0,0E0,0E0,0E0,0E0,0E0,0E0,0E0,0E0,0E0,0E0,0E0,0E0,0E0,0E0,0E0,0E0,0E0,0E0,0E0,0E0,0E0,0E0,0E0,0E0,0E0,0E0,0E0,0E0,0E0,0E0,0E0,0E0,0E0,0E0,0E0,0E0,0E0,0E0,0E0,0E0,0E0,0E0,0E0,0E0,0E0,0E0,0E0,0E0,0E0,0E0,0E0,0E0,0E0,0E0,0E0,0E0,0E0,0E0,0E0,0E0,0E0],"parents":[2147483647,0,0,1,1,2,2,3,3,4,4,5,5,6,6,7,7,8,8,9,9,10,10,11,11,12,12,13,13,14,14,15,15,16,16,17,17,18,18,19,19,20,20,21,21,22,22,23,23,24,24,25,25,26,26,27,27,28,28,29,29,30,30,31,31,32,32,33,33,34,34,35,35,36,36,37,37,38,38,39,39,40,40,41,41,42,42,43,43,44,44,45,45,46,46,47,47,48,48,49,49,50,50,51,51,52,52,53,53,54,54,56,56,57,57,58,58,59,59,60,60,61,61,62,62],"right_children":[2,4,6,8,10,12,14,16,18,20,22,24,26,28,30,32,34,36,38,40,42,44,46,48,50,52,54,56,58,60,62,64,66,68,70,72,74,76,78,80,82,84,86,88,90,92,94,96,98,100,102,104,106,108,110,-1,112,114,116,118,120,122,124,-1,-1,-1,-1,-1,-1,-1,-1,-1,-1,-1,-1,-1,-1,-1,-1,-1,-1,-1,-1,-1,-1,-1,-1,-1,-1,-1,-1,-1,-1,-1,-1,-1,-1,-1,-1,-1,-1,-1,-1,-1,-1,-1,-1,-1,-1,-1,-1,-1,-1,-1,-1,-1,-1,-1,-1,-1,-1,-1,-1,-1,-1],"split_conditions":[4.8333332E1,2.8E1,7.8666664E1,2.2E1,2.5E1,5.3E1,8.5E1,1.8666666E1,2.8E1,3.5E1,5.5E1,4.4E1,8.4E1,7.7E1,9.1333336E1,1.9E1,1.8E1,2.3666666E1,2.6E1,4.1E1,1.6E1,5.2E1,1.1252519E1,2.6E1,5.2666668E1,5.9666668E1,8E1,8.1E1,1.23E2,1.07E2,8.4E1,1.5E1,1.1E1,2.2E1,1.5E1,2E1,3.4E1,2.4333334E1,9.296038E1,1.7E1,3.3333332E1,6.1E1,5.8E1,3.7E1,6E1,3.3E1,6.9E1,5.2E1,5.3333332E1,7.5E1,8.3E1,5.7E1,6.3E1,1.4113652E1,8.9E1,3.993853E0,6.3E1,9.1333336E1,1.3779114E1,8E1,4.6E1,1.2E2,1.1000001E0,-1.1484126E0,-4.8743796E-1,-4.6672308E-1,-1.6478014E0,4.5701602E-1,1.6602886E0,2.2499955E-1,-5.392468E-1,-9.4202924E-1,-1.5531732E0,-3.0108652E-1,-1.1447235E0,-1.9105543E0,-1.0462453E0,-1.8348943E0,4.0858477E-1,1.7616645E0,4.7555214E-1,-1.2445432E0,2.0078206E-1,3.1771019E0,3.2933235E-2,1.5332575E0,-7.9081726E-1,-4.2014056E-1,2.5297704E-1,-9.312564E-1,-2.6124837E0,8.5968405E-1,-5.880773E-1,-1.2188969E0,-2.3278556E0,4.6146116E0,8.557807E0,2.2139118E0,3.7807271E0,8.673305E-1,-1.6309122E0,2.2274387E0,-5.4643786E-1,4.9257907E-1,-9.107179E-1,1.8261685E0,5.458322E-1,-4.9338773E-1,-2.2834504E0,-3.203923E0,-6.101264E0,7.9752517E0,5.231603E0,2.780212E0,6.3160663E0,-1.9895376E0,1.9709828E0,2.4036906E0,2.4348198E-1,1.6341858E0,-2.263057E0,5.8343935E0,2.1745753E0,2.3176324E0,-9.670854E-1],"split_indices":[4,4,4,2,2,1,1,4,1,4,2,2,1,2,4,1,1,4,2,1,2,1,7,2,4,4,2,4,2,1,2,4,2,4,2,1,2,4,10,2,4,1,1,4,1,1,2,4,4,2,2,2,2,7,9,0,2,4,7,2,2,1,6,0,0,0,0,0,0,0,0,0,0,0,0,0,0,0,0,0,0,0,0,0,0,0,0,0,0,0,0,0,0,0,0,0,0,0,0,0,0,0,0,0,0,0,0,0,0,0,0,0,0,0,0,0,0,0,0,0,0,0,0,0,0],"split_type":[0,0,0,0,0,0,0,0,0,0,0,0,0,0,0,0,0,0,0,0,0,0,0,0,0,0,0,0,0,0,0,0,0,0,0,0,0,0,0,0,0,0,0,0,0,0,0,0,0,0,0,0,0,0,0,0,0,0,0,0,0,0,0,0,0,0,0,0,0,0,0,0,0,0,0,0,0,0,0,0,0,0,0,0,0,0,0,0,0,0,0,0,0,0,0,0,0,0,0,0,0,0,0,0,0,0,0,0,0,0,0,0,0,0,0,0,0,0,0,0,0,0,0,0,0],"sum_hessian":[2.6818E4,1.9577E4,7.241E3,6.745E3,1.2832E4,6.608E3,6.33E2,3.692E3,3.053E3,1.49E3,1.1342E4,1.92E3,4.688E3,2.1E2,4.23E2,1.542E3,2.15E3,2.581E3,4.72E2,1.063E3,4.27E2,1.0399E4,9.43E2,3.11E2,1.609E3,4.502E3,1.86E2,6.6E1,1.44E2,2.3E2,1.93E2,1.32E3,2.22E2,3.23E2,1.827E3,1.229E3,1.352E3,2.06E2,2.66E2,9.56E2,1.07E2,4.1E1,3.86E2,9.721E3,6.78E2,1.2E2,8.23E2,1.7E1,2.94E2,9.9E2,6.19E2,2.522E3,1.98E3,1.69E2,1.7E1,3E1,3.6E1,1.26E2,1.8E1,1.96E2,3.4E1,4.3E1,1.5E2,6.42E2,6.78E2,2.7E1,1.95E2,2.47E2,7.6E1,3.25E2,1.502E3,8.21E2,4.08E2,9.06E2,4.46E2,4E1,1.66E2,2.62E2,4E0,1.22E2,8.34E2,7.4E1,3.3E1,4E1,1E0,3.76E2,1E1,4.569E3,5.152E3,5.74E2,1.04E2,6E1,6E1,6.75E2,1.48E2,1E1,7E0,2.47E2,4.7E1,9.45E2,4.5E1,5.45E2,7.4E1,1.747E3,7.75E2,8.8E2,1.1E3,6.6E1,1.03E2,1E1,7E0,1.4E1,2.2E1,1.12E2,1.4E1,8E0,1E1,9E1,1.06E2,4E0,3E1,2.7E1,1.6E1,1.36E2,1.4E1],"tree_param":{"num_deleted":"0","num_feature":"12","num_nodes":"125","size_leaf_vector":"1"}},{"base_weights":[6.511199E-3,-7.562047E-1,1.9936318E0,3.6954218E-1,-1.2610139E0,1.3981874E0,4.380082E0,-9.532426E-1,8.605533E-1,-1.6073277E0,1.4992513E-1,2.5916386E0,-5.062235E-1,7.242242E0,2.8575356E0,-4.6135747E-1,-2.232648E0,4.615158E0,6.300623E-1,-1.3740377E0,-3.2921798E0,5.1055735E-1,-1.581439E0,5.4151206E0,1.9069173E0,-3.2413044E0,3.008569E-1,9.268953E0,3.6677535E0,2.3355329E-1,4.486731E0,-1.6017681E0,5.6556083E-2,-1.8292121E0,-4.5583086E0,3.982276E0,9.186841E0,4.0666246E0,4.2795736E-1,-1.7604465E0,-2.24641E-1,-5.1032553E0,-2.535143E0,3.2711815E-2,1.7836882E0,-8.791497E-1,-3.0617695E0,4.87541E0,1.1324191E1,1.0109586E0,4.124491E0,1.3317442E-1,-5.2152667E0,8.52489E-1,-5.382519E0,1.5347192E1,8.443379E0,1.5715306E1,2.9026365E0,4.0262775E0,-3.36285E0,8.044883E0,3.03463E0,-3.6428323E-1,-1.3959529E0,5.584478E-1,-1.6296099E-1,-4.734254E-1,-1.6177113E0,-1.09911E0,-1.6529148E0,1.8007857E0,7.175744E-1,3.0410366E0,-8.2248425E-1,4.7021723E-1,1.5678272E0,3.1217334E-1,-1.04169875E-1,-4.615273E-1,-1.0285336E0,4.5469314E-1,-3.5796547E-1,-1.1801822E0,-2.0252764E0,-5.167771E-1,-1.6280596E0,1.3316183E-1,-3.1565642E-1,1.0065365E0,2.0998615E-1,-7.233952E-1,8.572903E-2,-7.95569E-1,-1.259268E0,2.2266288E0,1.1822006E0,6.3250966E0,3.069322E0,1.1722193E0,-1.4783798E-2,1.6707615E0,1.9393794E-1,2.1012108E-1,-2.810139E0,-1.9340625E0,-1.2011439E0,4.2412776E-1,-9.3935364E-1,-1.3487034E0,-3.594342E0,6.7656794E0,3.987445E0,2.240403E0,4.262584E0,-9.09874E-2,5.204249E0,-1.2954105E-2,1.5923477E0,4.7500143E0,9.9615395E-1,-6.12395E-1,-3.4089851E0,2.7574186E0,8.117503E-1,4.3726763E-1,2.5154693E0],"categories":[],"categories_nodes":[],"categories_segments":[],"categories_sizes":[],"default_left":[0,0,0,0,0,0,0,0,0,0,0,0,0,0,0,0,0,0,0,0,0,0,0,0,0,0,0,0,0,0,0,0,0,0,0,0,0,0,0,0,0,0,0,0,0,0,0,0,0,0,0,0,0,0,0,0,0,0,0,0,0,0,0,0,0,0,0,0,0,0,0,0,0,0,0,0,0,0,0,0,0,0,0,0,0,0,0,0,0,0,0,0,0,0,0,0,0,0,0,0,0,0,0,0,0,0,0,0,0,0,0,0,0,0,0,0,0,0,0,0,0,0,0,0,0,0,0],"id":7,"left_children":[1,3,5,7,9,11,13,15,17,19,21,23,25,27,29,31,33,35,37,39,41,43,45,47,49,51,53,55,57,59,61,63,65,67,69,71,73,75,77,79,81,83,85,87,89,91,93,95,97,99,101,103,105,107,109,111,113,115,117,119,121,123,125,-1,-1,-1,-1,-1,-1,-1,-1,-1,-1,-1,-1,-1,-1,-1,-1,-1,-1,-1,-1,-1,-1,-1,-1,-1,-1,-1,-1,-1,-1,-1,-1,-1,-1,-1,-1,-1,-1,-1,-1,-1,-1,-1,-1,-1,-1,-1,-1,-1,-1,-1,-1,-1,-1,-1,-1,-1,-1,-1,-1,-1,-1,-1,-1],"loss_changes":[4.0648613E4,1.1014443E4,1.0564682E4,3.8984822E3,6.5385684E3,1.3535963E4,6.4505977E3,1.0216156E3,3.7849602E3,4.218502E3,1.6479368E3,7.0674766E3,5.0670273E3,3.6968984E3,4.1499565E3,6.940857E2,4.1481494E2,6.954297E2,2.8632622E3,4.1918164E3,1.7776543E3,1.3285995E3,4.7033545E2,2.221871E3,5.85308E3,3.4844468E3,5.563178E3,1.516332E3,1.6873286E3,5.101322E3,3.070497E3,4.2828784E2,8.76776E2,3.368861E2,3.5989014E1,7.053711E2,3.6773315E2,6.5539966E2,1.8510364E3,2.6107559E3,4.0067944E3,7.1327246E2,2.1594033E3,7.092697E2,1.0126493E3,5.539902E2,5.6835815E1,1.5323564E3,4.1371826E2,6.4521826E3,4.2573965E3,1.0519976E3,4.6655957E2,3.6198992E3,8.648887E2,2.6308496E2,1.5302539E3,2.928606E2,1.2614031E3,1.4640378E3,2.0067891E3,1.0341113E3,3.5906997E3,0E0,0E0,0E0,0E0,0E0,0E0,0E0,0E0,0E0,0E0,0E0,0E0,0E0,0E0,0E0,0E0,0E0,0E0,0E0,0E0,0E0,0E0,0E0,0E0,0E0,0E0,0E0,0E0,0E0,0E0,0E0,0E0,0E0,0E0,0E0,0E0,0E0,0E0,0E0,0E0,0E0,0E0,0E0,0E0,0E0,0E0,0E0,0E0,0E0,0E0,0E0,0E0,0E0,0E0,0E0,0E0,0E0,0E0,0E0,0E0,0E0,0E0,0E0,0E0],"parents":[2147483647,0,0,1,1,2,2,3,3,4,4,5,5,6,6,7,7,8,8,9,9,10,10,11,11,12,12,13,13,14,14,15,15,16,16,17,17,18,18,19,19,20,20,21,21,22,22,23,23,24,24,25,25,26,26,27,27,28,28,29,29,30,30,31,31,32,32,33,33,34,34,35,35,36,36,37,37,38,38,39,39,40,40,41,41,42,42,43,43,44,44,45,45,46,46,47,47,48,48,49,49,50,50,51,51,52,52,53,53,54,54,55,55,56,56,57,57,58,58,59,59,60,60,61,61,62,62],"right_children":[2,4,6,8,10,12,14,16,18,20,22,24,26,28,30,32,34,36,38,40,42,44,46,48,50,52,54,56,58,60,62,64,66,68,70,72,74,76,78,80,82,84,86,88,90,92,94,96,98,100,102,104,106,108,110,112,114,116,118,120,122,124,126,-1,-1,-1,-1,-1,-1,-1,-1,-1,-1,-1,-1,-1,-1,-1,-1,-1,-1,-1,-1,-1,-1,-1,-1,-1,-1,-1,-1,-1,-1,-1,-1,-1,-1,-1,-1,-1,-1,-1,-1,-1,-1,-1,-1,-1,-1,-1,-1,-1,-1,-1,-1,-1,-1,-1,-1,-1,-1,-1,-1,-1,-1,-1,-1],"split_conditions":[4.8E1,1.3513193E1,6.7666664E1,2.8666666E1,2.2368332E1,5.9E1,7E1,2.5E1,2.3E1,4.5E1,4.7E1,4.5E1,5.5333332E1,8.1E1,7.6666664E1,2.0333334E1,2.8E1,3.8E1,2E1,3.4E1,4E1,4.1666668E1,4.5E1,5.5666668E1,5.5666668E1,4.5E1,7.3E1,6.3E1,3.8E1,7.2E1,8.1E1,2.1E1,2E1,4.3E1,3.1E1,3.7E1,7.7E1,3.1333334E1,3.8E1,3.9E1,3.8E1,3.7E1,5.3E1,3.8E1,4.3E1,4.3333332E1,5.3E1,4.9E1,2E1,4.7E1,6.7E1,7.6E1,5.3E1,7.4E1,9E1,4.7E1,7.6666664E1,2E1,7.6666664E1,5E1,8.8E1,1.1E2,1.02666664E2,-3.6428323E-1,-1.3959529E0,5.584478E-1,-1.6296099E-1,-4.734254E-1,-1.6177113E0,-1.09911E0,-1.6529148E0,1.8007857E0,7.175744E-1,3.0410366E0,-8.2248425E-1,4.7021723E-1,1.5678272E0,3.1217334E-1,-1.04169875E-1,-4.615273E-1,-1.0285336E0,4.5469314E-1,-3.5796547E-1,-1.1801822E0,-2.0252764E0,-5.167771E-1,-1.6280596E0,1.3316183E-1,-3.1565642E-1,1.0065365E0,2.0998615E-1,-7.233952E-1,8.572903E-2,-7.95569E-1,-1.259268E0,2.2266288E0,1.1822006E0,6.3250966E0,3.069322E0,1.1722193E0,-1.4783798E-2,1.6707615E0,1.9393794E-1,2.1012108E-1,-2.810139E0,-1.9340625E0,-1.2011439E0,4.2412776E-1,-9.3935364E-1,-1.3487034E0,-3.594342E0,6.7656794E0,3.987445E0,2.240403E0,4.262584E0,-9.09874E-2,5.204249E0,-1.2954105E-2,1.5923477E0,4.7500143E0,9.9615395E-1,-6.12395E-1,-3.4089851E0,2.7574186E0,8.117503E-1,4.3726763E-1,2.5154693E0],"split_indices":[4,7,4,4,5,1,2,2,1,1,1,2,4,1,4,4,1,4,2,4,4,4,2,4,4,2,2,1,2,1,1,1,1,2,1,2,2,4,2,2,2,2,2,2,2,4,2,1,2,1,2,1,4,1,2,1,4,3,4,1,2,2,4,0,0,0,0,0,0,0,0,0,0,0,0,0,0,0,0,0,0,0,0,0,0,0,0,0,0,0,0,0,0,0,0,0,0,0,0,0,0,0,0,0,0,0,0,0,0,0,0,0,0,0,0,0,0,0,0,0,0,0,0,0,0,0,0],"split_type":[0,0,0,0,0,0,0,0,0,0,0,0,0,0,0,0,0,0,0,0,0,0,0,0,0,0,0,0,0,0,0,0,0,0,0,0,0,0,0,0,0,0,0,0,0,0,0,0,0,0,0,0,0,0,0,0,0,0,0,0,0,0,0,0,0,0,0,0,0,0,0,0,0,0,0,0,0,0,0,0,0,0,0,0,0,0,0,0,0,0,0,0,0,0,0,0,0,0,0,0,0,0,0,0,0,0,0,0,0,0,0,0,0,0,0,0,0,0,0,0,0,0,0,0,0,0,0],"sum_hessian":[2.6818E4,1.938E4,7.438E3,6E3,1.338E4,5.954E3,1.484E3,1.624E3,4.376E3,1.0743E4,2.637E3,3.66E3,2.294E3,5.14E2,9.7E2,1.174E3,4.5E2,2.52E2,4.124E3,9.438E3,1.305E3,2.183E3,4.54E2,7.13E2,2.947E3,5.22E2,1.772E3,3.27E2,1.87E2,3.72E2,5.98E2,3.66E2,8.08E2,3.85E2,6.5E1,2.23E2,2.9E1,2.28E2,3.896E3,7.063E3,2.375E3,3.83E2,9.22E2,1.588E3,5.95E2,3.09E2,1.45E2,6.55E2,5.8E1,2.1E3,8.47E2,1.93E2,3.29E2,1.616E3,1.56E2,3.7E1,2.9E2,1E1,1.77E2,1.81E2,1.91E2,1.72E2,4.26E2,3.26E2,4E1,2.01E2,6.07E2,3.61E2,2.4E1,3.6E1,2.9E1,9.7E1,1.26E2,2.7E1,2E0,7.3E1,1.55E2,2.176E3,1.72E3,6.235E3,8.28E2,8.49E2,1.526E3,2.26E2,1.57E2,7.21E2,2.01E2,1.152E3,4.36E2,2.42E2,3.53E2,1.33E2,1.76E2,1.09E2,3.6E1,1.74E2,4.81E2,4E0,5.4E1,5.62E2,1.538E3,5.98E2,2.49E2,1.83E2,1E1,1.61E2,1.68E2,1.417E3,1.99E2,1.39E2,1.7E1,6E0,3.1E1,2.5E2,4E1,1E0,9E0,8E1,9.7E1,9E0,1.72E2,1.65E2,2.6E1,1.41E2,3.1E1,3.3E2,9.6E1],"tree_param":{"num_deleted":"0","num_feature":"12","num_nodes":"127","size_leaf_vector":"1"}},{"base_weights":[5.646599E-3,-7.5958246E-1,1.0893759E0,-5.488574E-1,-2.3105855E0,2.2627678E0,4.8045653E-1,-1.3819876E0,7.471783E-2,-1.280419E0,-3.5230987E0,2.2371979E0,1.4879765E1,1.5079436E0,-2.5364435E-1,-9.050481E-1,-2.2521925E0,1.7609687E0,-3.556783E-1,-4.6122313E0,-6.1647E-1,-5.377387E0,-2.966534E0,3.2874267E0,1.2429398E0,1.0330114E0,4.908643E0,-8.761042E-1,2.083812E0,-1.7607638E0,-8.730987E-2,-1.7614455E0,-3.426494E0,2.2542021E0,-9.6992743E-1,2.3716107E-1,-1.6105996E0,-5.792128E-1,-5.409006E0,-3.8745695E-1,-8.1584015E0,1.7979947E0,-5.4655294E0,-2.2301195E0,-4.554986E0,2.9581885E0,6.828879E0,1.3778889E0,-7.1509414E0,4.575127E0,5.341069E-1,1.1400764E1,3.891622E0,-1.143898E0,2.140006E0,1.8026804E0,2.1062094E1,-4.1547313E-1,-1.0796721E0,1.2983045E-1,-6.327125E-1,-7.3878044E-1,-1.5836722E-1,-1.3090258E0,-8.39311E-1,4.987478E-1,1.9456269E0,-1.0399424E0,2.0860855E-1,-2.265524E-1,3.850843E-1,-9.2774117E-1,-1.5525429E-1,3.1142247E-1,-1.2865582E0,-2.416558E0,-1.4307799E0,7.134874E-1,-2.5008833E-1,-2.065218E0,-3.9383051E0,-2.038765E0,-1.4666893E0,-6.136767E-1,-2.0657613E0,-9.17893E-1,-1.5748557E0,2.3802989E0,8.0681294E-1,2.9181585E0,1.4282732E0,3.1619915E-1,8.047774E-1,-1.4314039E0,-4.38838E0,2.7279737E0,1.212749E0,2.3092276E-1,-1.8972899E0,3.7537756E0,-1.3539934E0,1.7990232E0,6.7719245E-1,-1.851447E-1,-8.299249E-1,7.881929E-1,-2.139716E0,4.905967E-1,4.8848925E0,7.4204993E-1,1.0992546E1],"categories":[],"categories_nodes":[],"categories_segments":[],"categories_sizes":[],"default_left":[0,0,0,0,0,0,0,0,0,0,0,0,0,0,0,0,0,0,0,0,0,0,0,0,0,0,0,0,0,0,0,0,0,0,0,0,0,0,0,0,0,0,0,0,0,0,0,0,0,0,0,0,0,0,0,0,0,0,0,0,0,0,0,0,0,0,0,0,0,0,0,0,0,0,0,0,0,0,0,0,0,0,0,0,0,0,0,0,0,0,0,0,0,0,0,0,0,0,0,0,0,0,0,0,0,0,0,0,0,0,0],"id":8,"left_children":[1,3,5,7,9,11,13,15,17,19,21,23,-1,25,27,29,31,33,35,37,39,41,43,45,47,49,51,53,55,57,59,61,63,65,67,69,71,73,75,77,79,-1,81,83,85,87,89,91,93,95,97,99,101,103,105,107,109,-1,-1,-1,-1,-1,-1,-1,-1,-1,-1,-1,-1,-1,-1,-1,-1,-1,-1,-1,-1,-1,-1,-1,-1,-1,-1,-1,-1,-1,-1,-1,-1,-1,-1,-1,-1,-1,-1,-1,-1,-1,-1,-1,-1,-1,-1,-1,-1,-1,-1,-1,-1,-1,-1],"loss_changes":[2.2241855E4,5.13658E3,7.929875E3,7.19077E3,2.3437793E3,4.478838E3,5.513409E3,2.457044E3,5.746435E3,2.2491294E3,8.746914E2,3.9544707E3,0E0,4.9145283E3,6.205829E3,2.6791946E3,1.2024346E3,2.1708071E3,4.6933247E3,5.399326E2,1.4649595E3,2.3120068E2,7.6890137E2,2.1287012E3,2.2175771E3,4.722989E3,2.4184111E3,2.7227673E3,4.747881E3,1.2876377E3,2.0607192E3,1.2796382E3,3.5128564E2,3.4042007E3,1.0293063E3,4.450655E3,3.276897E3,1.7842361E2,2.0027783E2,1.0212631E3,6.7942505E1,0E0,1.1788086E2,3.7853564E2,2.0203711E2,2.2366123E3,8.886953E2,8.081084E2,4.8176367E2,7.5738086E2,3.794587E3,9.4115283E2,1.1011626E3,2.6426099E3,1.2613176E3,2.118075E3,3.6742334E3,0E0,0E0,0E0,0E0,0E0,0E0,0E0,0E0,0E0,0E0,0E0,0E0,0E0,0E0,0E0,0E0,0E0,0E0,0E0,0E0,0E0,0E0,0E0,0E0,0E0,0E0,0E0,0E0,0E0,0E0,0E0,0E0,0E0,0E0,0E0,0E0,0E0,0E0,0E0,0E0,0E0,0E0,0E0,0E0,0E0,0E0,0E0,0E0,0E0,0E0,0E0,0E0,0E0,0E0],"parents":[2147483647,0,0,1,1,2,2,3,3,4,4,5,5,6,6,7,7,8,8,9,9,10,10,11,11,13,13,14,14,15,15,16,16,17,17,18,18,19,19,20,20,21,21,22,22,23,23,24,24,25,25,26,26,27,27,28,28,29,29,30,30,31,31,32,32,33,33,34,34,35,35,36,36,37,37,38,38,39,39,40,40,42,42,43,43,44,44,45,45,46,46,47,47,48,48,49,49,50,50,51,51,52,52,53,53,54,54,55,55,56,56],"right_children":[2,4,6,8,10,12,14,16,18,20,22,24,-1,26,28,30,32,34,36,38,40,42,44,46,48,50,52,54,56,58,60,62,64,66,68,70,72,74,76,78,80,-1,82,84,86,88,90,92,94,96,98,100,102,104,106,108,110,-1,-1,-1,-1,-1,-1,-1,-1,-1,-1,-1,-1,-1,-1,-1,-1,-1,-1,-1,-1,-1,-1,-1,-1,-1,-1,-1,-1,-1,-1,-1,-1,-1,-1,-1,-1,-1,-1,-1,-1,-1,-1,-1,-1,-1,-1,-1,-1,-1,-1,-1,-1,-1,-1],"split_conditions":[4.1666668E1,4.1E1,1.1966954E1,2.6666666E1,3.6E1,2.7699999E1,5E1,2.2E1,2.6E1,3.3333332E1,3.7333332E1,8.9695E0,1.4879765E1,5.4E1,2.7549997E1,1.9333334E1,2.5E1,5.1E1,3.8E1,1.8E1,5.6E1,2.8333334E1,4.6E1,8.3666664E1,9.7E1,4.1E1,3.5E1,1.5237499E1,1.4E2,2.1E1,3.2E1,2.4333334E1,2.4666666E1,3.3666668E1,3.3333332E1,3.2666668E1,3.6E1,2.6910483E2,2.9E1,2.3E1,6.4E1,1.7979947E0,3.4666668E1,5.6E1,4.4E1,3.4E1,8.8E1,6.2E1,1.27E2,3.3E1,6.6E1,1.11E2,6E1,7E1,9.7E1,1.43E2,2.9430435E1,-4.1547313E-1,-1.0796721E0,1.2983045E-1,-6.327125E-1,-7.3878044E-1,-1.5836722E-1,-1.3090258E0,-8.39311E-1,4.987478E-1,1.9456269E0,-1.0399424E0,2.0860855E-1,-2.265524E-1,3.850843E-1,-9.2774117E-1,-1.5525429E-1,3.1142247E-1,-1.2865582E0,-2.416558E0,-1.4307799E0,7.134874E-1,-2.5008833E-1,-2.065218E0,-3.9383051E0,-2.038765E0,-1.4666893E0,-6.136767E-1,-2.0657613E0,-9.17893E-1,-1.5748557E0,2.3802989E0,8.0681294E-1,2.9181585E0,1.4282732E0,3.1619915E-1,8.047774E-1,-1.4314039E0,-4.38838E0,2.7279737E0,1.212749E0,2.3092276E-1,-1.8972899E0,3.7537756E0,-1.3539934E0,1.7990232E0,6.7719245E-1,-1.851447E-1,-8.299249E-1,7.881929E-1,-2.139716E0,4.905967E-1,4.8848925E0,7.4204993E-1,1.0992546E1],"split_indices":[4,1,7,4,2,6,2,1,1,4,4,5,0,4,5,4,2,2,2,2,1,4,2,4,1,1,2,11,1,2,2,4,4,4,4,4,4,8,4,2,1,0,4,1,1,1,2,4,1,1,1,1,1,2,1,3,10,0,0,0,0,0,0,0,0,0,0,0,0,0,0,0,0,0,0,0,0,0,0,0,0,0,0,0,0,0,0,0,0,0,0,0,0,0,0,0,0,0,0,0,0,0,0,0,0,0,0,0,0,0,0],"split_type":[0,0,0,0,0,0,0,0,0,0,0,0,0,0,0,0,0,0,0,0,0,0,0,0,0,0,0,0,0,0,0,0,0,0,0,0,0,0,0,0,0,0,0,0,0,0,0,0,0,0,0,0,0,0,0,0,0,0,0,0,0,0,0,0,0,0,0,0,0,0,0,0,0,0,0,0,0,0,0,0,0,0,0,0,0,0,0,0,0,0,0,0,0,0,0,0,0,0,0,0,0,0,0,0,0,0,0,0,0,0,0],"sum_hessian":[2.6818E4,1.5719E4,1.1099E4,1.384E4,1.879E3,3.791E3,7.308E3,5.924E3,7.916E3,1.017E3,8.62E2,3.79E3,1E0,3.045E3,4.263E3,3.828E3,2.096E3,1.609E3,6.307E3,1.68E2,8.49E2,1.97E2,6.65E2,1.842E3,1.948E3,2.673E3,3.72E2,3.367E3,8.96E2,1.87E3,1.958E3,1.48E3,6.16E2,1.363E3,2.46E2,4.284E3,2.023E3,2.8E1,1.4E2,8.25E2,2.4E1,1E0,1.96E2,4.56E2,2.09E2,1.687E3,1.55E2,1.918E3,3E1,3.29E2,2.344E3,4.9E1,3.23E2,3.093E3,2.74E2,8.84E2,1.2E1,1.554E3,3.16E2,1.558E3,4E2,9.43E2,5.37E2,2.45E2,3.71E2,1.197E3,1.66E2,9.8E1,1.48E2,2.199E3,2.085E3,8.58E2,1.165E3,2E1,8E0,2.5E1,1.15E2,1.14E2,7.11E2,2.1E1,3E0,5.6E1,1.4E2,4.4E2,1.6E1,6.8E1,1.41E2,8.5E1,1.602E3,6.3E1,9.2E1,1.538E3,3.8E2,2.4E1,6E0,3.3E1,2.96E2,2.267E3,7.7E1,4.6E1,3E0,1.4E2,1.83E2,2.336E3,7.57E2,2.61E2,1.3E1,8.75E2,9E0,6E0,6E0],"tree_param":{"num_deleted":"0","num_feature":"12","num_nodes":"111","size_leaf_vector":"1"}},{"base_weights":[4.624116E-3,-3.8605937E-1,1.2864269E0,-2.6284435E-1,-2.3963087E0,4.703756E0,1.0192635E0,-6.7923427E-1,3.4122828E-1,-9.4874775E-1,-3.5467904E0,5.430043E0,-2.550062E0,4.5687756E-1,2.5097232E0,-4.856376E-1,-2.3258479E0,2.8702838E0,-8.500451E-2,-2.5976093E0,1.4941636E0,-2.2879252E0,-5.294526E0,1.0232335E1,4.5200744E0,6.248838E-1,-8.306623E0,1.4762242E0,-1.0675927E0,5.629425E0,1.7235374E0,-1.0990695E0,3.1186095E-2,2.9197305E-1,-2.6810818E0,2.2295072E0,5.189897E0,2.5662827E0,-3.1078616E-1,-1.5697801E0,-3.703531E0,2.3161047E0,-3.2273188E0,-1.0693022E0,-3.3148487E0,-4.987107E0,-3.3390682E0,1.269251E1,6.939048E0,3.8907218E0,1.1330493E1,-3.6259642E-1,1.9921243E0,3.0206186E-1,-9.81692E0,2.6485682E0,5.280833E-1,-8.6854315E-1,-1.0199749E1,7.1839585E0,2.7573392E0,9.04149E-1,4.223185E0,-6.555582E-2,-4.443446E-1,6.5991086E-1,-8.322045E-2,-1.4952238E0,3.6770767E-1,-1.2778933E0,-6.4366955E-1,1.3509911E0,5.116697E-1,2.1110516E0,1.1694509E0,4.0446556E-1,1.3353944E0,-4.4162113E-2,-1.0847423E0,-2.9255444E-1,-1.6171036E0,-1.5207921E0,-6.975397E-1,1.7010672E0,2.5703615E-1,1.9719925E0,-1.3403528E0,-1.0957539E0,-1.2345174E-1,-9.0804416E-1,-1.5206066E0,-1.4014344E0,-2.0955157E0,5.207842E0,3.0689557E0,1.5046188E0,3.48065E0,1.7856079E0,5.717337E-1,-1.1400147E-1,3.5286891E0,9.427174E-1,-4.9044713E-1,-3.2044208E0,8.352871E-2,4.5182517E-1,1.2246656E0,-3.1276083E-1,4.701252E-1,-9.00354E-2,-1.197777E0,-3.6317163E0,-2.2072332E0,1.7683816E0,2.8409908E0,3.284384E-1,2.2777689E0,4.5506585E-1,-1.6021824E0,2.6433868E0,7.771088E-1],"categories":[],"categories_nodes":[],"categories_segments":[],"categories_sizes":[],"default_left":[0,0,0,0,0,0,0,0,0,0,0,0,0,0,0,0,0,0,0,0,0,0,0,0,0,0,0,0,0,0,0,0,0,0,0,0,0,0,0,0,0,0,0,0,0,0,0,0,0,0,0,0,0,0,0,0,0,0,0,0,0,0,0,0,0,0,0,0,0,0,0,0,0,0,0,0,0,0,0,0,0,0,0,0,0,0,0,0,0,0,0,0,0,0,0,0,0,0,0,0,0,0,0,0,0,0,0,0,0,0,0,0,0,0,0,0,0,0,0,0,0],"id":9,"left_children":[1,3,5,7,9,11,13,15,17,19,21,23,25,27,29,31,33,35,37,39,41,43,45,47,49,51,53,55,57,59,61,63,65,67,69,71,73,75,77,79,81,83,85,87,89,91,-1,93,95,97,99,101,-1,-1,103,105,107,109,111,113,115,117,119,-1,-1,-1,-1,-1,-1,-1,-1,-1,-1,-1,-1,-1,-1,-1,-1,-1,-1,-1,-1,-1,-1,-1,-1,-1,-1,-1,-1,-1,-1,-1,-1,-1,-1,-1,-1,-1,-1,-1,-1,-1,-1,-1,-1,-1,-1,-1,-1,-1,-1,-1,-1,-1,-1,-1,-1,-1,-1],"loss_changes":[1.3430894E4,5.090698E3,5.7150586E3,4.8721113E3,1.973456E3,2.4056787E3,4.8705503E3,3.6539893E3,8.52049E3,2.126649E3,1.4421934E3,1.7585322E3,7.7281494E2,6.5608564E3,3.8949404E3,3.253142E3,1.1222881E3,1.682873E3,4.0504077E3,3.5224634E2,8.3408093E2,4.7950818E2,4.3963818E2,4.3856006E2,1.4517842E3,1.6873389E2,2.2087671E2,2.8108154E3,3.0667778E3,1.4089121E3,2.6035186E3,1.578252E3,3.7279282E3,7.204297E2,8.8861914E2,1.0585654E3,5.594624E2,1.2132224E3,3.3703115E3,3.6957446E2,2.724834E2,8.8598175E2,4.184216E2,3.009593E2,9.023804E1,1.3386572E2,0E0,2.3616797E2,2.1091699E2,1.3020518E3,1.511123E2,1.16615776E2,0E0,0E0,1.1642822E2,1.8463433E3,2.2862578E3,2.9412803E3,1.0595752E2,5.5430566E2,9.0810803E2,3.6814397E3,2.3295254E3,0E0,0E0,0E0,0E0,0E0,0E0,0E0,0E0,0E0,0E0,0E0,0E0,0E0,0E0,0E0,0E0,0E0,0E0,0E0,0E0,0E0,0E0,0E0,0E0,0E0,0E0,0E0,0E0,0E0,0E0,0E0,0E0,0E0,0E0,0E0,0E0,0E0,0E0,0E0,0E0,0E0,0E0,0E0,0E0,0E0,0E0,0E0,0E0,0E0,0E0,0E0,0E0,0E0,0E0,0E0,0E0,0E0,0E0],"parents":[2147483647,0,0,1,1,2,2,3,3,4,4,5,5,6,6,7,7,8,8,9,9,10,10,11,11,12,12,13,13,14,14,15,15,16,16,17,17,18,18,19,19,20,20,21,21,22,22,23,23,24,24,25,25,26,26,27,27,28,28,29,29,30,30,31,31,32,32,33,33,34,34,35,35,36,36,37,37,38,38,39,39,40,40,41,41,42,42,43,43,44,44,45,45,47,47,48,48,49,49,50,50,51,51,54,54,55,55,56,56,57,57,58,58,59,59,60,60,61,61,62,62],"right_children":[2,4,6,8,10,12,14,16,18,20,22,24,26,28,30,32,34,36,38,40,42,44,46,48,50,52,54,56,58,60,62,64,66,68,70,72,74,76,78,80,82,84,86,88,90,92,-1,94,96,98,100,102,-1,-1,104,106,108,110,112,114,116,118,120,-1,-1,-1,-1,-1,-1,-1,-1,-1,-1,-1,-1,-1,-1,-1,-1,-1,-1,-1,-1,-1,-1,-1,-1,-1,-1,-1,-1,-1,-1,-1,-1,-1,-1,-1,-1,-1,-1,-1,-1,-1,-1,-1,-1,-1,-1,-1,-1,-1,-1,-1,-1,-1,-1,-1,-1,-1,-1],"split_conditions":[5.0333332E1,5.5E1,4.7E1,3.5333332E1,3.8E1,9E1,6.6666664E1,3.6E1,3.5E1,4.1333332E1,6.1E1,3.8E1,7.142185E1,5.8E1,6.9E1,2.4666666E1,2E1,4.0333332E1,2.7E1,2.6E1,7.7E1,4.6E1,7.9E1,6.4E1,5.9666668E1,6.474772E1,9.3E1,5.7E1,8.9E1,7.7E1,8.7E1,1.6E1,2.1E1,2.6666666E1,3.1333334E1,2.8E1,3.2E1,4.0333332E1,5.7E1,7.2E1,3.8333332E1,3.1E1,1.9E1,4.1333332E1,5.8E1,5.6E1,-3.3390682E0,3.2E1,5.4E1,5.7E1,1.4E1,2.9E1,1.9921243E0,3.0206186E-1,6.4E1,5.3333332E1,5.6E1,6.9E1,6.2E1,7.0666664E1,7.6666664E1,9.5E1,8.3E1,-6.555582E-2,-4.443446E-1,6.5991086E-1,-8.322045E-2,-1.4952238E0,3.6770767E-1,-1.2778933E0,-6.4366955E-1,1.3509911E0,5.116697E-1,2.1110516E0,1.1694509E0,4.0446556E-1,1.3353944E0,-4.4162113E-2,-1.0847423E0,-2.9255444E-1,-1.6171036E0,-1.5207921E0,-6.975397E-1,1.7010672E0,2.5703615E-1,1.9719925E0,-1.3403528E0,-1.0957539E0,-1.2345174E-1,-9.0804416E-1,-1.5206066E0,-1.4014344E0,-2.0955157E0,5.207842E0,3.0689557E0,1.5046188E0,3.48065E0,1.7856079E0,5.717337E-1,-1.1400147E-1,3.5286891E0,9.427174E-1,-4.9044713E-1,-3.2044208E0,8.352871E-2,4.5182517E-1,1.2246656E0,-3.1276083E-1,4.701252E-1,-9.00354E-2,-1.197777E0,-3.6317163E0,-2.2072332E0,1.7683816E0,2.8409908E0,3.284384E-1,2.2777689E0,4.5506585E-1,-1.6021824E0,2.6433868E0,7.771088E-1],"split_indices":[4,2,1,4,1,2,4,1,1,4,2,1,10,2,1,4,2,4,2,1,2,1,2,2,4,10,2,1,2,2,4,2,1,4,4,1,1,4,1,2,4,1,1,4,1,1,0,1,4,2,3,1,0,0,4,4,4,1,4,4,4,1,2,0,0,0,0,0,0,0,0,0,0,0,0,0,0,0,0,0,0,0,0,0,0,0,0,0,0,0,0,0,0,0,0,0,0,0,0,0,0,0,0,0,0,0,0,0,0,0,0,0,0,0,0,0,0,0,0,0,0],"split_type":[0,0,0,0,0,0,0,0,0,0,0,0,0,0,0,0,0,0,0,0,0,0,0,0,0,0,0,0,0,0,0,0,0,0,0,0,0,0,0,0,0,0,0,0,0,0,0,0,0,0,0,0,0,0,0,0,0,0,0,0,0,0,0,0,0,0,0,0,0,0,0,0,0,0,0,0,0,0,0,0,0,0,0,0,0,0,0,0,0,0,0,0,0,0,0,0,0,0,0,0,0,0,0,0,0,0,0,0,0,0,0,0,0,0,0,0,0,0,0,0,0],"sum_hessian":[2.6818E4,2.0554E4,6.264E3,1.9368E4,1.186E3,4.53E2,5.811E3,1.1465E4,7.903E3,5.26E2,6.6E2,4.12E2,4.1E1,4.22E3,1.591E3,1.026E4,1.205E3,1.139E3,6.764E3,3.14E2,2.12E2,3.85E2,2.75E2,6.4E1,3.48E2,2.7E1,1.4E1,2.529E3,1.691E3,3.19E2,1.272E3,4.691E3,5.569E3,1.44E2,1.061E3,8.94E2,2.45E2,5.3E2,6.234E3,1.64E2,1.5E2,1.81E2,3.1E1,1.77E2,2.08E2,2.63E2,1.2E1,3.5E1,2.9E1,3.2E2,2.8E1,2.4E1,3E0,2E0,1.2E1,1.13E3,1.399E3,1.656E3,3.5E1,2.06E2,1.13E2,9.59E2,3.13E2,1.42E3,3.271E3,6.93E2,4.876E3,2.1E1,1.23E2,2.67E2,7.94E2,1.66E2,7.28E2,9.9E1,1.46E2,3.23E2,2.07E2,5.941E3,2.93E2,1.43E2,2.1E1,7.4E1,7.6E1,5.4E1,1.27E2,3E0,2.8E1,3.5E1,1.42E2,1.81E2,2.7E1,2.3E2,3.3E1,1E1,2.5E1,2.2E1,7E0,1.56E2,1.64E2,1E0,2.7E1,6E0,1.8E1,1.1E1,1E0,6.3E2,5E2,5.57E2,8.42E2,1.402E3,2.54E2,1.9E1,1.6E1,1.34E2,7.2E1,8.5E1,2.8E1,8.74E2,8.5E1,8.1E1,2.32E2],"tree_param":{"num_deleted":"0","num_feature":"12","num_nodes":"121","size_leaf_vector":"1"}},{"base_weights":[3.7444693E-3,-1.650586E-1,1.7435817E0,-6.087203E-2,-1.8972762E0,5.102852E0,1.0941582E0,-4.2949116E-1,5.967672E-1,-1.3173155E0,-3.4703667E0,5.670345E0,8.0654524E-2,1.0262702E1,9.532651E-1,-1.2663814E-1,-1.1953436E0,2.407483E0,1.9702512E-1,-2.5060947E0,-3.2357296E-1,-2.7970622E0,-5.556457E0,8.457852E0,4.824339E0,-2.1820002E0,1.105917E1,1.1890805E1,3.2145364E0,1.1069267E0,-5.763156E0,-9.412688E-1,2.2377902E-1,-8.218639E-1,-2.5174289E0,1.9011836E0,5.452994E0,3.9003405E-1,-2.204702E0,-8.085417E-1,-3.6889129E0,1.8915119E0,-9.601088E-1,-3.8931441E0,-1.625659E0,-5.007576E0,-8.706885E0,1.0236166E1,7.029295E0,4.460462E0,1.1081509E1,-5.2719045E0,5.348665E-1,4.081889E0,4.5814977E0,5.534421E0,3.8656085E0,1.3044853E0,1.2962861E0,4.287337E-1,3.1764443E0,-9.8705435E0,6.0124216E0,-6.840911E-2,-4.3726456E-1,8.82449E-1,1.923294E-2,-4.853768E-1,-1.817E-2,-9.803175E-1,-5.60776E-1,1.111712E0,3.815584E-1,1.3777335E0,2.7180173E0,-3.243439E-2,4.599583E-1,-5.2377033E-1,-2.3391535E0,-7.042707E-1,5.655941E-1,-1.0176393E0,-2.4676263E0,6.92969E-1,-2.0165122E0,-1.6172598E-1,-2.3327842E0,-1.4192396E0,-1.0303774E0,1.2357457E-1,-8.013213E-1,-1.9486328E0,-1.0832591E0,-3.362412E0,-1.3013175E0,3.1601455E0,1.0669556E-1,2.4516592E0,1.4744706E0,1.5537945E0,4.0419576E-1,9.326363E-1,3.4366972E0,2.7374651E-2,-1.8133762E0,8.668564E-1,-7.2074234E-1,1.499291E0,2.0019723E-1,1.8582002E0,4.3441546E-1,6.38649E-2,4.7921753E-1,3.0489108E-1,-1.3403763E0,1.7088751E0,4.348705E-1,-3.1747787E0,1.9372685E0,-2.2922578E0,2.8521492E0],"categories":[],"categories_nodes":[],"categories_segments":[],"categories_sizes":[],"default_left":[0,0,0,0,0,0,0,0,0,0,0,0,0,0,0,0,0,0,0,0,0,0,0,0,0,0,0,0,0,0,0,0,0,0,0,0,0,0,0,0,0,0,0,0,0,0,0,0,0,0,0,0,0,0,0,0,0,0,0,0,0,0,0,0,0,0,0,0,0,0,0,0,0,0,0,0,0,0,0,0,0,0,0,0,0,0,0,0,0,0,0,0,0,0,0,0,0,0,0,0,0,0,0,0,0,0,0,0,0,0,0,0,0,0,0,0,0,0,0,0,0],"id":10,"left_children":[1,3,5,7,9,11,13,15,17,19,21,23,25,27,29,31,33,35,37,39,41,43,45,47,49,51,53,55,57,59,61,63,65,67,69,71,73,75,77,79,81,83,85,87,89,91,93,95,97,99,101,103,105,107,-1,109,-1,111,-1,113,115,117,119,-1,-1,-1,-1,-1,-1,-1,-1,-1,-1,-1,-1,-1,-1,-1,-1,-1,-1,-1,-1,-1,-1,-1,-1,-1,-1,-1,-1,-1,-1,-1,-1,-1,-1,-1,-1,-1,-1,-1,-1,-1,-1,-1,-1,-1,-1,-1,-1,-1,-1,-1,-1,-1,-1,-1,-1,-1,-1],"loss_changes":[7.8767563E3,4.412108E3,5.1691455E3,5.590909E3,1.260831E3,1.0939658E3,2.5595767E3,3.427701E3,5.9956455E3,1.1982495E3,5.0836426E2,7.72792E2,1.0177547E3,3.0603052E2,2.0292091E3,3.0238086E3,2.0658481E3,2.29946E3,3.1470063E3,9.246655E2,7.829455E2,3.583142E2,1.1202832E2,1.2874023E2,5.584873E2,2.8824493E2,1.4340479E2,8.040991E1,9.156563E0,2.6892095E3,2.1874875E3,1.1728503E3,3.2139739E3,1.9798259E3,4.4228223E2,1.4557026E3,6.1955615E2,3.578107E3,1.2821326E3,7.96296E2,3.383069E2,4.623779E2,1.2326139E3,3.98313E1,2.9718478E2,1.4071753E2,8.251788E1,9.330493E1,7.3411865E1,5.614463E2,6.1485596E0,6.6855835E1,1.3835405E2,9.172462E0,0E0,4.507187E0,0E0,9.388919E-1,0E0,4.1619883E3,2.0499521E3,4.52011E2,6.4521924E2,0E0,0E0,0E0,0E0,0E0,0E0,0E0,0E0,0E0,0E0,0E0,0E0,0E0,0E0,0E0,0E0,0E0,0E0,0E0,0E0,0E0,0E0,0E0,0E0,0E0,0E0,0E0,0E0,0E0,0E0,0E0,0E0,0E0,0E0,0E0,0E0,0E0,0E0,0E0,0E0,0E0,0E0,0E0,0E0,0E0,0E0,0E0,0E0,0E0,0E0,0E0,0E0,0E0,0E0,0E0,0E0,0E0,0E0],"parents":[2147483647,0,0,1,1,2,2,3,3,4,4,5,5,6,6,7,7,8,8,9,9,10,10,11,11,12,12,13,13,14,14,15,15,16,16,17,17,18,18,19,19,20,20,21,21,22,22,23,23,24,24,25,25,26,26,27,27,28,28,29,29,30,30,31,31,32,32,33,33,34,34,35,35,36,36,37,37,38,38,39,39,40,40,41,41,42,42,43,43,44,44,45,45,46,46,47,47,48,48,49,49,50,50,51,51,52,52,53,53,55,55,57,57,59,59,60,60,61,61,62,62],"right_children":[2,4,6,8,10,12,14,16,18,20,22,24,26,28,30,32,34,36,38,40,42,44,46,48,50,52,54,56,58,60,62,64,66,68,70,72,74,76,78,80,82,84,86,88,90,92,94,96,98,100,102,104,106,108,-1,110,-1,112,-1,114,116,118,120,-1,-1,-1,-1,-1,-1,-1,-1,-1,-1,-1,-1,-1,-1,-1,-1,-1,-1,-1,-1,-1,-1,-1,-1,-1,-1,-1,-1,-1,-1,-1,-1,-1,-1,-1,-1,-1,-1,-1,-1,-1,-1,-1,-1,-1,-1,-1,-1,-1,-1,-1,-1,-1,-1,-1,-1,-1,-1],"split_conditions":[6.2E1,6.2E1,6.3E1,4.0333332E1,5.8E1,9.5E1,3.8E1,3.5E1,4.2E1,5E1,7.1E1,5.5E1,7E-1,1.07E2,1.28E2,2.2E1,3.9E1,4.7E1,6.5E1,3.4E1,4.4E1,5.9E1,8.5E1,5E1,7.3333336E1,6.2E1,8.7E1,6.2666668E1,2E1,8.1E1,1.26E2,1.6E1,1.9E1,3.3333332E1,3.8E1,3.9E1,5.2E1,5.2E1,8E1,4.2E1,7.9E1,1E2,8.6E1,8.345834E0,6.2E1,5.8666668E1,1.5999999E0,1.7347E1,6.6E1,7.5E1,3.3E1,1E0,4E-1,4.5E1,4.5814977E0,1E0,3.8656085E0,1.09E2,1.2962861E0,8.6E1,9E1,3.1174166E1,2.4224955E1,-6.840911E-2,-4.3726456E-1,8.82449E-1,1.923294E-2,-4.853768E-1,-1.817E-2,-9.803175E-1,-5.60776E-1,1.111712E0,3.815584E-1,1.3777335E0,2.7180173E0,-3.243439E-2,4.599583E-1,-5.2377033E-1,-2.3391535E0,-7.042707E-1,5.655941E-1,-1.0176393E0,-2.4676263E0,6.92969E-1,-2.0165122E0,-1.6172598E-1,-2.3327842E0,-1.4192396E0,-1.0303774E0,1.2357457E-1,-8.013213E-1,-1.9486328E0,-1.0832591E0,-3.362412E0,-1.3013175E0,3.1601455E0,1.0669556E-1,2.4516592E0,1.4744706E0,1.5537945E0,4.0419576E-1,9.326363E-1,3.4366972E0,2.7374651E-2,-1.8133762E0,8.668564E-1,-7.2074234E-1,1.499291E0,2.0019723E-1,1.8582002E0,4.3441546E-1,6.38649E-2,4.7921753E-1,3.0489108E-1,-1.3403763E0,1.7088751E0,4.348705E-1,-3.1747787E0,1.9372685E0,-2.2922578E0,2.8521492E0],"split_indices":[4,2,1,4,1,2,2,2,1,4,2,1,6,1,2,4,1,4,1,1,1,4,2,1,4,9,3,4,3,4,3,1,1,4,4,2,4,4,1,4,2,2,2,5,1,4,6,11,3,2,2,9,6,1,0,0,0,1,0,1,1,5,10,0,0,0,0,0,0,0,0,0,0,0,0,0,0,0,0,0,0,0,0,0,0,0,0,0,0,0,0,0,0,0,0,0,0,0,0,0,0,0,0,0,0,0,0,0,0,0,0,0,0,0,0,0,0,0,0,0,0],"split_type":[0,0,0,0,0,0,0,0,0,0,0,0,0,0,0,0,0,0,0,0,0,0,0,0,0,0,0,0,0,0,0,0,0,0,0,0,0,0,0,0,0,0,0,0,0,0,0,0,0,0,0,0,0,0,0,0,0,0,0,0,0,0,0,0,0,0,0,0,0,0,0,0,0,0,0,0,0,0,0,0,0,0,0,0,0,0,0,0,0,0,0,0,0,0,0,0,0,0,0,0,0,0,0,0,0,0,0,0,0,0,0,0,0,0,0,0,0,0,0,0,0],"sum_hessian":[2.6818E4,2.4447E4,2.371E3,2.3061E4,1.386E3,3.83E2,1.988E3,1.4778E4,8.283E3,1.014E3,3.72E2,3.44E2,3.9E1,2.9E1,1.959E3,1.0591E4,4.187E3,1.497E3,6.786E3,4.61E2,5.53E2,2.83E2,8.9E1,7.8E1,2.66E2,3.3E1,6E0,2.3E1,6E0,1.916E3,4.3E1,3.185E3,7.406E3,3.266E3,9.21E2,1.285E3,2.12E2,6.282E3,5.04E2,1.9E2,2.71E2,1.23E2,4.3E2,1.45E2,1.38E2,7.8E1,1.1E1,3.2E1,4.6E1,2.53E2,1.3E1,1.5E1,1.8E1,3E0,3E0,4E0,1.9E1,3E0,3E0,1.444E3,4.72E2,3.2E1,1.1E1,1.338E3,1.847E3,4.1E2,6.996E3,1.596E3,1.67E3,4.25E2,4.96E2,3.31E2,9.54E2,1.73E2,3.9E1,4.376E3,1.906E3,4.67E2,3.7E1,1.21E2,6.9E1,2.56E2,1.5E1,1.18E2,5E0,4.06E2,2.4E1,4.8E1,9.7E1,4.7E1,9.1E1,3.6E1,4.2E1,6E0,5E0,3.1E1,1E0,2.8E1,1.8E1,2.05E2,4.8E1,1E0,1.2E1,2E0,1.3E1,1E1,8E0,2E0,1E0,3E0,1E0,1E0,2E0,1.29E3,1.54E2,1.91E2,2.81E2,3.1E1,1E0,2E0,9E0],"tree_param":{"num_deleted":"0","num_feature":"12","num_nodes":"121","size_leaf_vector":"1"}},{"base_weights":[2.987132E-3,1.1331598E0,-1.4590316E-1,1.6836866E0,2.2816329E-1,-2.5523546E-1,8.525936E-1,1.7299249E0,-5.8932743E0,-2.8875285E-1,7.989404E-1,-7.707041E-2,-1.0414718E0,3.4728785E0,4.265202E-1,1.6358441E0,5.464356E0,-7.587159E0,5.152298E-1,-2.1772595E-1,-5.703974E0,3.195331E-1,2.125623E0,-2.7617297E-1,9.183317E-1,-7.2138E-1,-2.245971E0,7.8569775E0,2.834478E0,2.244742E0,-1.458097E-1,1.7764138E0,-1.8395224E-1,3.6443055E0,4.560147E0,-2.9178543E0,-3.064116E0,-2.814031E-1,3.0001938E0,-9.601011E-1,-2.507483E0,3.8935634E-1,-6.9346886E0,3.7007694E0,1.6456178E0,-1.7986579E-1,-2.1509886E0,2.186988E0,3.407474E-1,-1.5648688E0,1.3236295E-1,-3.2829392E0,-1.7101423E0,9.165359E0,-1.3028075E0,2.3745725E0,5.3889513E0,1.5039856E0,4.0077925E0,-4.3274584E-1,3.9238772E0,1.3344416E-1,6.1092675E-1,-6.3242424E-1,2.9859775E-1,1.5641905E0,-1.0222397E-1,-2.2840692E-1,-9.79992E-1,-6.2158577E-2,-8.481608E-1,1.0106875E0,2.3127443E-1,-5.442517E-1,2.4031678E-1,1.737183E-1,-4.0102068E-1,-2.348256E0,-6.384293E-1,3.7196544E-1,1.5495397E0,2.0464648E-1,9.2907834E-1,-1.7383386E-1,6.887564E-2,-5.4203063E-1,-1.4071915E0,5.0046027E-1,1.1100585E0,5.6059235E-1,-4.0105395E-2,-1.9535238E-1,-6.110976E-1,3.8332936E-1,-1.416103E-1,-9.364608E-1,-1.443255E0,-4.076148E-1,-1.0521865E0,2.934369E0,1.0172131E0,4.7793093E-1,-2.3673542E0,1.0788362E0,2.3751567E-1,2.2181334E0,2.1239059E-1,5.342735E-1,-1.8710434E0,1.4913958E0,2.402886E-1,-2.2135347E-3,-1.7100232E0,9.452136E-1,1.2186061E1],"categories":[],"categories_nodes":[],"categories_segments":[],"categories_sizes":[],"default_left":[0,0,0,0,0,0,0,0,0,0,0,0,0,0,0,0,0,0,0,0,0,0,0,0,0,0,0,0,0,0,0,0,0,0,0,0,0,0,0,0,0,0,0,0,0,0,0,0,0,0,0,0,0,0,0,0,0,0,0,0,0,0,0,0,0,0,0,0,0,0,0,0,0,0,0,0,0,0,0,0,0,0,0,0,0,0,0,0,0,0,0,0,0,0,0,0,0,0,0,0,0,0,0,0,0,0,0,0,0,0,0,0,0,0,0],"id":11,"left_children":[1,3,5,7,9,11,13,15,17,19,21,23,25,27,29,31,33,35,-1,37,39,41,43,45,47,49,51,53,55,57,59,61,63,-1,65,67,-1,69,71,73,-1,75,77,79,81,83,85,87,89,91,93,95,97,99,101,103,105,107,109,111,113,-1,-1,-1,-1,-1,-1,-1,-1,-1,-1,-1,-1,-1,-1,-1,-1,-1,-1,-1,-1,-1,-1,-1,-1,-1,-1,-1,-1,-1,-1,-1,-1,-1,-1,-1,-1,-1,-1,-1,-1,-1,-1,-1,-1,-1,-1,-1,-1,-1,-1,-1,-1,-1,-1],"loss_changes":[4.5130444E3,1.5550737E3,2.5872798E3,6.902158E2,3.489726E2,2.9920254E3,2.609857E3,6.6914355E2,1.6773035E2,2.3761105E2,3.5676474E2,3.451682E3,1.5197617E3,8.929407E2,2.0951008E3,4.8226953E2,2.2863159E2,9.284003E1,0E0,1.26657745E2,9.270862E1,2.1239658E2,1.06565674E2,2.6200537E3,2.126445E3,2.2462695E3,4.544536E2,5.033047E2,3.2437573E2,6.234597E2,1.7906763E3,6.046465E2,3.1069345E2,0E0,1.3956195E2,1.2736969E0,0E0,1.1333191E2,7.267761E0,7.469866E0,0E0,1.35355E2,5.081787E-1,1.1611914E2,1.6008823E2,2.2587512E3,6.1133105E2,7.066372E2,1.4471135E3,6.755027E2,1.0743256E3,5.4280273E1,3.413319E2,9.48667E1,1.2704748E2,4.7086816E2,3.983015E2,7.420842E2,4.347793E2,3.2084268E3,2.737622E3,0E0,0E0,0E0,0E0,0E0,0E0,0E0,0E0,0E0,0E0,0E0,0E0,0E0,0E0,0E0,0E0,0E0,0E0,0E0,0E0,0E0,0E0,0E0,0E0,0E0,0E0,0E0,0E0,0E0,0E0,0E0,0E0,0E0,0E0,0E0,0E0,0E0,0E0,0E0,0E0,0E0,0E0,0E0,0E0,0E0,0E0,0E0,0E0,0E0,0E0,0E0,0E0,0E0,0E0],"parents":[2147483647,0,0,1,1,2,2,3,3,4,4,5,5,6,6,7,7,8,8,9,9,10,10,11,11,12,12,13,13,14,14,15,15,16,16,17,17,19,19,20,20,21,21,22,22,23,23,24,24,25,25,26,26,27,27,28,28,29,29,30,30,31,31,32,32,34,34,35,35,37,37,38,38,39,39,41,41,42,42,43,43,44,44,45,45,46,46,47,47,48,48,49,49,50,50,51,51,52,52,53,53,54,54,55,55,56,56,57,57,58,58,59,59,60,60],"right_children":[2,4,6,8,10,12,14,16,18,20,22,24,26,28,30,32,34,36,-1,38,40,42,44,46,48,50,52,54,56,58,60,62,64,-1,66,68,-1,70,72,74,-1,76,78,80,82,84,86,88,90,92,94,96,98,100,102,104,106,108,110,112,114,-1,-1,-1,-1,-1,-1,-1,-1,-1,-1,-1,-1,-1,-1,-1,-1,-1,-1,-1,-1,-1,-1,-1,-1,-1,-1,-1,-1,-1,-1,-1,-1,-1,-1,-1,-1,-1,-1,-1,-1,-1,-1,-1,-1,-1,-1,-1,-1,-1,-1,-1,-1,-1,-1],"split_conditions":[9.107359E0,1.06195E1,5.9E1,1.05E2,6.363979E1,5E1,5.4E1,8.7E1,5.1725E0,7.2E1,2.4678772E2,4.3333332E1,5.7E1,3.6E1,6.3E1,7.6E1,5.7E1,5.7E1,5.152298E-1,6.4E1,2.1297918E1,8.5E1,3.8E1,4.7E1,4.7E1,4.7666668E1,5.4E1,2.2493519E1,7.3333336E1,6.4E1,1.02666664E2,3.1333334E1,9.5E1,3.6443055E0,7.9932966E0,1.31E2,-3.064116E0,7.1E1,7.7E1,5.4E1,-2.507483E0,8.200001E0,6.6E1,6.6087217E0,7.922495E1,2.9E1,5.5E1,4.7333332E1,3.8E1,3.3E1,4.8E1,6.6E1,6.5E1,1E0,1.33E2,6.8E1,9.6E1,9.6E1,9E1,9.9E1,1.18E1,1.3344416E-1,6.1092675E-1,-6.3242424E-1,2.9859775E-1,1.5641905E0,-1.0222397E-1,-2.2840692E-1,-9.79992E-1,-6.2158577E-2,-8.481608E-1,1.0106875E0,2.3127443E-1,-5.442517E-1,2.4031678E-1,1.737183E-1,-4.0102068E-1,-2.348256E0,-6.384293E-1,3.7196544E-1,1.5495397E0,2.0464648E-1,9.2907834E-1,-1.7383386E-1,6.887564E-2,-5.4203063E-1,-1.4071915E0,5.0046027E-1,1.1100585E0,5.6059235E-1,-4.0105395E-2,-1.9535238E-1,-6.110976E-1,3.8332936E-1,-1.416103E-1,-9.364608E-1,-1.443255E0,-4.076148E-1,-1.0521865E0,2.934369E0,1.0172131E0,4.7793093E-1,-2.3673542E0,1.0788362E0,2.3751567E-1,2.2181334E0,2.1239059E-1,5.342735E-1,-1.8710434E0,1.4913958E0,2.402886E-1,-2.2135347E-3,-1.7100232E0,9.452136E-1,1.2186061E1],"split_indices":[7,5,4,1,10,2,2,4,11,1,8,4,1,2,1,2,3,2,0,4,5,3,9,1,1,4,4,7,4,4,4,4,9,0,7,1,0,2,3,2,0,6,1,7,10,4,1,4,2,1,1,2,2,0,1,1,1,2,2,2,6,0,0,0,0,0,0,0,0,0,0,0,0,0,0,0,0,0,0,0,0,0,0,0,0,0,0,0,0,0,0,0,0,0,0,0,0,0,0,0,0,0,0,0,0,0,0,0,0,0,0,0,0,0,0],"split_type":[0,0,0,0,0,0,0,0,0,0,0,0,0,0,0,0,0,0,0,0,0,0,0,0,0,0,0,0,0,0,0,0,0,0,0,0,0,0,0,0,0,0,0,0,0,0,0,0,0,0,0,0,0,0,0,0,0,0,0,0,0,0,0,0,0,0,0,0,0,0,0,0,0,0,0,0,0,0,0,0,0,0,0,0,0,0,0,0,0,0,0,0,0,0,0,0,0,0,0,0,0,0,0,0,0,0,0,0,0,0,0,0,0,0,0],"sum_hessian":[2.6818E4,3.121E3,2.3697E4,1.94E3,1.181E3,2.1359E4,2.338E3,1.929E3,1.1E1,6.2E2,5.61E2,1.7414E4,3.945E3,3.26E2,2.012E3,1.883E3,4.6E1,9E0,2E0,6.13E2,7E0,4.13E2,1.48E2,1.4512E4,2.902E3,3.118E3,8.27E2,4E1,2.86E2,4.81E2,1.531E3,1.748E3,1.35E2,4E0,4.2E1,4E0,5E0,6.02E2,1.1E1,3E0,4E0,4.1E2,3E0,3.3E1,1.15E2,1.3804E4,7.08E2,9.07E2,1.995E3,1.568E3,1.55E3,2.8E2,5.47E2,3.5E1,5E0,2.44E2,4.2E1,3.4E2,1.41E2,1.431E3,1E2,2.86E2,1.462E3,5.1E1,8.4E1,3.7E1,5E0,1E0,3E0,5.86E2,1.6E1,9E0,2E0,2E0,1E0,3.7E2,4E1,2E0,1E0,1.3E1,2E1,7E1,4.5E1,6.986E3,6.818E3,6.25E2,8.3E1,6.77E2,2.3E2,4.72E2,1.523E3,5.35E2,1.033E3,5.35E2,1.015E3,2.56E2,2.4E1,4.59E2,8.8E1,3.1E1,4E0,4E0,1E0,1.37E2,1.07E2,2.9E1,1.3E1,3.29E2,1.1E1,1.08E2,3.3E1,1.325E3,1.06E2,9.9E1,1E0],"tree_param":{"num_deleted":"0","num_feature":"12","num_nodes":"115","size_leaf_vector":"1"}},{"base_weights":[2.5540355E-3,-8.5452996E-2,1.1249809E0,-3.7014306E-2,-1.9799712E0,2.0887766E0,-2.1133396E-1,1.3180251E-1,-5.0343543E-1,-1.6449921E0,-4.1577E0,1.9840243E0,1.3654058E1,-1.4478735E0,1.5052961E0,6.774518E-1,-1.9510917E-2,-9.0576935E-1,-1.05908774E-1,-2.1276355E0,-7.3256963E-1,-5.865299E0,-1.3062856E0,2.4594085E0,-7.742732E-1,4.1732216E0,1.0315481E1,-2.4864015E-1,-3.9779632E0,3.3905802E0,-2.0081751E-1,1.2750079E-1,1.740538E0,-5.100987E-1,3.0180457E-1,-5.137103E-1,-1.3455534E0,-7.702139E-2,-7.2773867E0,-1.8931836E-1,-2.687847E0,1.5322447E0,-1.8324587E0,-6.946191E0,-1.3033139E0,1.2249929E0,-2.8863025E0,1.8730155E0,4.364028E0,1.4160409E0,-2.1979015E0,-2.6815095E0,1.0033478E1,-1.1083736E0,2.5236006E0,-3.526135E0,-3.869423E0,4.840118E0,3.7502924E-1,1.0429336E1,-9.499999E-1,1.0694546E-1,-5.7747275E-1,4.5969495E-1,2.0044327E0,-4.383618E-3,-3.541594E-1,8.348464E-1,4.6362028E-2,-6.4899963E-3,-3.5352838E-1,-2.0442837E-1,-5.3314304E-1,-7.249254E-2,1.2459271E-1,-2.454493E0,5.360539E-1,-5.8655906E-1,1.0048351E0,-1.8085877E0,-7.573726E-1,1.4048513E0,2.0473371E-1,-4.762908E-1,-1.4597864E0,-9.485295E-1,-2.330345E0,9.9606824E-1,-8.099045E-1,1.3801152E0,-7.429882E-2,-5.257237E-1,-1.3104258E0,7.4097216E-1,4.8011053E-2,1.8664739E0,7.971361E-1,1.5302563E-1,1.4233751E0,-1.4075065E0,-8.0450565E-2,4.3942866E0,1.610382E-1,1.3284937E0,-4.605017E-1,1.3082262E0,-2.0027263E-1,-2.1112154E0,-7.58135E-1,2.050772E0,6.648169E-1,-4.4462758E-1,2.0995386E0,6.280466E-1,5.5248804E0,-4.530788E-1,3.1752303E0],"categories":[],"categories_nodes":[],"categories_segments":[],"categories_sizes":[],"default_left":[0,0,0,0,0,0,0,0,0,0,0,0,0,0,0,0,0,0,0,0,0,0,0,0,0,0,0,0,0,0,0,0,0,0,0,0,0,0,0,0,0,0,0,0,0,0,0,0,0,0,0,0,0,0,0,0,0,0,0,0,0,0,0,0,0,0,0,0,0,0,0,0,0,0,0,0,0,0,0,0,0,0,0,0,0,0,0,0,0,0,0,0,0,0,0,0,0,0,0,0,0,0,0,0,0,0,0,0,0,0,0,0,0,0,0,0,0],"id":12,"left_children":[1,3,5,7,9,11,13,15,17,19,21,23,25,27,29,31,33,35,37,39,41,43,45,47,49,51,-1,53,55,57,59,61,63,65,67,69,71,73,75,77,79,81,83,85,87,89,91,93,95,97,99,-1,101,103,105,107,-1,109,111,113,115,-1,-1,-1,-1,-1,-1,-1,-1,-1,-1,-1,-1,-1,-1,-1,-1,-1,-1,-1,-1,-1,-1,-1,-1,-1,-1,-1,-1,-1,-1,-1,-1,-1,-1,-1,-1,-1,-1,-1,-1,-1,-1,-1,-1,-1,-1,-1,-1,-1,-1,-1,-1,-1,-1,-1,-1],"loss_changes":[2.649316E3,2.2821965E3,2.511914E3,1.9095835E3,4.4544678E2,1.3455288E3,1.7385325E3,1.4702314E3,1.0307078E3,2.358031E2,3.916023E2,1.4757495E3,1.8219648E3,1.4432747E3,1.1039434E3,2.2600168E3,2.1978796E3,5.51574E2,6.7127625E2,3.8171655E2,4.7112418E2,2.4242834E2,1.3151851E2,1.0628911E3,5.2073236E2,7.043809E2,0E0,7.750149E2,5.7116455E2,7.10683E2,1.4513782E3,1.1986376E3,1.3457236E3,1.8330096E3,3.0777751E3,5.543959E2,4.3131372E2,2.6196524E2,1.21172424E2,5.0647162E2,1.3368921E2,1.6280121E2,8.65936E1,1.0292444E2,7.998136E1,6.575958E1,2.5948914E1,7.5111475E2,6.9686865E2,1.966036E2,4.8478848E2,0E0,2.5505164E2,5.92605E2,4.5433746E2,4.978628E2,0E0,5.609292E2,6.746003E2,7.603799E2,1.1145461E3,0E0,0E0,0E0,0E0,0E0,0E0,0E0,0E0,0E0,0E0,0E0,0E0,0E0,0E0,0E0,0E0,0E0,0E0,0E0,0E0,0E0,0E0,0E0,0E0,0E0,0E0,0E0,0E0,0E0,0E0,0E0,0E0,0E0,0E0,0E0,0E0,0E0,0E0,0E0,0E0,0E0,0E0,0E0,0E0,0E0,0E0,0E0,0E0,0E0,0E0,0E0,0E0,0E0,0E0,0E0,0E0],"parents":[2147483647,0,0,1,1,2,2,3,3,4,4,5,5,6,6,7,7,8,8,9,9,10,10,11,11,12,12,13,13,14,14,15,15,16,16,17,17,18,18,19,19,20,20,21,21,22,22,23,23,24,24,25,25,27,27,28,28,29,29,30,30,31,31,32,32,33,33,34,34,35,35,36,36,37,37,38,38,39,39,40,40,41,41,42,42,43,43,44,44,45,45,46,46,47,47,48,48,49,49,50,50,52,52,53,53,54,54,55,55,57,57,58,58,59,59,60,60],"right_children":[2,4,6,8,10,12,14,16,18,20,22,24,26,28,30,32,34,36,38,40,42,44,46,48,50,52,-1,54,56,58,60,62,64,66,68,70,72,74,76,78,80,82,84,86,88,90,92,94,96,98,100,-1,102,104,106,108,-1,110,112,114,116,-1,-1,-1,-1,-1,-1,-1,-1,-1,-1,-1,-1,-1,-1,-1,-1,-1,-1,-1,-1,-1,-1,-1,-1,-1,-1,-1,-1,-1,-1,-1,-1,-1,-1,-1,-1,-1,-1,-1,-1,-1,-1,-1,-1,-1,-1,-1,-1,-1,-1,-1,-1,-1,-1,-1,-1],"split_conditions":[6.4333336E1,7E1,7.6E1,2.0240196E1,8.7E1,1.02666664E2,8.3666664E1,2.4E1,1.3286584E1,5.8666668E1,1.9033169E1,8.8E1,7.3E1,7.9E1,9.5E1,2.6666666E1,3.8E1,2.487975E1,7.9E1,3.3E1,5.6E1,8.603729E1,3.1E1,7.3333336E1,6.2E1,1.3246826E1,1.0315481E1,7.6666664E1,1.07E2,1.03E2,-1.0575E0,2.8E1,4.6E1,3.1E1,3.4E1,3E1,2.5E1,4.7333332E1,7.8E1,4.5333332E1,4.3333332E1,4.5E1,7.8E1,2E0,5.542917E0,2.1105756E2,2.4135876E2,7.4E1,7.8E1,1.5382E1,7.8666664E1,-2.6815095E0,1E0,5.2E1,9E1,7.4666664E1,-3.869423E0,1.5452367E2,1.3882E1,7.2786736E1,3.3456775E2,1.0694546E-1,-5.7747275E-1,4.5969495E-1,2.0044327E0,-4.383618E-3,-3.541594E-1,8.348464E-1,4.6362028E-2,-6.4899963E-3,-3.5352838E-1,-2.0442837E-1,-5.3314304E-1,-7.249254E-2,1.2459271E-1,-2.454493E0,5.360539E-1,-5.8655906E-1,1.0048351E0,-1.8085877E0,-7.573726E-1,1.4048513E0,2.0473371E-1,-4.762908E-1,-1.4597864E0,-9.485295E-1,-2.330345E0,9.9606824E-1,-8.099045E-1,1.3801152E0,-7.429882E-2,-5.257237E-1,-1.3104258E0,7.4097216E-1,4.8011053E-2,1.8664739E0,7.971361E-1,1.5302563E-1,1.4233751E0,-1.4075065E0,-8.0450565E-2,4.3942866E0,1.610382E-1,1.3284937E0,-4.605017E-1,1.3082262E0,-2.0027263E-1,-2.1112154E0,-7.58135E-1,2.050772E0,6.648169E-1,-4.4462758E-1,2.0995386E0,6.280466E-1,5.5248804E0,-4.530788E-1,3.1752303E0],"split_indices":[4,2,2,7,2,4,4,2,5,4,5,1,2,1,1,4,4,7,1,1,1,10,1,4,2,7,0,4,2,2,11,1,4,1,1,1,2,4,3,4,4,1,1,9,5,8,8,1,1,11,4,0,0,1,2,4,0,8,11,10,8,0,0,0,0,0,0,0,0,0,0,0,0,0,0,0,0,0,0,0,0,0,0,0,0,0,0,0,0,0,0,0,0,0,0,0,0,0,0,0,0,0,0,0,0,0,0,0,0,0,0,0,0,0,0,0,0],"split_type":[0,0,0,0,0,0,0,0,0,0,0,0,0,0,0,0,0,0,0,0,0,0,0,0,0,0,0,0,0,0,0,0,0,0,0,0,0,0,0,0,0,0,0,0,0,0,0,0,0,0,0,0,0,0,0,0,0,0,0,0,0,0,0,0,0,0,0,0,0,0,0,0,0,0,0,0,0,0,0,0,0,0,0,0,0,0,0,0,0,0,0,0,0,0,0,0,0,0,0,0,0,0,0,0,0,0,0,0,0,0,0,0,0,0,0,0,0],"sum_hessian":[2.6818E4,2.4869E4,1.949E3,2.425E4,6.19E2,1.132E3,8.17E2,1.7806E4,6.444E3,5.38E2,8.1E1,1.123E3,9E0,4.75E2,3.42E2,3.865E3,1.3941E4,3.202E3,3.242E3,3.51E2,1.87E2,5E1,3.1E1,9.58E2,1.65E2,7E0,2E0,3.23E2,1.52E2,1.62E2,1.8E2,2.548E3,1.317E3,5.517E3,8.424E3,1.694E3,1.508E3,3.23E3,1.2E1,7.9E1,2.72E2,6.1E1,1.26E2,4E1,1E1,1.2E1,1.9E1,7.34E2,2.24E2,6.5E1,1E2,2E0,5E0,2.47E2,7.6E1,1.46E2,6E0,1.09E2,5.3E1,1.1E1,1.69E2,2.293E3,2.55E2,1.265E3,5.2E1,3.173E3,2.344E3,4.71E2,7.953E3,9.74E2,7.2E2,5.95E2,9.13E2,2.421E3,8.09E2,1.1E1,1E0,5.3E1,2.6E1,1.1E1,2.61E2,1.2E1,4.9E1,1.18E2,8E0,8E0,3.2E1,2E0,8E0,3E0,9E0,1.2E1,7E0,5.44E2,1.9E2,1.06E2,1.18E2,5.2E1,1.3E1,4.3E1,5.7E1,3E0,2E0,1.7E1,2.3E2,4.8E1,2.8E1,3.1E1,1.15E2,6.1E1,4.8E1,4.2E1,1.1E1,6E0,5E0,1.62E2,7E0],"tree_param":{"num_deleted":"0","num_feature":"12","num_nodes":"117","size_leaf_vector":"1"}},{"base_weights":[2.4461222E-3,-1.2419653E-1,5.2635956E-1,1.05802864E-1,-8.0707157E-1,2.0971448E0,1.5510719E-1,-2.7863646E-1,5.440425E-1,-5.650057E-1,-2.2424037E0,2.6481686E0,2.664025E-1,2.6440191E0,-1.148797E-2,-4.1322794E-2,-1.4648452E0,2.5770295E0,3.158128E-1,-1.1894184E0,7.787415E-2,-2.138645E0,-6.1042433E0,4.2025337E0,2.1254494E0,-5.478135E-1,1.9448961E0,4.235677E0,1.699814E0,-4.1934675E-1,9.953118E-1,-1.2456983E0,1.7255801E-1,7.716804E-1,-1.6863486E0,4.891755E0,2.263653E0,7.208144E-2,1.2490827E0,2.820629E-1,-1.4566332E0,1.3326551E0,-3.658185E-1,-2.0625012E0,-3.8207421E0,-8.518335E0,-4.1490912E0,1.606879E0,4.673291E0,1.8156117E0,4.49214E0,1.052616E0,-1.6316398E0,2.750861E0,-2.1725385E0,5.6274095E0,2.729099E0,5.071135E-1,2.5675936E0,-2.7874428E-1,-3.7531269E0,3.1530683E0,2.774145E-1,-1.993351E-1,-5.879409E-1,7.843214E-1,4.2697056E-3,-5.708526E-1,5.5685955E-1,-4.477725E-1,-1.0239003E0,2.2848978E0,1.2599207E0,5.1844347E-1,1.0537702E0,1.09678484E-1,-2.3931396E-1,7.6345134E-1,2.043983E-1,-6.9313645E-1,6.086804E-1,-8.304632E-1,-3.0104327E-1,1.6827868E0,3.269398E-1,-3.153872E-1,1.3823523E-1,-1.0895349E0,-5.971715E-1,-4.614716E-1,-1.1764904E0,-2.747626E0,-6.053112E-1,-4.4414294E-1,-1.4404885E0,8.3356524E-1,-8.421652E-1,9.047026E-1,1.7431809E0,8.5508734E-1,2.709429E-1,1.3862618E0,-5.81321E-1,1.7787249E0,1.6165896E-1,-3.7072814E-1,-1.719862E0,5.4219097E-1,2.0067008E0,-2.2156526E-1,-2.9070587E0,9.1385376E-1,2.0952477E0,5.8997035E-1,3.2447808E0,2.3275615E-1,-1.2766305E0,5.6144357E-1,1.1241723E0,8.6668804E-2,-2.2559208E-1,-1.7547926E0,-9.295769E-1,1.2081981E0,3.5474545E-1,1.4507566E-1,-1.3330768E0],"categories":[],"categories_nodes":[],"categories_segments":[],"categories_sizes":[],"default_left":[0,0,0,0,0,0,0,0,0,0,0,0,0,0,0,0,0,0,0,0,0,0,0,0,0,0,0,0,0,0,0,0,0,0,0,0,0,0,0,0,0,0,0,0,0,0,0,0,0,0,0,0,0,0,0,0,0,0,0,0,0,0,0,0,0,0,0,0,0,0,0,0,0,0,0,0,0,0,0,0,0,0,0,0,0,0,0,0,0,0,0,0,0,0,0,0,0,0,0,0,0,0,0,0,0,0,0,0,0,0,0,0,0,0,0,0,0,0,0,0,0,0,0,0,0,0,0],"id":13,"left_children":[1,3,5,7,9,11,13,15,17,19,21,23,25,27,29,31,33,35,37,39,41,43,45,47,49,51,53,55,57,59,61,63,65,67,69,71,73,75,77,79,81,83,85,87,89,91,93,95,97,99,101,103,105,107,109,111,113,115,117,119,121,123,125,-1,-1,-1,-1,-1,-1,-1,-1,-1,-1,-1,-1,-1,-1,-1,-1,-1,-1,-1,-1,-1,-1,-1,-1,-1,-1,-1,-1,-1,-1,-1,-1,-1,-1,-1,-1,-1,-1,-1,-1,-1,-1,-1,-1,-1,-1,-1,-1,-1,-1,-1,-1,-1,-1,-1,-1,-1,-1,-1,-1,-1,-1,-1,-1],"loss_changes":[1.7795004E3,3.3924429E3,3.0443418E3,2.7223958E3,1.8895281E3,1.0060596E3,1.7514725E3,2.4231218E3,3.5027605E3,1.8699178E3,3.0149463E2,6.1425244E2,3.1812967E2,3.910558E2,1.6265206E3,1.8481858E3,7.121975E2,5.416665E2,1.5444119E3,9.295464E2,1.2787557E3,9.022998E1,5.9054993E1,2.2710034E2,4.1421875E2,2.7404776E2,2.5818295E2,1.9012402E2,1.725781E2,1.3203254E3,1.7681376E3,4.4780554E2,2.355559E3,3.806058E2,4.3186646E2,1.3770459E2,4.4403467E2,1.375063E3,1.0326201E3,1.6531696E3,1.1859194E3,6.170502E2,9.6202686E2,7.5735596E1,1.3367615E0,1.4825317E1,1.5529114E1,1.6812802E2,2.878833E2,4.7986743E2,6.3584595E1,1.5714413E2,1.4553334E2,2.2572626E2,1.3298624E2,1.538291E2,2.8088657E2,9.545358E1,7.2640686E1,7.271138E2,1.3828687E2,4.862356E2,8.3726953E2,0E0,0E0,0E0,0E0,0E0,0E0,0E0,0E0,0E0,0E0,0E0,0E0,0E0,0E0,0E0,0E0,0E0,0E0,0E0,0E0,0E0,0E0,0E0,0E0,0E0,0E0,0E0,0E0,0E0,0E0,0E0,0E0,0E0,0E0,0E0,0E0,0E0,0E0,0E0,0E0,0E0,0E0,0E0,0E0,0E0,0E0,0E0,0E0,0E0,0E0,0E0,0E0,0E0,0E0,0E0,0E0,0E0,0E0,0E0,0E0,0E0,0E0,0E0,0E0],"parents":[2147483647,0,0,1,1,2,2,3,3,4,4,5,5,6,6,7,7,8,8,9,9,10,10,11,11,12,12,13,13,14,14,15,15,16,16,17,17,18,18,19,19,20,20,21,21,22,22,23,23,24,24,25,25,26,26,27,27,28,28,29,29,30,30,31,31,32,32,33,33,34,34,35,35,36,36,37,37,38,38,39,39,40,40,41,41,42,42,43,43,44,44,45,45,46,46,47,47,48,48,49,49,50,50,51,51,52,52,53,53,54,54,55,55,56,56,57,57,58,58,59,59,60,60,61,61,62,62],"right_children":[2,4,6,8,10,12,14,16,18,20,22,24,26,28,30,32,34,36,38,40,42,44,46,48,50,52,54,56,58,60,62,64,66,68,70,72,74,76,78,80,82,84,86,88,90,92,94,96,98,100,102,104,106,108,110,112,114,116,118,120,122,124,126,-1,-1,-1,-1,-1,-1,-1,-1,-1,-1,-1,-1,-1,-1,-1,-1,-1,-1,-1,-1,-1,-1,-1,-1,-1,-1,-1,-1,-1,-1,-1,-1,-1,-1,-1,-1,-1,-1,-1,-1,-1,-1,-1,-1,-1,-1,-1,-1,-1,-1,-1,-1,-1,-1,-1,-1,-1,-1,-1,-1,-1,-1,-1,-1],"split_conditions":[5.2666668E1,4.4E1,5.5E1,3.1333334E1,5.3E1,6.9E1,4.3E1,3E1,3E1,4.3666668E1,6.9E1,4.9E1,6.0666668E1,3.6E1,7.0666664E1,1.6666666E1,1.7E1,2.3E1,4.4333332E1,2.2E1,4.2E1,6.7E1,4.9333332E1,4.2E1,5.9333332E1,4.6E1,1.16E2,6.7E1,5.6E1,8E1,7.5E1,1.4E1,1.4E1,2.5E1,3.9E1,1.8E1,3.4666668E1,4.4E1,4.7E1,3E1,3.6333332E1,2.7E1,4.8666668E1,4.3E1,6E0,5.4E1,4.6E1,4E1,5.4E1,5.4E1,7.3333336E1,2.8E1,9.4E1,6.9666664E1,2.0466246E1,7.235299E1,8.3666664E1,7.5E1,2.3176613E2,6.2E1,3.5E1,8.4E1,1.29E2,-1.993351E-1,-5.879409E-1,7.843214E-1,4.2697056E-3,-5.708526E-1,5.5685955E-1,-4.477725E-1,-1.0239003E0,2.2848978E0,1.2599207E0,5.1844347E-1,1.0537702E0,1.09678484E-1,-2.3931396E-1,7.6345134E-1,2.043983E-1,-6.9313645E-1,6.086804E-1,-8.304632E-1,-3.0104327E-1,1.6827868E0,3.269398E-1,-3.153872E-1,1.3823523E-1,-1.0895349E0,-5.971715E-1,-4.614716E-1,-1.1764904E0,-2.747626E0,-6.053112E-1,-4.4414294E-1,-1.4404885E0,8.3356524E-1,-8.421652E-1,9.047026E-1,1.7431809E0,8.5508734E-1,2.709429E-1,1.3862618E0,-5.81321E-1,1.7787249E0,1.6165896E-1,-3.7072814E-1,-1.719862E0,5.4219097E-1,2.0067008E0,-2.2156526E-1,-2.9070587E0,9.1385376E-1,2.0952477E0,5.8997035E-1,3.2447808E0,2.3275615E-1,-1.2766305E0,5.6144357E-1,1.1241723E0,8.6668804E-2,-2.2559208E-1,-1.7547926E0,-9.295769E-1,1.2081981E0,3.5474545E-1,1.4507566E-1,-1.3330768E0],"split_indices":[4,2,1,4,1,2,2,1,1,4,1,1,4,2,4,4,2,1,4,1,1,2,4,2,4,1,2,1,4,1,1,1,2,4,1,1,4,1,1,4,4,1,4,4,9,2,2,2,4,2,4,1,2,4,7,10,4,1,8,1,9,2,2,0,0,0,0,0,0,0,0,0,0,0,0,0,0,0,0,0,0,0,0,0,0,0,0,0,0,0,0,0,0,0,0,0,0,0,0,0,0,0,0,0,0,0,0,0,0,0,0,0,0,0,0,0,0,0,0,0,0,0,0,0,0,0,0],"split_type":[0,0,0,0,0,0,0,0,0,0,0,0,0,0,0,0,0,0,0,0,0,0,0,0,0,0,0,0,0,0,0,0,0,0,0,0,0,0,0,0,0,0,0,0,0,0,0,0,0,0,0,0,0,0,0,0,0,0,0,0,0,0,0,0,0,0,0,0,0,0,0,0,0,0,0,0,0,0,0,0,0,0,0,0,0,0,0,0,0,0,0,0,0,0,0,0,0,0,0,0,0,0,0,0,0,0,0,0,0,0,0,0,0,0,0,0,0,0,0,0,0,0,0,0,0,0,0],"sum_hessian":[2.6818E4,2.1598E4,5.22E3,1.6157E4,5.441E3,9.97E2,4.223E3,8.607E3,7.55E3,4.657E3,7.84E2,7.66E2,2.31E2,2.64E2,3.959E3,7.173E3,1.434E3,7.61E2,6.789E3,2.362E3,2.295E3,7.65E2,1.9E1,1.91E2,5.75E2,1.56E2,7.5E1,9.7E1,1.67E2,2.818E3,1.141E3,1.081E3,6.092E3,1.29E2,1.305E3,8.9E1,6.72E2,5.384E3,1.405E3,3.63E2,1.999E3,5.99E2,1.696E3,7.34E2,3.1E1,7E0,1.2E1,3E1,1.61E2,5.1E2,6.5E1,6.3E1,9.3E1,6.3E1,1.2E1,4.9E1,4.8E1,7.1E1,9.6E1,2.705E3,1.13E2,2.84E2,8.57E2,5.97E2,4.84E2,3.7E2,5.722E3,3.7E1,9.2E1,1.175E3,1.3E2,1.6E1,7.3E1,4.72E2,2E2,4.026E3,1.358E3,4.27E2,9.78E2,1.46E2,2.17E2,5.12E2,1.487E3,3.1E1,5.68E2,9.27E2,7.69E2,3E1,7.04E2,2E0,2.9E1,6E0,1E0,3E0,9E0,2.4E1,6E0,6.7E1,9.4E1,2.38E2,2.72E2,6.4E1,1E0,5E0,5.8E1,8.6E1,7E0,5.2E1,1.1E1,1.1E1,1E0,1.8E1,3.1E1,4.5E1,3E0,6.8E1,3E0,6.2E1,3.4E1,1.23E3,1.475E3,2.5E1,8.8E1,1.96E2,8.8E1,8.22E2,3.5E1],"tree_param":{"num_deleted":"0","num_feature":"12","num_nodes":"127","size_leaf_vector":"1"}},{"base_weights":[1.9135554E-3,-1.664295E-2,2.255885E0,9.447432E-3,-2.5997245E0,5.1263843E0,9.841243E-1,-6.665495E-2,6.225813E-1,-1.7490255E0,-5.003184E0,2.031018E0,8.254004E0,5.397722E0,-9.161796E-2,1.5033502E-2,-1.0804981E0,1.88347E0,2.1746278E-1,-2.811939E0,1.3698027E0,-3.3676896E0,-1.249114E1,4.379834E0,-2.2808123E0,5.330143E0,1.1841375E1,-9.7320175E-1,8.17446E0,-4.2255545E0,2.1551085E0,-8.711891E-2,7.2159153E-1,-9.4912905E-1,-4.520264E0,2.1746757E0,6.335125E-1,3.6402768E-1,-2.8669717E0,-2.3057363E0,-6.3397512E0,3.692954E0,9.961072E-2,-2.5563843E0,-2.4356399E0,-4.3771496E0,-1.3934397E0,6.023653E0,5.447178E-1,-5.8919317E-1,-2.3169434E0,-8.77129E-1,6.409675E0,1.293382E1,-3.540596E-1,-3.768321E0,2.041455E0,1.2281426E1,5.712912E0,-2.6459155E0,-9.331736E0,1.3073771E0,2.3760328E1,1.0102785E-2,-2.3387294E-1,3.9285642E-1,-4.748492E-2,-1.3843393E-1,-5.4746854E-1,-3.0746043E0,-1.0189643E0,9.0080655E-1,5.15763E-1,5.94756E-2,1.8163332E0,1.0970446E-2,6.5453196E-1,-1.238732E0,-3.6978146E-1,-1.6805375E0,-5.590374E-1,-2.3265822E0,-1.0802815E0,4.1082722E-1,2.8380744E0,2.0910767E-1,-1.3665771E0,-5.092437E-2,-1.1234131E0,3.4706575E-1,1.9908813E0,1.055959E0,-1.6761436E0,-5.356806E-1,3.6108536E-1,1.4226748E0,3.3180315E0,4.146392E0,1.6105282E0,-1.7906548E0,-2.267418E-2,4.45862E0,1.1659653E0,-6.1825335E-1,1.924615E0,2.7555618E-1,-1.7087668E0,-3.6640525E0,-1.202179E0,6.588612E-1,-4.772153E0,9.048439E0,1.6437093E0],"categories":[],"categories_nodes":[],"categories_segments":[],"categories_sizes":[],"default_left":[0,0,0,0,0,0,0,0,0,0,0,0,0,0,0,0,0,0,0,0,0,0,0,0,0,0,0,0,0,0,0,0,0,0,0,0,0,0,0,0,0,0,0,0,0,0,0,0,0,0,0,0,0,0,0,0,0,0,0,0,0,0,0,0,0,0,0,0,0,0,0,0,0,0,0,0,0,0,0,0,0,0,0,0,0,0,0,0,0,0,0,0,0,0,0,0,0,0,0,0,0,0,0,0,0,0,0,0,0,0,0,0,0],"id":14,"left_children":[1,3,5,7,9,11,13,15,17,19,21,23,25,27,29,31,33,35,37,39,41,43,45,47,49,51,53,55,57,59,61,63,65,67,69,71,73,75,77,79,81,83,85,87,-1,-1,-1,89,91,93,-1,-1,95,97,-1,99,-1,101,103,105,107,109,111,-1,-1,-1,-1,-1,-1,-1,-1,-1,-1,-1,-1,-1,-1,-1,-1,-1,-1,-1,-1,-1,-1,-1,-1,-1,-1,-1,-1,-1,-1,-1,-1,-1,-1,-1,-1,-1,-1,-1,-1,-1,-1,-1,-1,-1,-1,-1,-1,-1,-1],"loss_changes":[1.1217646E3,1.7927614E3,7.944336E2,1.2289042E3,5.351185E2,6.3187146E2,7.269222E2,1.9403893E3,1.4850243E3,6.602307E2,8.029426E2,3.6445898E2,2.8302002E2,5.3866705E2,1.1607968E3,1.5650681E3,7.851421E2,2.5596631E2,9.965016E2,2.4967883E2,1.5012541E2,2.0281201E2,1.2989758E2,1.4171625E2,1.1513215E2,1.9694751E2,2.1441919E2,2.4304868E2,1.4213672E2,3.3020966E2,1.4524852E3,1.5846865E3,1.4171042E3,7.1838745E2,3.771654E2,2.1093433E2,3.1733453E2,1.251706E3,2.0118945E2,1.8052966E2,4.1857056E1,2.2825357E2,9.772528E1,1.4400552E2,0E0,0E0,0E0,4.0026E1,1.6561147E2,2.574347E1,0E0,0E0,8.712671E1,1.3085449E1,0E0,6.45567E1,0E0,9.388672E1,9.51337E1,3.8573206E2,1.0449634E2,1.2436951E3,1.858075E2,0E0,0E0,0E0,0E0,0E0,0E0,0E0,0E0,0E0,0E0,0E0,0E0,0E0,0E0,0E0,0E0,0E0,0E0,0E0,0E0,0E0,0E0,0E0,0E0,0E0,0E0,0E0,0E0,0E0,0E0,0E0,0E0,0E0,0E0,0E0,0E0,0E0,0E0,0E0,0E0,0E0,0E0,0E0,0E0,0E0,0E0,0E0,0E0,0E0,0E0],"parents":[2147483647,0,0,1,1,2,2,3,3,4,4,5,5,6,6,7,7,8,8,9,9,10,10,11,11,12,12,13,13,14,14,15,15,16,16,17,17,18,18,19,19,20,20,21,21,22,22,23,23,24,24,25,25,26,26,27,27,28,28,29,29,30,30,31,31,32,32,33,33,34,34,35,35,36,36,37,37,38,38,39,39,40,40,41,41,42,42,43,43,47,47,48,48,49,49,52,52,53,53,55,55,57,57,58,58,59,59,60,60,61,61,62,62],"right_children":[2,4,6,8,10,12,14,16,18,20,22,24,26,28,30,32,34,36,38,40,42,44,46,48,50,52,54,56,58,60,62,64,66,68,70,72,74,76,78,80,82,84,86,88,-1,-1,-1,90,92,94,-1,-1,96,98,-1,100,-1,102,104,106,108,110,112,-1,-1,-1,-1,-1,-1,-1,-1,-1,-1,-1,-1,-1,-1,-1,-1,-1,-1,-1,-1,-1,-1,-1,-1,-1,-1,-1,-1,-1,-1,-1,-1,-1,-1,-1,-1,-1,-1,-1,-1,-1,-1,-1,-1,-1,-1,-1,-1,-1,-1],"split_conditions":[9.1333336E1,9E1,9.8E1,5.8E1,8.2E1,1.3779114E1,1.8787498E0,5.6E1,6.1E1,8.1E1,1.08E2,1.07E2,1.40725E1,7E1,1.00225E1,4.7666668E1,7.4E1,7.2E1,9.7E1,7.5E1,7.27184E1,1.02E2,2.2819766E2,8.4E1,1.18E2,3.6591854E1,3.0315332E1,1.24E2,-1.405E0,9.9E1,2.7483035E2,4.6E1,5.4E1,5.4E1,4.9333332E1,5.6E1,6.9666664E1,7.6666664E1,8.3666664E1,5.3333332E1,2.3309418E2,4E-1,1.4E2,8.3E1,-2.4356399E0,-4.3771496E0,-1.3934397E0,2.0795E0,9.3962755E0,9E1,-2.3169434E0,-8.77129E-1,2.4228479E2,1.16E2,-3.540596E-1,1.23E2,2.041455E0,1.24E2,8.1E1,7.204263E1,9.3E1,1.77E2,1E0,1.0102785E-2,-2.3387294E-1,3.9285642E-1,-4.748492E-2,-1.3843393E-1,-5.4746854E-1,-3.0746043E0,-1.0189643E0,9.0080655E-1,5.15763E-1,5.94756E-2,1.8163332E0,1.0970446E-2,6.5453196E-1,-1.238732E0,-3.6978146E-1,-1.6805375E0,-5.590374E-1,-2.3265822E0,-1.0802815E0,4.1082722E-1,2.8380744E0,2.0910767E-1,-1.3665771E0,-5.092437E-2,-1.1234131E0,3.4706575E-1,1.9908813E0,1.055959E0,-1.6761436E0,-5.356806E-1,3.6108536E-1,1.4226748E0,3.3180315E0,4.146392E0,1.6105282E0,-1.7906548E0,-2.267418E-2,4.45862E0,1.1659653E0,-6.1825335E-1,1.924615E0,